784 100
topping -0.3882132 0.49312714 -0.053002257 0.19488406 0.1886976 -0.4384447 -0.32488948 0.17759012 -0.6332615 -0.45788673 -0.18559645 0.1078518 0.7216282 0.28465128 0.16291887 -0.28630996 -0.3119319 -0.52532965 -0.18422006 0.17703182 -0.24151528 0.13547766 -0.14993937 0.63670725 0.46932837 -0.38449788 -0.0655148 0.39797008 0.06861416 -0.45141056 -0.30887765 -0.3334196 -0.76450574 -0.14944173 0.5747404 0.07562168 0.47265533 -0.16155338 -0.69314206 -0.016143158 0.6487747 0.08271687 -0.12975904 -0.50888264 0.063989244 -0.09477769 -0.12399192 0.19556943 0.36573464 -0.09523718 0.20469397 -0.42652002 0.053638488 -0.36255556 0.22979704 -0.037763942 -0.06704023 -0.57836497 0.20134296 0.14533176 -0.0033838158 0.3505691 0.11836555 -0.034897022 -0.09748729 -0.08998021 0.06794262 -0.236439 -0.3393924 -0.2673911 0.1562769 -0.23014554 -0.12712544 -0.30812573 -0.07642974 0.24644 0.14400406 -0.33340073 0.071575254 -0.1827792 0.03312543 0.112132 -0.27860862 0.26384377 -0.54827964 0.2863949 -0.73788995 -0.20889533 0.30246052 0.17495456 0.506485 0.23290166 0.07729059 0.15940364 0.04422967 0.24766125 -0.19570665 -0.46165594 0.06511813 0.17469445
of 0.08344039 -0.030236108 0.2986851 -0.028398601 0.25525752 -0.08359634 -0.06633082 0.003180963 -0.013947379 -0.27109906 0.085445926 0.16279882 0.19135603 0.044692736 0.19068424 0.29074728 0.0026614876 -0.45566052 -0.13734055 -0.08041371 -0.6363774 0.09902483 0.38436088 0.5024704 0.52256405 -0.17519678 -0.46962115 0.1455693 0.017556788 -0.11097117 -0.26779234 -0.09431573 -0.88938206 0.4559639 0.4079923 -0.13087805 0.39816058 -0.41644427 -0.49414137 -0.095075935 0.56304824 0.119187914 -0.14889975 -0.34824356 0.38121656 -0.07717689 0.21472503 0.10766025 0.5301007 -0.07588681 0.34262162 -0.6090083 -0.06969867 -0.30982313 0.110784926 0.13254504 -0.45616877 0.047315713 0.24010026 0.035359364 0.339148 0.64296776 -0.11069144 -0.09562422 0.59494704 0.03229435 -0.115466364 -0.07632125 -0.16795322 -0.3813869 0.28959608 -0.25017455 0.006713866 -0.006169353 -0.005415923 0.16004056 0.17424443 -0.2711446 0.2091792 -0.28317708 -0.27724683 0.044584073 0.19972074 0.08115792 -0.25221574 0.31228688 -0.841168 -0.19713193 0.27414495 -0.18885946 0.47314596 0.26935014 0.10541785 0.26201975 0.14998409 -0.03090902 0.07384458 -0.30991483 -0.1633966 0.16450332
has -0.42997968 0.2997498 0.17561035 0.16380738 -0.048079427 -0.488568 0.085179515 0.37341014 -0.4782787 0.14001463 0.20306164 0.06818933 0.3196383 -0.21683447 0.53756416 -0.22100234 -0.2747618 -0.6302932 -0.00094323204 0.08276863 -0.04817169 -0.12743041 0.04751241 0.33060917 0.4233321 -0.25573578 0.13428527 0.16972059 0.20917837 -0.26229155 -0.515758 0.05953842 -1.0694451 0.102838315 0.47364956 0.17985965 0.5217258 -0.51713187 -0.6360014 -0.0043273782 0.19566181 0.09193965 -0.42705756 0.106940776 0.26820388 -0.28515184 0.36662325 -0.11691941 0.6128416 -0.10683631 0.0053783245 -0.1970458 -0.1641674 -0.2604565 0.5771682 -0.21170744 -0.08030976 -0.26424327 -0.06692561 0.03289576 0.17906874 0.2650713 -0.03823282 0.11879214 0.4750739 -0.21324052 -0.42455173 -0.38037252 -0.11617202 0.16830254 0.19196627 -0.45880416 -0.35795882 0.24655998 -0.02463691 0.061550118 0.09644679 0.096772455 0.29077673 -0.5927074 -0.1467136 0.19042546 0.09757295 0.26871833 -0.07427783 0.49367997 -0.7234189 -0.08740799 0.28679705 0.16706815 0.67540014 0.2698647 0.37105164 0.17627047 0.054392535 0.25565907 -0.028303828 -0.18214469 -0.034746 -0.17426741
subclassof -0.37827134 0.5746914 -0.058116935 0.30331376 0.16695078 -0.2953487 -0.16464935 -0.01362801 -0.20356247 -0.07228838 0.12677528 0.054903317 0.06710844 -0.046623647 0.3228297 0.05692851 -0.15410341 -0.52589077 -0.10400796 -0.15616995 -0.6474654 0.034998275 0.46324253 0.21389757 0.60073876 -0.23627554 -0.009749762 -0.059617203 -0.0039276388 -0.2902414 -0.30376637 -0.06853709 -0.5855519 0.49634337 0.4831155 0.393129 0.6174889 -0.4815748 -0.12663136 0.07481298 0.38387096 0.038521245 -0.12997347 -0.27143547 0.36138472 -0.04298676 0.30007178 0.2653876 0.60572255 -0.008584296 0.1849321 -0.12176858 -0.14227709 -0.058552742 0.50016266 0.15441258 0.022295816 0.13519442 0.011927199 0.092567526 0.42979914 0.35991442 0.0141257085 0.41067734 0.12520704 -0.12826689 -0.33643755 -0.17264877 -0.15246676 -0.13276185 0.374903 -0.17657903 -0.4562038 -0.27922067 0.17031862 0.069702 0.12843548 -0.21961477 -0.10288871 -0.15519293 -0.17467828 0.23779795 -0.28450826 -0.30002558 -0.34616476 -0.053697985 -0.8861295 0.1706158 0.29822296 0.19677055 0.17124343 0.23684995 0.42138118 0.3987338 -0.07099471 0.20320795 0.05575548 -0.5646492 -0.04143099 -0.010422283
pizza 0.0743243 0.19293383 0.30593383 0.3958468 0.052478045 -0.49616787 -0.15440564 -0.08259189 -0.3909355 -0.28168628 -0.19477333 0.04056818 -0.0048597762 -0.07915749 0.0039038418 -0.1433732 0.036236852 -0.43204474 -0.4556869 0.24026614 -0.036713544 -0.106154464 0.30385765 0.48483336 0.3556914 -0.29235455 0.36101553 0.7010289 -0.27350602 -0.058409594 -0.6465348 -0.13692051 -0.50201017 0.019849304 0.29761103 -0.0055183214 0.16487654 0.006209997 -0.47335416 -0.04636294 0.40056136 -0.0012055631 -0.23578557 -0.080011286 0.43851233 -0.10489195 0.13952565 0.7221025 0.5165394 0.029956013 0.6822823 -0.15879251 -0.09926439 -0.3754523 0.4157486 -0.12630604 0.055728547 0.24061187 0.3542874 0.04792669 0.23201172 0.2330062 -0.14037839 -0.01443206 0.28566542 -0.057924375 0.066858396 -0.2510384 -0.26868662 0.06789784 0.33012024 -0.34459594 -0.43841365 0.13969836 0.22876818 0.051939562 0.2464987 -0.54647446 0.34375235 -0.36977416 -0.28856048 0.062323477 -0.53837043 -0.02680438 0.25243288 0.17937827 -0.8045986 -0.061888173 0.509764 0.036831204 0.234287 0.64654636 0.0503041 0.35679442 -0.049088247 -0.056426574 0.14914584 -0.22034179 0.15669699 -0.041600004
is -0.39798182 0.06692625 0.27678666 0.32384267 0.09593191 -0.4748985 -0.3262493 -0.007904566 -0.51538765 -0.09193465 0.40835723 0.28219956 0.73760515 0.10844471 0.6261155 0.024155838 0.04573803 -0.4317824 0.012653823 0.5198914 -0.29591355 0.103266455 -0.0438177 0.41419348 0.24521454 -0.33526802 0.3557523 0.25797492 0.23919477 -0.09177175 -0.07340155 -0.2864511 -0.76699203 0.022322277 0.3940944 0.27472034 0.4742032 -0.4513166 -0.19964378 -0.03882168 0.5044027 0.30320403 -0.27737293 -0.4607006 0.11250048 -0.15108669 0.15203857 0.0067166477 0.6595803 0.032554172 0.591261 -0.3299433 0.08761559 -0.09591221 0.588693 -0.3931711 0.11725207 -0.054868914 0.36864078 0.11300016 0.47269395 0.22242337 -0.101334155 -0.3305488 0.5098358 -0.13905504 -0.0758345 -0.28692722 -0.18981805 -0.29611903 0.48376346 -0.13121809 -0.6782305 0.05332867 -0.4296733 0.018586589 0.35898748 -0.16559389 0.21234626 -0.24052364 -0.43319064 -0.02574655 -0.43134126 0.12987909 -0.24367575 0.4131494 -0.2911034 -0.38829544 0.43214148 0.20313135 0.1126156 0.41506496 0.07460566 0.42289633 -0.20754045 0.2504874 0.1739749 -0.45009416 -0.22081146 -0.12300958
class -0.1453859 0.47330856 0.20914806 0.40748262 0.24211635 -0.035635382 -0.119980685 -0.15310495 0.039227847 -0.051136307 0.40714273 0.11490518 0.19092909 0.17011125 0.21663576 0.114026554 -0.3428151 -0.17355315 -0.2692853 0.035872985 -0.52047145 0.085821584 0.31931445 0.48256308 0.542525 -0.25829703 -0.0677224 0.051380657 0.20543239 -0.39503634 -0.19258112 0.033890314 -0.40530914 0.23805302 0.36111575 -0.016440243 0.44993225 -0.4291542 0.23386088 0.17111723 0.43409607 0.46431616 -0.08274757 -0.4524687 0.6269137 -0.3863791 0.43026453 0.19561553 0.8139166 0.45486137 0.28821173 -0.36659306 -0.28467062 -0.08865436 0.24357769 0.035805997 0.20251633 0.37159386 -0.035945714 -0.05714857 0.15151104 0.36694205 -0.34962523 0.2082073 0.31467298 -0.19893804 -0.18101731 0.051569045 0.08061971 -0.49112555 0.48717237 -0.20880532 -0.27617505 -0.57409805 -0.039333176 0.15721884 0.48678893 -0.32808894 -0.34158057 0.15458214 -0.004312324 -0.04141152 0.09320118 0.14293887 -0.507358 0.43678308 -0.4517846 0.09894035 0.32686302 0.45277873 0.152059 0.44522196 0.41012216 0.39465773 -0.4520901 0.29467303 0.2953216 -0.33521196 -0.3110889 -0.18326876
super -0.22786348 0.08547507 0.18520325 0.020694552 -0.101030305 0.03556062 -0.31770542 -0.017410072 -0.3407557 -0.04387067 0.32098147 0.10292018 0.44629014 0.29740962 0.5782961 0.18237783 0.06558646 0.06654709 -0.18792093 0.21361154 -0.8184585 0.31886834 0.42924017 0.07859406 0.73519224 -0.29676327 0.107017644 -0.12612122 -0.028326532 -0.43006817 -0.12923788 0.1250754 -0.31256056 0.7446523 0.37405932 0.083707236 0.4677832 -0.40473062 -0.18641317 -0.045744974 0.6061909 0.22242315 -0.23047923 -0.46251264 0.48289785 -0.34544858 0.05703082 0.48540956 0.55415845 0.061581783 0.4693669 -0.56374955 -0.31904408 -0.08993573 0.20407087 0.035674687 0.040925022 -0.19052075 0.022758754 -0.05331324 0.10100948 0.2844725 0.2683619 0.39697427 0.30453536 0.038277976 -0.35389844 -0.10445367 -0.3392914 -0.41772386 0.15018441 0.056174897 -0.54951537 -0.007872491 0.30257773 0.35971496 0.22439802 -0.50958574 -0.40713805 -0.081794985 0.036348164 0.15560973 -0.014502985 -0.22415268 0.008630825 0.28989878 -0.63785034 -0.03990921 0.13885622 0.018851373 -0.2283482 0.4848404 0.24095957 0.50984 -0.095542155 0.14743058 0.48412463 -0.30080187 -0.42533383 -0.12782645
label -0.334611 0.31054655 0.04081639 0.22144252 -0.1294238 -0.24542087 -0.19932717 0.044860013 -0.36137426 -0.10512289 0.362095 0.026931979 0.0885581 0.25019497 0.41628715 0.14121684 -0.0015160701 -0.39974388 -0.24662599 0.21826422 -0.7701421 -0.024880938 0.101482995 0.5375118 0.3519715 -0.17365423 0.10173597 0.041192368 0.11233536 -0.27343112 -0.26355022 0.13616797 -0.7885248 0.40693262 0.36169624 -0.044942304 0.5920293 -0.624763 -0.25616193 0.11185951 0.5543211 0.038605265 -0.120718725 -0.28721112 0.30498633 -0.11865808 0.05518716 0.11420576 0.5501869 0.18928713 0.3970754 -0.28099775 -0.09939715 -0.039663706 0.2563353 0.1456277 -0.17705636 -0.10878288 0.2219225 0.09292106 0.12785952 0.42410353 -0.040132448 0.041015614 0.6310802 -0.16118085 -0.16667406 -0.15770473 -0.003979982 -0.1761311 0.46457967 -0.17836647 -0.39192942 -0.07206634 0.16476013 -0.020709818 0.042436127 -0.30507582 -0.031479176 -0.11626539 -0.07092814 0.32054994 0.102804966 -0.03970265 -0.15925375 0.40097845 -0.70257014 -0.06336718 0.17251092 0.119347386 0.19796655 0.13363585 0.25671622 0.4423099 -0.14266229 0.35762966 -0.082916185 -0.27572718 0.0574828 -0.1966986
preflabel -0.28851935 0.31795892 0.06997098 0.14638175 -0.13541338 -0.2886069 -0.22482185 0.06729623 -0.3130663 -0.089986436 0.24294963 0.06706151 0.053417876 0.21271569 0.35777104 0.024356011 0.039688583 -0.40609616 -0.34576336 0.19427037 -0.6507163 0.061467763 0.07329374 0.46968344 0.34898728 -0.14133483 0.063543975 0.071058765 0.055979464 -0.23313625 -0.27107924 0.14534691 -0.7360734 0.3374775 0.33636346 0.05208635 0.49804634 -0.67659384 -0.2675225 0.08291485 0.6216191 0.05422092 -0.061573215 -0.37190008 0.31065536 -0.045222323 0.045419578 0.09064547 0.5576965 0.1325935 0.3780481 -0.25126994 -0.014574515 -0.08785094 0.26270536 0.12184515 -0.14008915 -0.025270212 0.25765938 0.13925068 0.13139349 0.4170819 -0.050546475 0.034670755 0.6318768 -0.13668245 -0.12608473 -0.2006279 0.0046210787 -0.14240953 0.32321137 -0.20398393 -0.28156143 -0.11251514 0.13577096 0.009123609 0.001441158 -0.28061438 0.0798006 -0.103107154 -0.106247805 0.28257278 0.02480937 -0.0122154 -0.15013891 0.29096922 -0.61663246 -0.049907353 0.149579 0.09251451 0.20931675 0.17437027 0.30646902 0.4289107 -0.07683905 0.3017446 -0.047258113 -0.3487632 0.12473731 -0.1756537
http://www.w3.org/2000/01/rdf-schema#subClassOf 0.046122637 0.05102238 0.07162825 -0.0606365 -0.21698377 0.03472734 0.17727557 0.23216292 -0.35207212 0.008917137 -0.38177443 0.43373984 0.040953737 0.31329876 0.050886907 0.4038431 -0.3234759 -0.22010802 -0.32053062 -0.043454535 -0.6139593 -0.22147614 0.36672974 0.43495992 0.5060982 -0.103847034 -0.26045197 0.13298386 -0.22620945 -0.36904186 0.07734162 -0.14353225 -0.47744635 0.3633916 0.06375454 0.34000275 0.3575169 -1.0862416 -0.1648666 0.38456574 0.49022174 0.4765074 -0.008967624 -0.138091 0.39918888 -0.0035463092 0.29185152 0.4468167 0.3708035 0.03517095 0.069618136 -0.5461878 0.17571083 0.09434472 -0.2957258 0.051551126 -0.010258517 0.14061493 -0.35844147 0.2495206 -0.076733135 -0.109989166 -0.41767693 0.3962822 0.41816208 -0.4359572 0.10654159 -0.112852186 0.082070634 -0.38849604 0.086278975 -0.09998828 0.25036013 -0.3366684 0.3627021 -0.0671382 -0.1164014 0.21109776 -0.3017823 0.02339324 -0.05500856 0.04882906 -0.061811138 -0.040594295 -0.1071148 0.07886466 -0.32300138 -0.054505892 -0.05347239 0.11999943 -0.56314266 0.2539751 0.033772398 0.16461362 -0.06982585 -0.109026544 0.52650034 0.00040497034 -0.21019568 -0.10776286
spiciness -0.42741615 0.5305329 -0.052353926 -0.22649875 -0.09012071 -0.6216704 -0.39170116 0.54102033 -0.20403475 -0.89159346 0.46967056 0.14965446 -0.085401416 -0.3146603 -0.00525003 -0.17971261 0.42150453 -0.22349411 -0.0045892084 0.5880203 -0.60064924 0.022618592 -0.29571134 0.186828 0.758179 -0.41395208 0.32860023 0.23110193 0.05521315 0.046776645 -0.5460849 -0.28899273 -0.6915106 0.19091927 0.34075043 -0.5032932 0.48777065 -0.47013023 0.01431962 0.6501924 0.6830022 -0.07846887 -0.06720101 -0.008875448 -0.0008434996 -0.4063884 0.039016984 0.65497655 0.7049128 0.09130383 0.21403037 -0.46921134 0.03978495 0.20019613 0.40305302 0.16891246 -0.13657087 -0.08753174 -0.0607705 0.042280603 -0.038870562 0.5522495 -0.0038773867 0.027250951 0.33297214 -0.5396966 -0.18982871 -0.48901182 0.39307806 -0.14953694 0.38225603 -0.010627493 -0.5084997 -0.56022006 -0.40134177 0.09876033 0.06724011 -0.2783365 -0.25788805 -1.1225207 0.033936653 0.40820688 -0.21505845 -0.06904572 -0.42264768 0.20001729 -1.2170062 -0.2298525 0.2840047 -0.05720457 -0.00096521585 -0.021524558 0.31188557 0.34160712 -0.044767085 0.026747877 -0.06812147 -0.2845009 0.44977602 -0.1634576
http://www.semanticweb.org/owl2vec#superClassOf -0.027334023 -0.18288986 0.13517836 -0.0785306 0.046722572 0.11347172 0.16911523 0.17021853 -0.38889852 -0.030240959 -0.28076887 0.5465464 0.03701599 0.5966618 -0.056090184 0.36017194 -0.37099496 0.04505154 -0.13052298 0.027311128 -0.6014785 -0.18496919 0.6066122 0.43483296 0.35654613 0.1040776 -0.1950088 0.38024542 -0.18091963 -0.5569024 0.19792 -0.19284616 -0.2462703 0.43992198 0.08068584 0.10552599 0.28866452 -1.1180861 -0.2308829 -0.073449254 0.6194153 0.46217796 0.27302834 -0.32167065 0.26414376 -0.032441724 0.17055416 0.34461915 0.5526168 0.0313191 -0.065230876 -0.93644714 -0.11877557 0.3047055 -0.11859665 -0.20468527 -0.10298468 0.072688155 -0.4937881 0.07761556 -0.06885415 -0.040426843 -0.3543901 0.21068093 0.29135883 -0.54659104 0.14987615 -0.20158997 0.20044297 -0.540485 0.090070136 -0.062607534 0.18372416 -0.637812 0.39864922 0.15220097 0.19225846 0.12692459 -0.5155917 0.023306346 0.030543707 -0.19511643 0.021607187 0.04162684 -0.3281337 -0.0023681629 -0.21191259 -0.3750567 -0.3244788 0.0830692 -0.7503242 0.28464067 0.14353967 -0.119403385 0.016705 -0.15026702 0.32101652 0.067788474 -0.25894013 -0.07153109
http://www.co-ode.org/ontologies/pizza/pizza.owl#hasTopping 0.09685392 0.09075225 -0.10384169 0.0060959966 -0.27370986 -0.49875107 0.096668676 0.49244115 -0.891123 0.3831911 -0.6427483 0.33885998 0.3725812 0.8441184 0.13331875 -0.4960801 -0.5293312 -0.47309813 -0.37837225 -0.32149825 -0.20082425 -0.05486865 -0.26317534 0.7044151 0.43841204 -0.38840625 0.11408203 0.2512932 0.017258309 -0.35940614 -0.27850622 -0.3400659 -0.848693 0.15031084 0.5228119 0.92682314 0.43662384 -0.71341115 -0.36506718 0.13660227 0.28469685 0.17625599 -0.29549146 -0.085585676 0.069609836 0.14319173 0.39926714 0.24176615 0.14386515 -0.3645395 -0.07172791 -0.3401515 -0.14606348 0.13499387 -0.015836548 -0.46526387 0.083453365 -0.56002605 -0.37938002 0.2961164 -0.28156298 -0.38658446 -0.37507117 -0.082206346 -0.15951586 -0.6700288 0.0049268124 -0.29126042 0.11537628 -0.02086905 0.35756496 -0.5860899 0.13814124 -0.31854767 0.37652895 0.018304134 -0.17802946 0.6010358 -0.41308692 -0.22724804 0.124525376 -0.17675914 -0.4243894 -0.043951567 -0.34793454 0.15704504 -0.45911407 -0.023511672 0.48380664 0.39958897 0.03689113 0.18944103 -0.46470258 -0.13028148 0.08791585 0.23018019 0.17894697 0.19023326 -0.2163448 0.0026290966
http://www.co-ode.org/ontologies/pizza/pizza.owl#isToppingOf 0.123628326 -0.35450613 0.0670302 0.028254325 -0.11983424 -0.27670437 -0.025844548 0.32807514 -0.60158664 -0.36435783 -0.5574183 0.6174922 0.3063756 0.6643185 -0.09409503 0.2257309 -0.086646974 -0.38861746 -0.123474844 0.5382158 -0.11271043 0.30626824 -0.06938595 0.77196753 0.15015942 -0.19892971 -0.014114735 0.513031 -0.32769743 -0.24473688 0.08882375 -0.672579 -1.0416391 0.3125411 -0.023910392 0.34102172 0.1910043 -1.1424944 -0.67159766 0.042798333 0.86185324 0.5975367 0.014135505 -0.32403445 0.02752021 -0.089838736 0.09114097 0.26036152 0.44513097 -0.47143146 0.27205703 -0.695843 0.2441761 -0.11024275 -0.08864736 -0.32374233 0.006713749 -0.024176028 -0.16901438 0.19384487 0.1909645 -0.37209255 -0.25560385 -0.6416857 0.40573058 -0.5524184 0.117516145 -0.012725609 0.10301748 -0.7132008 0.4731723 -0.015168471 0.26045758 -0.67100835 -0.080150485 -0.094180375 -0.051816083 0.27136147 -0.084507145 -0.1708961 -0.22799583 -0.4369453 -0.5292725 0.056698497 -0.4957134 0.0559176 -0.5106727 -0.43265903 0.26010954 0.10761707 -0.36392805 0.3039966 -0.4769245 0.09690196 0.08901307 -0.33525288 0.25241435 -0.09751885 -0.018767342 0.16285844
tomatotopping -0.51802653 0.38177106 -0.26169503 0.23039043 0.37287632 -0.59813756 -0.0017457056 0.2539269 -0.68938166 0.0081956005 -0.1505106 0.46511027 0.29124698 -0.05225068 0.10370404 -0.39618093 -0.47814083 -0.71412194 -0.14448202 0.17470507 -0.11362381 0.24341014 0.050809257 0.79487246 0.38538593 -0.36600333 -0.111872844 0.26523083 -0.38594356 -0.43785846 -1.044801 -0.04577176 -0.67339426 0.14762348 0.8935196 -0.22816156 0.3214625 -0.23553085 -0.37486976 0.14203462 0.18600522 -0.024169827 0.10577751 -0.11686179 -0.1524009 0.33959842 -0.14997162 0.75101495 0.4341215 -0.5380931 0.2706102 -0.39429858 -0.3563244 -0.17121689 0.4290126 -0.47923902 0.25147417 -0.04199491 0.5142695 0.08336535 0.33280447 0.2035141 -0.04162725 0.29036885 0.2716616 -0.075026274 -0.061946314 -0.30610025 -0.14256068 -0.09867152 -0.35678342 -0.21343896 -0.12603693 -0.26209548 -0.17718737 -0.30705017 0.019766709 -0.22441126 -0.3244976 -0.41579202 -0.10882633 -0.52626026 -0.42374462 0.57716334 -0.035054747 0.40869573 -0.52163756 -0.23635763 0.5522308 0.050669022 0.41104257 -0.14971986 0.23215126 -0.120682515 0.1882548 0.020228224 0.4009967 0.28898108 0.0472947 -0.54746383
pizzatopping -0.14721905 0.40163994 0.6597706 0.07095214 0.065147 -0.0751653 -0.38306057 0.27226418 -0.13548204 -0.9923623 0.67426914 -0.042665508 0.21299306 0.30031013 0.017408073 0.091854766 -0.04003519 -0.36946467 -0.1344313 0.35595268 -0.34471568 0.20634896 -0.021620756 0.68393815 0.6110125 -0.28412098 0.019377304 0.037114676 -0.18238224 -0.56373626 -0.26487765 0.2922498 -0.80440897 0.16843456 0.33448416 -0.1774316 0.36421037 -0.09879969 -0.22999385 0.3244498 0.6382926 0.07872831 -0.21218783 -0.13169813 0.3701895 -0.34576038 0.1858192 0.5495989 0.9463365 0.32097176 0.21729168 -0.6159185 -0.08970265 -0.002345127 0.059203003 -0.08671248 0.27281868 0.03510861 0.14521615 -0.14864454 0.26315084 0.4334552 -0.070336126 0.15183337 0.35642466 0.43767 -0.06340617 0.07135898 -0.661628 -0.113348514 0.8454546 0.047539357 -0.46837774 -0.08354849 0.14703102 0.5911227 0.038333688 -1.0368811 0.13709225 -0.16695319 0.30724826 -0.17754187 -0.31599823 0.3668415 -0.48594144 0.030489618 -0.80771625 0.09540102 0.034449775 -0.00047590063 0.2916928 1.1557913 0.67296714 0.6630726 -0.36657524 0.020823278 0.05932448 -0.11902784 -0.32603052 0.2291031
http://www.w3.org/2004/02/skos/core#prefLabel -0.19758677 0.16664584 -0.05577534 -0.22131102 -0.3848347 0.1052827 0.27058324 0.37898842 -0.4735542 0.10795373 -0.36239547 0.33556673 0.06540161 0.3340627 0.4038136 0.27639005 -0.18336836 -0.41895887 -0.49685705 0.030241765 -0.605889 -0.037478216 0.24513221 0.4455553 0.46477684 0.15627679 0.036138885 0.10874102 -0.14587161 -0.32990015 0.21192314 -0.12416371 -0.5107689 0.33585757 -0.06691381 0.20224951 0.4178915 -1.0615529 -0.2811665 0.15908945 0.4220892 0.16487068 0.11985571 -0.111610964 0.17664452 0.061091043 0.018867629 0.2563018 0.3758656 0.046208512 -0.042650986 -0.34253767 0.19376318 0.24739994 -0.34648335 0.062469922 -0.17821898 0.16532207 -0.24429703 0.32358763 -0.115994684 -0.28496364 -0.31451827 0.3014756 0.5823021 -0.19150212 0.14874737 -0.0013467845 0.18858603 -0.25820127 0.061421223 -0.12770465 0.13503821 -0.14822301 0.434257 -0.18356116 -0.064177826 0.1357694 -0.1040985 -0.06532221 0.032964893 0.008140545 0.04202735 0.1654522 0.035462886 0.12266977 -0.29827368 -0.06753741 -0.05951319 0.20648552 -0.39380544 0.14659287 0.10890113 0.14810796 -0.19708416 -0.016369317 0.38998288 0.18677732 -0.08433703 -0.15379064
http://www.w3.org/2000/01/rdf-schema#label -0.22984625 0.04716268 0.019476004 -0.16144808 -0.5392097 0.03407766 0.15723641 0.2997888 -0.4990137 0.14226122 -0.41811475 0.39241642 -0.017357105 0.33738753 0.37971544 0.25900173 -0.24936543 -0.2572651 -0.40161118 0.14883912 -0.7199215 0.021731716 0.19784051 0.46008536 0.45049602 0.10797293 -0.11000677 0.04384254 -0.2550167 -0.38714722 0.17668706 -0.043542176 -0.6396914 0.27096117 -0.058727875 0.25384727 0.47546542 -1.0774322 -0.25738814 0.2669613 0.44837865 0.15604219 0.10611913 -0.09985766 0.17678417 0.12432623 0.055961687 0.22964402 0.30770457 -0.047960933 -0.11318808 -0.3816397 0.15067543 0.269624 -0.3071438 0.008374319 -0.09073514 0.037240263 -0.19500412 0.42499888 -0.109210484 -0.257139 -0.21751401 0.26035777 0.56854904 -0.30517787 0.106550135 -0.08444213 0.16664329 -0.31379455 0.12263994 -0.15221603 0.08729567 -0.12667592 0.31313965 -0.14336745 -0.12433726 0.13217875 -0.1742619 -0.20423588 -0.010220485 0.012544369 0.04657241 0.089622356 0.0961633 0.044518918 -0.20733218 -0.06215718 -0.11480887 -0.009602725 -0.44577113 0.06669885 0.1284741 0.17102829 -0.24765983 -0.050161768 0.40512347 0.33430105 -0.16266854 -0.19816579
mozzarellatopping -0.3252514 0.14772719 -0.016076162 0.3416662 -0.11717301 -0.4055708 -0.16605456 0.0029681982 -0.87628055 0.22643046 -0.3975886 0.56205785 0.17100705 -0.005618557 0.107234076 -0.26678762 -0.5792011 -0.7933509 -0.117744826 0.1675525 0.024285845 0.10236061 0.07385411 0.3413891 0.06941571 -0.5231528 -0.32522526 0.09640898 -0.3375075 -0.38962933 -0.79927766 -0.37221816 -0.604287 0.46009716 0.52232766 -0.070028834 -0.027883548 -0.14881295 -0.5490658 -0.24128507 0.10316204 -0.064603366 0.1998793 -0.3361665 0.025834953 -0.37380055 -0.18665613 0.7415301 0.26152325 -0.3071276 0.1422069 -0.19355702 -0.16229619 -0.1615804 0.510105 -0.3233849 0.30310386 -0.14664327 0.14556484 -0.229921 0.6271994 0.307966 -0.090530135 0.23870961 0.3314061 0.014354353 0.08116285 -0.57463795 0.20655088 -0.19773611 -0.31202292 -0.5323213 -0.2764463 -0.033314202 -0.20714897 -0.081274696 0.16210511 -0.13967063 0.079375535 -0.5788826 -0.14755891 -0.11911067 0.039954312 0.35089606 -0.36211753 0.4344101 -0.40779346 -0.15118271 0.53472006 0.2498466 0.72348845 0.051757466 0.03302874 -0.1485383 0.3988237 -0.4222828 0.28521693 0.33911952 0.08425543 -0.43759453
tomato -0.29763263 0.26641265 -0.42983755 0.348064 0.6998554 -0.88337827 -0.020126378 -0.08166075 -0.52145743 -0.2527708 0.11728381 0.3709471 0.13579552 0.18675378 0.22146355 -0.33522922 -0.36189187 -0.63652366 0.18156141 0.13373266 -0.49794802 -0.1608191 0.3047847 1.0096128 0.39112622 -0.3783511 0.08946461 0.5675715 -0.27781618 -0.5437294 -1.207953 0.09197105 -0.9476161 0.19538443 1.0442612 -0.46405342 0.3423327 -0.36896884 -0.37293872 0.15633099 0.18332036 -0.10716717 0.07180144 -0.105372004 -0.055544 0.41312802 -0.10667282 0.8638252 0.71145946 -0.41677886 0.36567917 -0.6090573 -0.645456 0.01413863 0.4928425 -0.47497243 0.18010914 0.1739293 0.49695203 0.082373396 0.40379176 0.47736114 -0.22787176 0.31881198 0.57268304 -0.05598447 -0.09285779 -0.4408106 0.024382897 -0.046263028 -0.27488837 -0.10781987 -0.31086862 -0.09837065 0.06915265 -0.30907783 0.25517064 -0.6534598 -0.40344337 -0.6946296 0.04722296 -0.51960796 -0.2218555 0.4626517 -0.099395856 0.73689073 -0.4113411 -0.13346183 0.29986137 -0.037665598 0.603159 -0.17152858 0.38891524 -0.23080674 0.087391086 0.22544494 0.39290798 0.7194999 0.07841762 -0.5413029
altlabel -0.1417655 0.5715197 -0.022640359 0.29201278 0.032227326 -0.93512213 -0.124420114 -0.10982509 -0.8115093 0.01863244 -0.31311873 0.11577405 0.38056278 0.5968503 0.5692124 -0.43245038 -0.32435152 -0.8229973 -0.3019761 0.3666974 -0.30572373 0.13271734 0.013752328 0.77795136 0.67436856 -0.46005103 -0.41600704 0.113904595 -0.20987771 -0.25372815 -0.5188598 0.13359985 -0.9017902 0.10487154 0.63774693 0.13833055 0.63816994 -0.61693597 -0.34437045 0.18668745 0.5217801 0.29430333 0.19541797 -0.47245702 0.030815171 0.14772423 -0.1998973 0.31622145 0.5458165 0.18976061 0.42299858 -0.44425333 0.42421973 -0.25738955 0.28424847 -0.49278975 -0.0018524724 -0.15538032 0.5175551 -0.062889606 -0.042155758 0.16299394 -0.10476783 -0.10632299 0.846329 -0.043565053 -0.09204901 0.018046843 -0.41229826 0.2498535 -0.061303783 -0.246094 -0.17629838 -0.009109539 -0.07909663 0.018728387 -0.11414384 -0.20488185 0.22606365 -0.18735217 -0.24938095 0.034553863 -0.22478198 0.22538543 -0.0523013 0.33573282 -0.53471357 -0.13709345 0.1819575 0.4193559 0.23919117 -0.043888777 0.17197965 0.37389803 0.10072918 0.67488617 -0.03057628 -0.42369863 0.14660302 -0.19877955
http://www.co-ode.org/ontologies/pizza/pizza.owl#PizzaTopping 0.14529502 0.17700385 0.22353768 -0.41749185 -0.5734424 -0.085761786 0.19651313 0.6104032 -0.62699914 -0.42897862 0.06089578 0.09510851 0.23893024 0.43980375 -0.23026934 -0.05595453 -0.19574767 0.008565247 -0.51918006 0.09336623 -0.0850849 0.09892739 -0.34659058 0.30814254 0.6664132 -0.2683223 -0.07200812 0.03040896 -0.3304758 -0.21053755 0.6116835 -0.13982789 -0.31330338 -0.1669855 -0.037710972 0.27912942 0.16081291 -0.90193033 -0.3203907 0.74145377 0.39216518 0.23255143 0.014371724 -0.30280435 0.20379798 -0.07586286 -0.015299941 0.5468131 0.518133 0.014253669 -0.34234366 -0.4855251 0.21233724 0.36166742 -0.14108293 -0.21122305 0.35900483 -0.009216631 -0.5637917 0.42964846 -0.3006795 -0.07642001 -0.25451133 0.042998746 0.23069686 -0.0740576 0.20563653 -0.054190706 -0.60645914 -0.09662881 0.6947617 0.013059179 0.15468468 -0.47756433 0.1858131 0.1438249 -0.22862728 -0.75552535 -0.32956535 0.25371867 0.64824516 -0.36095634 -0.23497589 0.42717367 -0.47117573 -0.21851954 -0.5658422 0.3862172 -0.09908873 -0.054597456 -0.51739633 0.78761953 0.3009458 0.4869735 -0.16121516 -0.13684466 0.42915964 0.30283472 -0.5820342 0.11488177
mozzarella -0.41002053 0.018754646 -0.055793088 0.5625814 0.0035055825 -0.5356584 -0.30044183 -0.18431112 -0.9245989 0.077578135 -0.31001824 0.69366354 0.2020495 0.023378704 0.36213607 -0.27994835 -0.60322684 -0.91293454 0.0756848 0.08846163 -0.11975012 -0.13019715 0.240047 0.6596138 0.32935166 -0.4221078 -0.35026234 0.32839093 -0.28339756 -0.5404752 -1.105227 -0.19242913 -0.677468 0.38713083 0.47504956 -0.42791495 -0.09591588 0.04413077 -0.3938372 -0.266243 0.1837537 -0.059038483 0.18409994 -0.6017829 0.23930877 -0.43880814 -0.23187232 0.7713136 0.2983043 -0.2940367 0.29776788 -0.49365065 -0.50371134 -0.15499213 0.6557444 -0.34561145 0.23102163 -0.12168602 0.46313947 -0.12028885 0.57542926 0.66806865 -0.20000927 0.12331947 0.4412694 0.17201144 0.14613128 -0.72087675 0.43318978 -0.2209633 -0.30783245 -0.5167846 -0.3318047 0.35207087 0.21818323 -0.12139124 0.7207969 -0.4101657 0.28453627 -0.76794344 -0.55456376 -0.037395943 0.09239705 0.37356535 -0.378052 1.0162313 -0.07549188 -0.4850065 0.44949797 0.355279 0.7675001 0.06124653 0.06393763 -0.11443559 0.33083162 -0.13260576 0.32408777 0.5112677 0.19095488 -0.50597453
hot -0.6252269 0.15559027 0.63676274 -0.106862664 -0.31328312 -0.1111389 0.057794116 0.5012294 -0.35837263 -0.3218324 0.022163752 0.14696325 0.21596855 0.072503656 -0.20510228 -0.4823306 0.029416127 -0.5349379 -0.26641896 -0.76173043 -0.3266979 0.47826627 -0.57145333 0.8701191 0.30016086 -0.23418713 -0.583402 0.0057848725 0.2526055 -0.3589303 -0.35211575 -0.18542865 -0.4680234 -0.34653893 0.04745395 0.1125998 0.011895691 0.017730167 0.17146064 -0.07088012 0.008156639 -0.48520994 -0.515952 -0.5737726 0.4105362 0.39280754 0.29165196 0.48309946 0.6348394 -0.7239687 0.3153624 0.047226302 -0.50604504 -0.25890607 0.9789701 0.0700306 0.1507799 0.10724189 0.12637986 -0.65562993 -0.2135843 0.11812912 -0.3529857 0.059628613 0.22368264 -0.33640057 -0.39009577 -0.2222506 -0.8796825 -0.4288658 0.23177454 -0.50960934 -0.31643316 -0.41719913 0.16664903 0.032591373 0.15959084 -0.6568237 0.056575272 -0.7265714 -0.046824235 0.23449181 -0.06360595 0.08438511 -0.46621454 -0.20015201 -0.77124727 -0.83296907 0.044540666 -0.13384667 0.21125466 0.044111528 0.82080394 0.13164404 -0.07115143 -0.412846 0.55797416 0.7867275 -0.5516098 0.07544032
http://www.co-ode.org/ontologies/pizza/pizza.owl#Pizza 0.1534364 -0.28286824 -0.54672253 -0.22768842 -0.3665838 -0.34640813 -0.19004433 0.1313863 -1.0535796 -0.052504294 -0.8773361 0.7605786 0.4026708 -0.10090624 -0.09612617 0.31108034 -0.031046772 -0.38590777 -0.73464704 -0.32631832 -0.17213523 -0.42288065 0.63770366 0.68895155 0.012188699 0.19995606 -0.07461536 0.96165353 -0.69974166 -0.24260521 -0.5100414 0.07612757 -0.3158595 0.29903466 0.15215091 0.23336707 0.026136117 0.013855732 0.14779045 0.15153264 -0.17044425 0.4619401 -0.060152084 0.29347184 -0.031743757 0.3128767 0.21519887 0.7080651 0.129118 -0.35682595 0.7537602 -0.3540681 -0.08509168 -0.62219065 0.37813708 -0.11487329 0.2863097 0.4167571 -0.22436567 -0.030441178 0.15673925 -0.05298803 -0.27976757 -0.020721188 0.19428302 -0.30642062 0.30387136 -0.59961253 0.19466685 -0.16058323 0.38077945 0.030306352 -0.25581276 0.067 0.76982605 -0.7645886 -0.19973074 0.24290405 0.58172965 -0.021215376 -0.5164282 -0.68830127 -0.4661253 -0.09956665 0.31894052 0.4612348 -0.5147323 -0.34360817 0.4274118 0.55133957 -0.5641712 0.291211 -0.7068133 -0.319557 0.18686812 -0.13472566 0.03723748 0.09767984 0.043254014 0.05387545
pepper -0.13688481 0.024352388 -0.14176545 0.29306936 0.20808417 0.058570832 -0.094852135 0.3927126 -0.49850458 0.21301202 0.29530114 0.6220298 -0.04768272 0.15334933 -0.11744349 -0.4759597 0.77573156 -0.71007675 -0.115469635 0.459275 -0.05148324 0.119279 -0.05057093 1.0308081 0.74923784 -0.59767014 -0.26421013 -0.09122909 0.002385744 -1.0744607 0.083545096 -0.047909144 0.2082001 0.034811955 0.23139973 -0.48131928 -0.30215123 -0.2777257 -0.36756763 0.553001 0.09954673 -0.20192084 -0.4347279 -0.560834 -0.044214528 -0.14386792 -0.07351174 0.73708624 1.1225337 -0.51538235 0.4543525 -0.061831266 0.10826723 -0.21173827 0.7910474 0.22869103 -0.18869968 -0.54118127 0.284988 -0.29932815 -0.11228236 0.9371494 -0.2921643 -0.177645 0.6374252 -0.24434932 -0.34746027 -0.35233143 -0.638824 0.1866469 0.40347815 0.31730723 -0.27470598 0.12986574 0.79834634 0.10254525 0.60348934 -0.30283698 -0.076097175 -0.7415641 -0.288107 -0.22325529 -0.020002795 0.64571357 -0.5394588 0.19103642 -0.7108904 -0.5576816 0.379235 1.0539336 0.22404136 0.2432877 1.3373032 -0.15112306 0.4698542 -0.26317137 0.37233254 0.53836703 -0.5995032 -0.7613554
american -0.12240993 0.2102747 0.29378316 0.17334543 -0.5625246 -0.122665696 0.25435382 -0.059998892 -0.14805242 -0.028075488 -0.6878956 0.41319722 0.48756793 0.3927318 0.33372065 0.044448867 -0.15873602 -0.8845099 0.08248206 -0.8431105 0.17554007 0.23849921 -0.1993867 0.75890106 0.78912944 0.04421036 -0.24129477 -0.36120987 0.14528374 -0.23726135 0.17932849 -0.46414283 0.31346527 -0.4518052 -0.15651755 -0.29955116 0.124838054 -0.24761905 -0.13763344 0.2800499 -0.028941222 -0.028758831 -0.058258094 -0.26944268 0.15593076 -0.07857123 -0.1952003 0.77246404 0.9452105 -0.013712099 0.012964875 -1.009771 -0.18054932 0.17718345 1.2499801 0.31613255 0.30729723 0.016570827 0.09099063 -0.44893226 -0.4776666 0.18501866 -0.011373837 -0.45587865 0.5780607 0.06739309 -0.43276018 -0.20662941 -0.5922595 0.25806713 0.3893329 -0.43383244 -0.3600505 -0.15380491 0.25065535 0.17810684 0.45902267 -0.4535981 0.032962326 -0.77696246 -0.1335702 -0.085758954 0.050002888 0.46839964 -0.037918456 -0.12674554 -1.0273994 -1.1651784 -0.39962536 0.4696111 0.58492047 0.03288803 0.5318014 -0.19281614 -0.07990233 -0.21649112 0.79107744 0.43029875 -0.17766014 -0.26803133
cajun 0.08731127 0.3418318 0.3494639 -0.0899178 0.056144897 -0.019711202 -0.41796553 0.13509974 0.04015252 0.15611412 -0.18673526 0.28465825 -0.2816623 0.52021277 0.13863319 -0.8586497 0.093599334 -0.32652512 -0.3544015 -0.065586686 0.32818106 0.7868315 -0.011430147 0.54783565 0.41890612 -0.4930253 -0.39702478 0.06628916 -0.10591596 -0.39088804 0.27966884 -0.23617223 -0.021926692 -0.3716668 0.240897 0.50148356 0.41803765 -0.47979724 -0.5407677 0.640469 0.5314485 -0.10021852 0.36079597 -0.51573336 0.4838443 -0.04280497 0.61344045 0.08227883 0.41426924 -0.11707442 -0.022324482 -0.3558191 -0.3989802 -0.47533214 0.45953038 0.22988541 0.17202508 -0.2255726 0.2662376 0.02135579 -0.20584375 1.1426626 -0.0822334 -0.01992118 0.23690139 -0.68873113 -0.44281158 -0.6123373 -0.46991128 -0.54498833 -0.310274 0.52263236 -0.757272 0.15360408 0.22100826 0.3418972 0.13859697 0.0049372655 0.56033945 -0.25448686 -0.07802782 -0.17281109 -0.5257063 0.27755257 -0.58360994 -0.27724853 -0.7477084 -0.71603036 -0.10527595 0.14560589 0.4687316 0.3865743 0.56673557 0.14884508 -0.31227684 -0.7326487 0.4237452 0.21929388 -0.2588281 -1.1971138
vegetable 0.16291393 0.32790583 0.45171514 -0.07617285 -0.17220753 -0.051967148 0.14931054 0.7892754 0.0029175621 -0.65930253 -0.5204269 -0.39721948 0.020729398 0.6673985 0.5656938 -0.31431276 0.20905466 -0.1552754 -0.40086108 0.5141168 -0.1020545 0.102009475 0.25149345 -0.09767182 0.27358544 -0.6894764 0.19426724 0.28027186 0.00704531 0.204879 -0.053299647 -0.29119813 -0.34543467 -0.28493097 0.24172263 0.50862974 0.22115985 -0.43018395 0.7444285 0.39044136 0.4454508 0.06687315 0.3398972 -0.20943014 0.5383147 -0.32199228 0.07695525 0.17613962 1.0745375 -0.0511591 -0.50899637 -0.45614746 0.56224805 0.4349846 -0.11608374 0.30345964 -0.026945945 -0.005435443 0.041824292 0.16358024 0.7351955 -0.2749308 0.34423935 0.07228181 0.9946702 0.3488548 0.050323687 -0.89602673 -0.25758666 -0.092811674 0.31849566 -0.33412385 -0.6373891 0.15756907 -0.3311058 0.14457503 -0.35235816 -0.5197179 -0.23916559 -0.13039462 0.72433954 -0.7853937 0.34694803 0.6399881 -0.13391149 0.5807695 -1.3537875 -0.5872343 0.53207636 0.1646996 0.07490887 1.1412543 0.28346065 0.28648794 0.3377453 0.38153628 -0.5504092 0.0032828304 -0.4568833 -0.13714488
veneziana 0.32206026 0.27138215 0.82818353 -0.12704863 0.034533963 -0.43423766 -0.11969832 0.5279981 -0.42909524 0.050554812 -0.05426762 -0.21206641 -0.5019184 0.076863155 0.6472343 -0.4535329 -0.5759581 -0.059425034 -0.4844357 -0.660743 -0.0058985124 -0.08660078 0.23872787 -0.1720437 0.1570138 -0.3722053 -0.43351176 -0.18345234 -0.045587804 0.4352276 0.28646633 -0.73980975 0.024633875 -0.10622451 0.12533507 0.6871498 0.41601118 -0.04826752 -0.19464812 -0.045284413 0.516905 -0.011628855 0.82160866 -0.056151457 0.15139985 -0.43767387 0.2123404 0.7125337 0.73968774 0.046761222 0.08723408 -0.6384889 -0.43547472 0.51276964 0.31226513 -0.058908183 0.10318907 -0.42431816 0.080850124 -0.33162102 0.49404234 0.44913563 -0.46103698 -0.57892025 0.27537072 -0.2450762 0.04915888 -0.80857223 -0.20941693 -1.3451242 -0.05700193 -0.793734 -0.7228622 0.20745353 0.17278111 0.38747787 -0.6858339 -0.7507094 0.043037977 -0.17890139 0.2606598 -0.5491074 -0.16241193 0.74670404 -0.30719674 0.01045434 -0.9357239 -0.7132691 -0.24718978 0.3298797 0.35880965 0.17036812 0.20568897 0.37917742 0.21532951 -0.28637582 -0.04512148 -0.20320304 -0.34104383 -0.66989625
some -0.7055772 0.13081467 0.52641106 0.10788731 -0.15735354 -0.009844067 0.393185 0.37750787 -0.21427752 0.002782969 0.19604196 0.40465987 0.018772941 0.5812064 0.3908962 0.2539559 -0.13204376 -0.54307336 -0.51352286 0.49392265 -0.36122343 0.61966443 -0.3116723 0.45995295 0.10123308 0.11831566 1.0645044 0.24981277 0.058799315 -0.057779152 -0.44874144 -0.22249879 -1.0881009 0.03563033 0.086074345 -0.008750044 0.66347975 -0.9669065 -0.5438106 -0.2172855 0.5429279 -0.45326412 -0.45176843 0.2397768 -0.20036657 0.052772515 0.40376747 0.72162545 0.38944817 -0.098421335 -0.45782205 0.12594748 -0.35458574 0.4413229 -0.17664088 0.028658234 -0.07834634 0.057312664 -0.04884348 0.5514186 0.31175974 0.031838905 -0.38162148 -0.30375937 0.30465582 -0.2666791 -0.0045972723 -0.6030024 1.000981 -0.33937103 0.58612376 0.008582063 -0.33493543 -0.52715 0.41878897 0.08829059 0.022114106 0.23240262 -0.20478772 -0.9550665 -0.23786972 -0.09239536 -0.3150908 -0.04920002 0.13663124 0.057251077 -0.69844794 -0.5310419 -0.020153744 0.1699591 -0.102195784 0.59059906 0.10646422 -0.25990596 -0.1608199 -0.30255893 0.018808877 0.43051296 0.47323444 -0.49438506
giardiniera 0.0881058 0.26029444 0.6142622 -0.240875 0.11390824 -0.29570365 -0.17164879 0.58088166 -0.34891048 -0.31859383 0.1352774 0.46691388 0.3505638 0.90234786 0.2852059 -0.48834264 -0.08572187 -0.7976337 0.230173 -0.071741894 -0.19789062 0.173281 0.36653388 0.68490165 0.53792274 -0.24642612 0.19187829 0.35538134 0.22421294 0.6178994 0.30235618 -0.14741045 0.06535464 -0.61341 0.55983615 -0.2692108 0.5055492 -0.4713194 -0.31320888 0.70994234 -0.12587027 -0.2305256 0.8544826 -0.38385224 0.3474172 -0.14532766 0.52478474 0.6516131 1.074412 -0.31376338 0.4105767 -0.33414707 0.008312517 0.6137684 0.35611486 -0.3496697 0.20720528 -0.04623673 -0.048011553 -0.36986002 0.3587695 0.452741 -0.07211908 0.8796144 0.388389 -0.16075426 0.24550712 -0.90553 -0.3418088 0.15455641 -0.26730096 -0.39289713 -0.17964618 -0.022689382 -0.3180066 0.10184427 -0.2635377 -0.4391756 -0.20356366 -0.06385521 0.2919653 -0.03364364 -0.16261616 0.39618155 -0.15385346 0.13579983 -1.1685139 -0.8812832 -0.50842655 -0.0012114651 0.48017055 0.97450155 0.4073072 0.0622501 0.31386027 0.18880658 -0.22430255 0.62206006 -0.9577274 -0.5554545
base -0.3401284 0.107849754 -0.4241988 -0.020719271 -0.48307472 -0.45785576 -0.50109106 -0.28311217 -0.97039026 0.2906198 -0.087126814 0.24468021 0.8774713 -0.10152579 0.0691489 0.47357136 0.17992134 -0.619977 -0.6265812 -0.6707333 -0.535405 -0.1981346 0.44371155 0.89744526 0.30446663 0.07595348 -0.07423162 0.6571599 -0.06195352 -0.31479833 -0.67388994 -0.17641692 -0.43804514 0.2829705 0.4170377 -0.13924888 0.087199956 0.0436975 -0.12972555 0.13954002 0.019132985 -0.13859901 -0.14530757 0.18465948 -0.17868233 0.6054974 0.29291362 0.50202423 -0.06272088 0.4476451 0.5182912 0.112566315 -0.63347363 -0.04370686 0.5726595 -0.1892608 -0.05641148 -0.045194134 0.31582144 0.25957954 0.5430523 0.82341295 -0.43595073 0.23641527 0.13212082 -0.027783133 0.18485351 -1.1267374 0.24770157 -0.27831188 0.4015161 -0.28703216 -0.7518434 0.21991023 0.5414062 -0.21879153 0.11938784 -0.4230431 0.3253586 0.1831297 0.26159245 -0.23474547 0.113223456 0.07231657 0.30754152 0.4347005 -0.3621324 0.018589485 0.18762943 0.51127625 0.2800542 0.3766363 -0.01042283 -0.4229453 0.2162254 0.4203758 -0.3675188 0.29483333 -0.02288908 -0.36342403
four -0.15504894 0.7065329 0.22686706 0.43124154 -0.30464995 -0.5264353 -0.22872573 0.1980894 -0.445958 -0.09489007 -0.4511647 0.9317916 0.013883521 -0.25052541 0.6959766 -0.08307454 -0.41464007 -0.4417733 -0.5747722 -0.67154384 -0.19252342 0.19771142 -0.21924452 0.0628916 0.46135995 0.37710893 0.50351274 0.28129286 0.48968294 -0.0031402055 -0.57727575 -0.021745367 -0.8242258 -0.3461449 -0.10763278 0.055146128 0.4439596 -0.3781161 0.12452685 0.401406 0.6933589 -0.35370317 0.350439 -0.92365026 0.68786585 -0.062445164 -0.31584057 0.38946447 1.086078 -0.18853806 0.27482703 -1.1949743 -0.3520186 0.19745417 1.3503423 0.20949186 0.41108614 -0.41940647 0.52765876 -0.36963937 0.09295863 0.7475033 0.19489458 -0.5035984 0.232175 0.42419124 0.1411525 -0.7353398 -0.23520271 -0.1174968 -0.14476593 -0.6813178 -0.078039594 0.001250102 -0.49424168 -0.2718533 0.20136473 -0.3152984 -0.18780978 -0.017071774 0.6959319 -0.40628755 0.16887088 0.23460908 -0.07579776 -0.26297262 -1.0699481 0.05294039 -0.28936848 0.14196227 0.22414988 0.7321153 -0.26412764 0.15974198 0.51732826 0.00016574938 -0.14166223 0.0822067 -0.6665111 -0.6759198
http://www.co-ode.org/ontologies/pizza/pizza.owl#hasSpiciness -0.32229674 0.2983618 -0.29943445 -0.67518646 -0.573283 -0.34150848 0.124029614 0.5653798 -0.49433288 -0.68828374 -0.05882654 0.48974222 -0.31931826 0.11527348 0.07225844 0.30799544 0.060349647 -0.36613572 0.023705604 0.58821374 -0.27458054 0.089295216 -0.07153867 0.21312274 0.5363127 -0.3644299 0.09988539 -0.10001557 -0.44121698 -0.055558346 -0.16409154 -0.47833052 -1.1354486 0.38764602 -0.0054560495 -0.06891512 0.27288243 -1.2439632 0.0969911 0.8243139 0.4644049 0.057214513 -0.13585185 0.2282714 -0.11710801 -0.10407117 0.37383816 0.6419742 0.6139054 -0.25894055 -0.12714975 -0.50925654 0.16277567 0.5622195 0.14292897 0.021826148 0.13484477 0.08410526 -0.60740465 0.26396617 -0.0577066 -0.16224502 -0.070816204 0.15227744 0.21922365 -0.7298317 -0.1693156 -0.54268605 0.5459927 -0.42870852 0.49008337 0.26986647 -0.017529543 -0.86598736 -0.10219389 -0.019589944 -0.20802684 0.18115215 -0.33775908 -0.7788038 0.43642676 -0.016657308 -0.32879162 -0.12999724 -0.27319953 -0.013844286 -1.0855293 0.13121612 0.06572847 0.18967475 -0.38376653 0.16278243 0.0722868 -0.02157216 -0.050664984 -0.53440416 0.07666206 0.1628241 0.21910267 -0.17720841
capricciosa 0.38620204 0.07454104 0.80225384 -0.04453936 0.3030298 -0.5584086 -0.5988573 0.10665716 -0.4046234 0.47899964 -0.08637409 0.44029418 -0.058046926 0.43205485 0.5050172 -0.36472437 -0.54972047 -0.9687518 -0.2683588 -0.18768714 0.20097046 0.12615804 0.14459485 0.31361783 0.5232995 -0.14819533 0.4048558 -0.27628297 -0.051786125 0.37456235 0.53359437 -0.48218024 -0.18649474 -0.5490162 0.18883869 0.2068891 0.36012855 -0.5251957 -0.10909996 0.53204155 0.28250355 -0.20851897 0.41336772 -0.2911952 0.6355693 -0.08719939 0.2734718 0.2857178 1.0116268 0.13043983 0.3592377 -0.77211386 -0.041725017 0.20168498 0.9951615 -0.34270832 -0.178575 -0.18921301 0.05809856 0.2893483 0.25401032 0.6944819 0.019051068 -0.018955888 0.07078789 0.14055279 0.10000573 -0.889497 -0.36909387 -0.44082403 -0.3294953 -0.24031259 -0.3839737 -0.19704936 0.568341 0.62959516 -0.10374896 -0.56269145 -0.0050849426 -0.05921102 0.4221113 -0.39123935 -0.17199388 0.78622353 0.16304192 -0.30614036 -1.1998416 -0.45877108 -0.4579071 0.20466033 0.48270836 0.40774953 0.3314621 0.0031327447 0.082801096 -0.24579132 0.19040667 -0.4291616 -0.15421844 -0.51250774
http://www.co-ode.org/ontologies/pizza/pizza.owl#TomatoTopping -0.37221053 0.18707106 -0.19684933 -0.041007742 0.079279095 -0.30084443 0.04885718 0.57697266 -0.9238359 0.14733058 -0.54991776 0.93007016 -0.015141507 0.44522557 0.04825757 -0.30016106 -0.5385856 -0.8467033 -0.22168696 0.36551595 -0.049845103 0.17499013 -0.07270525 0.77388996 0.3189397 -0.22783661 -0.13686225 0.33524823 -0.56154215 -0.4878042 -0.5495707 -0.050200984 -0.5529281 0.26587445 0.50979465 -0.06814362 0.14991368 -0.6357232 0.0009370005 0.25691158 0.14857283 -0.12446268 0.46373165 -0.060859557 -0.35601115 0.5131052 -0.12213781 0.8894673 0.32405558 -0.582481 -0.2035984 -0.60564566 -0.08619664 0.13249944 0.05778171 -0.55061424 0.18597633 0.096184336 -0.052097235 0.2463754 0.076406576 -0.14732435 -0.12666564 0.14204937 0.09983319 -0.30428818 0.3503528 -0.35705304 0.11357918 -0.14978787 -0.2732596 -0.030301526 0.10028248 -0.61443603 0.03564941 -0.37743768 -0.12438866 0.24192595 -0.34347513 -0.3126419 -0.04651301 -0.7029961 -0.46605822 0.60954404 -0.23194893 0.18648535 -0.63355273 -0.43501934 0.45899272 0.042608943 -0.14330406 -0.15617898 -0.1774842 -0.437716 0.26122096 -0.36638272 0.4651455 0.5356354 0.0339019 -0.6050826
siciliana 0.26597804 0.14129165 0.710921 -0.091676444 -0.43109384 -0.39540666 -0.64218473 0.629331 -0.30185863 0.51861984 -0.40893567 0.19047548 0.098041646 0.5583069 0.10933452 -0.18810777 -0.7182114 -0.7442238 -0.28754267 0.054175023 0.12482434 0.36761835 0.57897115 0.09940261 0.37378934 -0.057253297 0.12361583 -0.09289405 -0.4070572 0.2595864 -0.04718036 -0.66614044 0.11285659 -0.44474098 0.43848166 0.31600133 0.33401495 -0.54047227 0.46496117 0.3859643 0.66937155 0.17927098 0.09724879 -0.054064445 0.48842216 -0.018734133 0.21881038 -0.15819035 0.7353114 -0.04376977 0.2579484 -0.7775136 -0.26173168 0.6051392 0.7197106 0.07750045 -0.22356385 -0.055305686 0.14585295 0.5712426 0.11554718 0.49252978 0.061112914 -0.44361204 0.028732402 0.47471666 -0.18804878 -0.76364005 -0.10982949 -0.24997431 0.031962443 -0.3350143 -0.31707433 -0.04598177 0.13308397 0.4967185 -0.17039265 -0.88372964 -0.07011285 -0.47942683 0.7542191 -0.2684338 0.024180971 1.0496249 0.051029626 0.044262413 -1.1079413 -0.38661367 -0.23689769 -0.10338862 0.7447903 0.13938904 -0.028177295 -0.7003033 -0.13361117 0.07071845 0.45623264 -0.63742805 0.06868344 -0.051416084
http://www.co-ode.org/ontologies/pizza/pizza.owl#MozzarellaTopping 0.021841358 0.033797875 -0.024191964 -0.23115279 -0.1657826 -0.2563638 -0.08015475 0.2705372 -1.0679481 0.46272588 -0.8664426 0.947392 -0.020951033 0.40712082 0.1480542 -0.22759666 -0.6454823 -0.65201515 -0.41446015 0.10988782 -0.027813338 0.08186738 -0.1154151 0.46010935 -0.04604844 -0.20937434 -0.23869453 0.07869164 -0.49474335 -0.36653435 -0.2969577 -0.25116354 -0.5365118 0.5038397 0.18034053 0.26989198 -0.11495874 -0.38730237 -0.30813092 -0.08801698 0.040992655 -0.12056077 0.58831 -0.10336283 -0.2181308 0.09484308 -0.092716664 0.61958545 0.19816384 -0.6744572 -0.22307575 -0.4420492 -0.15988837 0.19236773 0.2436653 -0.38360164 -0.0001507022 -0.08248878 -0.20596012 -0.24857791 0.28216928 -0.061267227 -0.28633484 0.11697633 -0.027289398 -0.24943368 0.39727437 -0.5211631 0.3269393 -0.4372025 -0.22812712 -0.344229 -0.026993535 -0.3143651 0.04648414 -0.03708595 -0.028179413 0.5841944 -0.2406898 -0.49476784 -0.13143218 -0.5628934 0.05154317 0.5200053 -0.35344887 0.24598911 -0.49015749 -0.5726972 0.37128514 0.12546508 0.2673094 0.008823113 -0.36830902 -0.48763895 0.26894647 -0.63016546 0.21487507 0.6102756 -0.092909165 -0.5649268
olive 0.115527526 0.5507867 -0.07620721 0.10677276 0.17030181 -0.2492232 -0.21994618 0.7272061 -0.8541873 0.24793394 0.01581751 0.56938356 0.097451344 0.18536527 0.22934982 -0.26285627 -0.47479016 -0.99523985 -0.4415337 0.05537245 -0.10444013 -0.073563255 0.15200981 0.034646273 0.39461645 -0.45613176 0.2444718 0.0058861086 -0.2297813 -0.0006885983 -0.5123578 -0.4658347 -0.48854238 0.11131583 0.2852432 -0.23985158 0.4803553 -0.44083172 -0.4910714 0.27303255 0.31725097 0.082390785 0.13748138 -0.12901163 0.18258363 -0.15557112 -0.10994221 0.61615396 0.21561536 -0.5300223 0.3232634 -0.18759573 0.013956004 0.39125746 0.525543 -0.1982087 -0.09158061 0.14766392 0.2665375 0.45708692 0.36462343 -0.14298487 -0.3927356 -0.06362476 0.07545908 0.32025197 0.05616972 -1.1706021 0.5430714 -0.7581574 -0.35174134 -0.37967765 -0.11609166 0.32766488 -0.04240675 -0.33527106 -0.11822867 -0.46141237 -0.17150488 -0.2688247 0.14176916 -0.623137 -0.25972024 0.87932813 -0.1092867 0.50063837 -0.584482 -0.2805994 0.415959 0.052646924 0.9629747 -0.11184077 -0.06469452 -0.24241823 0.6029239 -0.07873895 0.17054212 -0.1817745 0.090352096 -0.78319156
soho 0.45742697 0.50193155 0.1665411 -0.1343424 -0.5398962 -0.2124029 -0.3381215 0.6002721 -0.3810746 0.066194005 -0.33956712 -0.077190414 0.16662724 0.54850626 0.11559501 -0.15119746 -0.32287425 -0.56557286 -0.43883356 -0.22648755 0.13159394 0.43525052 0.7975024 -0.25607038 0.32399043 -0.27011624 -0.21298313 0.033194274 -0.44473836 0.5366951 -0.58253944 -0.24560444 0.3262528 -0.0710187 0.61794466 0.3051552 0.8575311 -0.35238403 -0.37458134 0.10344674 0.5165221 0.53297555 0.34715107 -0.20661058 0.0058873654 -0.33516178 0.14110729 0.37445018 0.5573136 0.06918262 0.24877304 -0.44542122 -0.37051788 0.65935296 -0.0075490535 -0.08110265 0.23468561 -0.08284355 -0.23814136 0.053239368 0.2793073 0.4003392 -0.15518406 -0.09357788 0.60912085 0.30678296 0.026359402 -1.0424914 -0.03875721 -0.24885349 0.37919423 -0.7059202 -0.42204422 0.31028217 -0.42865473 0.1707412 -0.5462157 -0.36301628 0.10220551 -0.54454005 0.5315642 -0.3297572 -0.5251831 0.62305987 -0.48351887 0.47494584 -0.91491956 -0.7328743 -0.14369139 0.1258583 0.8475466 0.6401662 0.19958924 -0.6644915 -0.114998035 0.14335941 0.07629826 -0.3480484 0.17742689 -0.47294036
fiorentina 0.6544414 0.19892475 0.06751167 -0.040258862 -0.6092601 -0.22863807 -0.34674054 0.6967505 -0.47117448 0.37882316 -0.4594945 -0.10198667 -0.06302207 0.50502926 0.07969406 -0.17116126 -0.2419405 -0.5577861 -0.29444996 -0.05283804 -0.06539424 0.36143774 0.81171834 -0.17280601 0.29018277 -0.07563594 -0.26567927 0.18052359 -0.42361403 0.501294 -0.56094486 -0.27612942 0.27804226 -0.38893557 0.35747954 0.25231633 0.9282063 -0.50554997 -0.119994365 0.4258005 0.47510034 0.37870952 0.52009106 -0.33727065 0.18590078 -0.26894492 0.05246845 0.12191697 0.69562846 0.13008471 0.20042688 -0.5092948 -0.3483181 0.6905794 0.11108959 -0.15330142 0.12800233 -0.22075999 -0.16761734 0.06511856 0.10038539 0.34636834 -0.12197536 0.0628126 0.5324097 0.37984255 0.036356516 -0.72040796 -0.19588062 -0.21021347 0.3266899 -0.6290101 -0.18869467 0.28119013 -0.51346034 0.31474316 -0.6543822 -0.36234918 0.14443395 -0.66909516 0.66166675 -0.38731584 -0.33256668 0.6214842 -0.4611057 0.7114452 -0.90287864 -0.71800286 0.08816268 -0.13645603 0.7750692 0.64599395 0.16583186 -0.90758634 -0.055368107 0.31064832 0.1104647 -0.19108465 -0.023838945 -0.34773448
mushroom -0.21447803 0.3397036 -0.06365958 0.046154797 0.20393069 -0.27637032 0.11274832 0.66090286 -0.4851889 0.052505724 -0.2451901 0.76017845 0.0395467 0.23881264 0.23729861 -0.06313561 -0.46815366 -0.89692646 -0.28776047 -0.4093487 -0.29179642 -0.02332173 0.2761176 0.37660235 0.56640756 -0.21536753 -0.0407567 -0.05810749 0.2721769 0.14821737 -0.22661299 -0.38766533 -0.2712248 0.23767795 0.122146085 -0.57031673 0.25206938 -0.5371604 -0.2224307 0.674559 0.048442196 0.045351006 0.15255795 -0.46420643 0.74559945 -0.21469493 -0.19347326 0.4566352 0.42709285 -0.59245837 0.73182964 -0.23319532 0.11084758 0.44236317 0.71262527 0.40445074 0.410155 0.5112386 0.4017988 -0.06218021 -0.15970747 0.22003554 -0.040563397 0.19664218 -0.23245764 0.19798481 -0.3471559 -1.1061765 0.24327764 -0.4945326 -0.1741263 -0.34481773 -0.14079113 0.5171829 -0.21681313 -0.30609703 0.28604242 -0.703722 -0.4679602 -0.11682762 0.013867322 -0.1661645 -0.10271961 0.12774312 -0.05625367 0.3507461 -0.5668904 -0.761369 -0.23371422 0.16589478 0.61762506 0.32527435 -0.22136606 0.15127893 0.6757783 0.13428023 0.06690857 0.23304401 -0.6019468 -0.5598084
napoletana 0.4390366 -0.0669348 0.4195949 0.07056963 -0.17641641 -0.2732034 -0.25365722 0.35304883 -0.58170855 0.55620617 -0.27106553 0.2621478 -0.22536564 0.35201484 0.5724716 -0.13055958 -0.84384024 -0.50746876 -0.31128716 -0.51287186 0.28276238 -0.03933796 0.27691746 0.08150226 0.47980878 0.22525078 0.0647382 -0.26562902 0.036510438 0.3516722 -0.2793721 -0.5841639 -0.26890302 -0.474918 -0.10851834 0.31663167 0.54051 -0.021422796 -0.11316621 0.24515373 0.3958341 -0.11419993 0.44987464 -0.1747496 0.36549836 -0.059223365 -0.01734877 0.49396735 0.819374 0.31496212 0.2636025 -0.9627422 -0.4530292 0.60538346 0.7241473 -0.082904704 0.19399974 -0.24019854 0.06439493 0.061625198 0.0426543 0.415024 -0.2586583 -0.35609388 0.3921083 0.28342623 0.14992549 -0.9501947 -0.058848083 -0.48702243 0.09304266 -0.80758905 -0.42123237 0.12404406 0.066402406 0.28219914 -0.5200801 -0.67164767 -0.030115813 -0.49325293 0.46540707 -0.77686644 -0.25261885 0.7355035 0.18701893 0.12928683 -1.032644 -0.35252255 -0.31693515 0.19085129 0.6859853 -0.062884346 -0.30368596 -0.04694815 0.13208331 -0.18366861 0.1707319 -0.17627129 -0.2590808 -0.5697979
country -0.0064627905 0.3600774 0.50429463 0.51271814 -0.5626716 -0.7642945 -0.38386527 -0.20407379 -0.9485242 0.5339667 -0.22849706 0.12855741 -0.26850507 0.1393383 0.67973155 0.0715189 -0.22520357 -0.98683846 0.1670147 0.004544223 0.17971638 0.124937996 -0.33813405 0.8256923 0.49671626 -0.25139374 -0.577054 -0.19910012 0.069979735 0.136217 -0.6974803 -0.327778 -0.38686132 0.40622628 -0.33379477 -0.42202312 -0.11314314 0.19365306 0.019179802 0.58821416 0.2055713 0.011340588 0.38508517 -0.18019126 0.010468802 0.063222274 -0.37921473 1.0101165 0.2556483 0.5457269 -0.30338365 -0.61219645 -0.43846107 0.23192534 0.8595669 -0.38322335 0.1335785 0.026677486 0.32269093 -0.027763536 0.1491738 0.4006351 -0.4720122 -0.3292812 0.95079446 -0.2812833 0.3416437 0.007340835 0.04445543 -0.5305388 0.31040096 -0.5461355 -0.37927452 0.62894464 0.2632397 0.10131534 0.051070806 -0.51335937 -0.18734413 -0.5044308 -0.43170473 0.43690467 -0.2129071 0.14395943 -0.17461765 0.75739646 -0.64950544 -0.72187483 0.16046533 0.06124873 0.29179597 -0.46950582 0.05478563 0.46247628 0.14294991 -0.22898984 0.21608998 -0.25681916 0.2788809 -0.07306
named -0.15671195 0.19236062 -0.5186898 0.023235593 0.11415609 -0.9994453 -0.0734179 -0.2065911 -0.46669394 0.07702743 -0.6716789 0.47953483 0.9548183 0.25511762 -0.09267309 0.1080462 -0.6482319 -0.36701977 -0.288985 0.31442624 0.038946863 0.57056546 0.10596984 0.5845642 0.46895438 -0.19298106 -0.5179382 0.5144958 -0.26602444 -0.13668162 -1.3410393 -0.18960391 -0.9688092 -0.119467676 0.11844408 0.037901938 0.27053258 -0.12094241 0.10257756 0.70922154 0.58683795 0.07762778 0.028030723 -0.53836364 -0.23769213 0.47196546 -0.17388828 0.7601303 0.23909941 -0.14760864 0.51424694 -0.16647317 0.0012539951 -0.5055301 0.026917277 -0.525139 0.13633509 0.10778661 0.51059216 0.3652739 0.0046094735 0.24576294 -0.57325685 -0.2424683 0.2929348 0.18001285 0.20781197 -0.9496446 0.33954582 -0.1623646 -0.3439023 -0.08358872 -0.46457905 0.15531805 0.7773731 -0.36091083 0.4607478 -0.1475873 0.008142906 -1.2603782 -0.57333547 -0.77988595 -0.27779654 -0.20388915 0.1531118 0.8871104 -0.28042084 -0.6789986 0.18112643 0.7235592 -0.4444792 -0.24328883 0.09627067 -0.011239905 0.63464266 0.42928094 -0.22257783 -0.06288006 -0.11174898 -0.26244026
astra 0.105178714 -0.26690683 0.28893593 0.7953717 -0.20967181 -0.5140646 -0.43020555 0.5727065 -0.16912338 0.092687 -0.3032485 0.35473472 0.26266664 0.30394027 0.071640044 -0.4678446 0.40199316 -0.57027966 -0.26633558 -0.6745953 0.021665633 0.83600307 1.0261359 0.48681492 0.1477361 -0.5496398 -0.7225726 0.3847221 -0.50662166 -0.23259231 -0.41015124 -0.28913203 0.30468947 -0.5221808 0.7842641 0.006567819 -0.1526993 -0.87431127 -0.11928475 0.3580241 0.44417065 -0.17764764 -0.15160184 -0.5272739 0.57567674 -0.1253549 0.4557542 -9.28864e-05 0.98024803 -0.17108639 0.040147334 -1.066326 -0.31938317 0.4497975 0.18153733 0.08745015 0.27813658 -0.51240873 0.24968286 0.40324387 0.38203746 1.0577922 -0.28533033 -0.42919272 1.1228186 -0.5002387 -0.357515 -1.3755568 -0.53186226 -0.46719417 0.36988917 0.030789977 -0.96305484 0.72645044 -0.08181372 0.16629852 -0.023664627 -1.0470039 -0.06494656 -0.8785763 0.6016027 0.59081113 -0.21775609 0.49271968 -0.40798092 -0.06723202 -0.32595208 -1.2087318 -0.19577882 0.7560718 0.87155765 0.9356203 1.1274221 -0.29011953 -0.42652434 -0.4109954 0.640846 0.023516979 0.122179575 -0.19550514
ad 0.15549318 0.16116056 0.121974126 0.4040482 -0.055100612 -0.08986843 -0.14327092 1.0417395 -0.4605037 0.36589193 -0.2301907 -0.09408252 0.018391788 0.096985966 0.56492686 -0.4566855 0.21429071 -0.8264547 -0.2647102 0.099606164 0.12036396 0.5731543 0.93014586 0.96177685 0.2778149 -0.57500964 -0.5847479 0.2952525 0.1252847 -0.48346847 -0.6237005 -0.61963946 0.107019894 -0.4319912 0.74928963 0.20837559 0.033941776 -0.8890178 0.34523857 0.7424259 0.75236285 -0.11777245 -0.425922 -0.4654594 0.46244267 0.13005504 0.36827815 -0.028993296 0.49774513 0.078827605 0.7475857 -0.69587326 -0.7613238 -0.14620322 0.19215947 0.094826154 0.35187 -0.03306528 0.022813082 0.43931493 -0.30424193 0.83519375 0.23832317 -0.09375743 1.184699 0.2387252 -0.31075603 -1.1218721 -0.09738471 -0.055080563 0.27164117 0.1866508 -0.9405849 0.4412097 0.08137972 0.4825913 -0.015081296 -1.2911296 0.27907357 -0.3027991 0.15072028 0.4654928 -0.14809112 0.24872869 -1.1174288 -0.22167253 -0.35707355 -0.75210506 -0.2732927 0.44837573 0.91877735 0.75395834 0.33003664 -0.5664205 -0.10543329 -0.401379 0.8944343 0.38631132 0.12922344 -0.23735072
pollo -0.26682195 0.1874511 0.20210966 0.37151998 -0.5733644 -0.35168156 -0.31465945 0.5693892 -0.07017387 0.17522609 0.13873158 0.19406323 -0.16261694 0.20979297 0.29274023 -0.48724505 -0.49298504 -0.8893738 -0.1018274 -0.16440964 0.41558632 0.69699425 0.54466146 0.64595324 0.15838316 -0.7424769 -0.44184387 0.4751592 -0.42668608 -0.45998853 -0.947703 -0.17601639 0.3607697 0.07646056 0.16142105 0.2056231 0.5304567 -0.54468983 -0.06839262 0.32076487 0.60929793 0.04741234 0.37104255 0.006788771 -0.047562603 0.12233001 0.026002815 0.31098062 0.63796705 -0.074441716 0.22417372 -1.1755174 0.026078017 -0.02644269 0.5428706 -0.21297012 -0.11599337 -0.07873698 0.6090709 0.55895436 -0.16621664 0.6122358 0.28365242 -0.55285597 1.2083671 -0.344064 -0.38284993 -1.1055604 -0.6934788 -0.037786696 0.5978108 -0.23913802 -0.41407934 0.4909268 0.20938778 0.45977265 0.22443207 -1.2059646 0.47073418 -0.47929817 0.64846605 0.61564445 -0.4437207 0.22818454 -0.6177956 -0.18039359 -0.046872646 -0.3286133 0.23333108 0.7119348 0.63820475 0.600813 0.9072077 -0.13480183 -0.12943527 -0.47685906 0.69749063 0.33997545 0.08963343 -0.13254419
seasons -0.46772444 -0.08163302 0.8734462 0.26754436 -0.08917968 -0.022415837 -0.12528957 0.50216055 -0.44435343 -0.36963353 0.041701555 0.32155412 0.3217286 0.8911869 0.36455607 0.41867375 -1.1433566 -1.0858829 -0.07851966 -0.63841754 0.119236045 -0.038841616 0.11005665 0.35956323 0.7914732 -0.17636725 0.0200016 -0.28144735 0.34792218 -0.053833723 -0.27499095 -0.3671724 -0.40839547 -0.61133564 0.010571652 -0.2822785 0.8075567 -0.37960365 0.33260763 0.18148361 0.2956872 -0.29954416 0.11544238 -0.41974765 0.788704 -0.4283245 0.007983353 0.70851797 0.81430936 0.25958124 0.37181845 -1.330117 0.20458512 0.6333123 0.9337899 0.3102377 0.36054456 0.15816483 0.07791651 -0.16940084 0.18287122 0.24729814 -0.14007522 -0.12245452 0.30014512 0.6729025 0.027072212 -1.2150943 -0.57006156 -0.09218045 0.21963082 -0.6973591 -0.64580345 -0.037905306 -0.1265647 -0.056720614 -0.029414842 -1.1110252 0.19585192 -0.2806763 0.42251095 -0.43651494 -0.3009878 0.4745914 -0.049825154 -0.018946536 -0.9328818 -0.86409 -0.4476504 0.18901393 0.8938949 0.40455905 -0.29966527 0.19964898 0.42789814 -0.030766161 0.10405738 -0.110895015 -0.12384344 -0.61772776
mild -0.19176036 0.4978279 0.20851831 -0.32784274 -0.10603009 -0.28277168 0.018914716 1.1013845 -0.096022576 -0.9689297 0.48365024 -0.14874187 0.27385807 0.180414 0.024089696 -0.108877376 -0.19486216 -0.56612355 0.24742682 0.20845705 -0.21707828 0.07945395 -0.066833 0.3492043 0.58637595 -0.07227485 0.29229504 0.32512715 0.09358538 -0.29040772 -0.4611044 0.07470911 -0.6704956 -0.041485697 0.08487305 -0.47232673 0.22578368 0.035624992 0.21752752 0.7390864 -0.022738092 -0.41220525 0.106723234 -0.22659849 0.6419927 -0.27513936 0.43399736 0.56529176 0.8330841 0.14103417 -0.20154268 -0.8750103 -0.5521679 0.5314447 0.5850141 -0.27708396 0.05260874 -0.2753016 -0.5397319 0.43932283 0.19005805 0.05952678 0.24048187 0.74529403 -0.042784385 0.19826296 0.30051935 -0.55628055 -0.25239566 -0.3003748 0.78790677 -0.26851466 -0.18921775 -0.5487166 -0.17441417 0.6039475 -0.14566667 -0.58905005 -0.862189 -0.48774692 1.0502139 0.18291813 -0.3915974 0.1501824 -0.5450723 0.702325 -1.0281299 -0.13571973 0.4079087 -0.56379956 0.41807926 1.0573107 0.39398634 -0.23738612 -0.3041041 -0.32060426 -0.020812329 -0.16098644 0.25527194 0.30114383
vegetabletopping 0.08666675 0.75076413 0.5165107 0.096873276 -0.08140543 -0.069731556 -0.048064325 0.8306193 -0.021294966 -0.8801181 -0.35045975 -0.37127495 0.24788229 0.6275487 0.52382684 -0.16082974 0.09900368 -0.31647947 -0.3932679 0.339376 -0.3291282 0.1742637 0.39607877 0.2633168 0.41710138 -0.67803055 0.028464846 0.3695755 -0.08557658 -0.14445053 -0.3477694 -0.19585356 -0.4631117 -0.15379708 0.37428927 0.22219226 0.3525337 -0.095112786 0.54373527 0.32284194 0.5620177 0.042192277 0.31192407 -0.14257312 0.553624 -0.43085575 0.1067343 0.25015488 0.9937023 0.2177043 -0.24879497 -0.41663286 0.35328588 0.17464407 -0.23200174 0.2562838 -0.13696262 -0.20248936 0.15832296 0.014378693 0.67295796 -0.075968705 0.24676228 0.20333947 0.8246608 0.45558998 -0.016816748 -0.9688899 -0.25227383 -0.22781713 0.4394053 -0.30928922 -0.86804193 0.20791018 -0.28123584 0.29289824 -0.26993454 -0.8776061 -0.2794737 -0.025274586 0.7223235 -0.66481596 0.40118858 0.65564585 -0.2372069 0.82734877 -1.2748389 -0.58042026 0.41686934 0.2575393 0.3227773 1.1560831 0.30282393 0.39485055 0.22275622 0.5524728 -0.81201065 -0.20844395 -0.4469057 -0.004381332
SubClassOf -0.7901886 0.7333577 0.029380927 -0.4194911 -0.32370046 0.23949091 0.2835483 0.70027477 -0.76353043 0.17723188 -0.23104297 0.5842341 -0.18106855 0.19312601 0.2859528 0.05595241 -0.4576115 -0.74777544 -0.226818 -0.38716346 -0.5120881 0.23734102 0.6202548 0.6989976 0.52636147 -0.07137627 0.12135639 -0.050695598 -0.55940235 -0.56162846 -0.17609017 -0.09089197 -0.60752004 0.6152953 0.021559909 0.2569872 0.68202865 -1.1791135 -0.5578457 -0.11925986 0.18279207 0.201955 0.2975209 0.34722197 -0.054186054 0.11598319 0.5189736 0.30612957 0.12708692 -0.20201288 -0.36345908 -0.29007185 -0.25628233 0.19228922 0.32175642 0.012656576 -0.29820836 0.31611928 -0.5532279 -0.034930117 0.25524423 -0.18168578 0.05198304 0.4834969 0.0485608 -0.6764358 -0.49094462 -0.12996252 0.3862321 -0.45786655 0.4604 -0.16308448 -0.08799859 -0.5421765 0.34628177 -0.1728485 -0.22183686 0.48714736 -0.37243405 0.2723169 -0.1470027 0.12595962 -0.5508544 0.05570895 -0.15103544 -0.47516406 -0.8787902 0.17134002 -0.11875172 0.18137297 -0.2923975 0.20809972 -0.1575927 -0.07824089 -0.14010876 -0.42349303 0.19177634 -0.068664886 0.12415709 -0.24276015
or -0.52241296 0.46808812 0.5814019 0.015219029 -0.69574624 -0.10320154 -0.09576084 0.3604769 -0.20510665 -0.4321134 0.30050427 0.16491957 0.17974184 0.5076807 0.28340194 0.15583585 -0.012680094 -0.78998023 -0.17961372 0.3218399 -0.20631036 0.56024134 -0.7879129 0.750927 0.28746554 -0.98574346 0.8116707 -0.6717056 -0.3172385 -0.33976862 0.057287496 -0.88660914 -0.9842623 0.17435245 0.02677794 0.7122067 0.45238593 -1.5158974 -0.90092987 0.28035262 0.70946497 0.17754102 0.07737278 0.17127106 -0.14883383 -0.21057142 0.32079187 0.43237472 0.30122942 -0.4382346 -0.26340285 -0.016025286 -0.09914328 0.772467 0.132118 -0.15451631 -0.36156163 -0.16549791 0.1486677 0.43909478 0.7021586 -0.13013287 -0.06830369 -0.28464645 0.28211555 -0.18959332 -0.43028334 -0.049423784 0.29021862 -0.118127644 0.84761727 -0.09272901 0.011180618 -0.38407478 -0.3130709 0.094226435 0.16433264 -0.2629573 -0.52370375 -0.060604587 0.560152 0.064148456 -0.47893548 0.21494535 -0.6128102 -0.67622787 -0.7663607 0.16580994 0.17841738 0.005073777 0.69068563 0.7806188 0.09343927 0.4140499 0.010037314 -0.42311782 0.13143478 0.6365673 0.31782088 -0.71888644
http://www.co-ode.org/ontologies/pizza/pizza.owl#NamedPizza 0.10633513 -0.3828615 -0.6406292 -0.13688195 -0.10291047 -0.6811623 0.008809497 -0.07038087 -0.8516564 0.37210536 -0.84426755 0.8181556 0.6218748 0.4958281 -0.035864644 0.028293107 -0.4001787 -0.4044054 -0.67871106 0.29386893 -0.035484478 0.33548942 0.16197084 0.7720312 0.3385424 -0.10242363 -0.46478423 0.6280287 -0.63906056 -0.11092476 -1.0812255 -0.120813295 -0.79977304 -0.06319811 0.08814879 0.08965078 0.17388166 -0.1565893 0.18994656 0.54464144 0.34072906 0.14743705 0.037542697 -0.19746776 -0.28687313 0.6450253 -0.19929908 0.7716236 0.22010665 -0.4445717 0.31864366 -0.5976708 -0.12506413 -0.1972063 0.04575431 -0.59045464 0.31295046 0.2548988 0.1823071 0.21072221 -0.26462168 -0.18297106 -0.3650579 -0.49867353 0.23472925 -0.17199469 0.41625583 -0.7091733 0.29134107 -0.1620813 -0.033003494 0.107040785 -0.32098818 -0.17473306 0.5108343 -0.55683714 0.06451833 0.2955912 -0.02209588 -0.9880327 -0.6260175 -1.1093156 -0.28467074 -0.06108119 0.16661322 0.7538812 -0.53946257 -0.7163805 0.31409663 0.4205242 -0.7625818 -0.2989218 -0.5253843 -0.32321852 0.3701611 0.0029214504 0.09687708 0.34995866 -0.29141277 -0.09805651
caprina 0.0466747 0.1257433 -0.06739594 -0.63795865 -0.12318701 -0.62427413 0.034048688 0.13011631 -0.43613738 -0.40624848 -0.27820295 -0.4508426 0.10429554 0.01890395 0.33619416 -0.35759175 -0.63422304 -0.5147911 0.47102705 -0.40665212 -0.46314323 -0.15471049 0.016001368 0.5176824 0.59391034 0.36256737 -0.16875473 -0.042180486 0.09724129 -0.13462768 0.3134041 -0.35587183 -0.32385397 0.15171872 0.34569535 0.56145936 0.32265472 -0.21232186 -0.1892242 -0.10629092 0.017884532 0.272666 0.6886066 -0.13037752 0.23536491 0.18181187 -0.113075875 0.79254293 1.1246325 0.15688315 0.44866714 -0.41416267 -0.89525664 0.9837462 0.65840024 -0.263836 0.63514256 0.3759895 8.8215194e-05 -0.07538121 0.05286844 0.719554 -0.07546037 0.18925835 -0.16005048 0.10825905 -0.2370381 -0.07897598 -0.21478409 -0.6064159 -0.019650793 -0.4325707 -0.039050605 -0.0048347856 0.12830792 0.2035902 0.10476619 -0.7277683 0.20909105 -0.71981245 0.30606383 -0.6007373 -0.8389121 0.43463522 -0.39711162 0.23018381 -0.4005451 -0.5524411 -0.5618082 -0.6761062 0.517874 0.5937349 0.40207565 -0.34974432 -0.30460972 -0.11645213 0.74379605 0.68913126 0.034697954 -0.6397242
origin -0.5732233 0.17714281 -0.15234378 0.39446953 -0.8563427 -0.6226246 -0.8164985 -0.21925344 -1.1286001 0.35614982 0.055863447 0.60073024 0.05219564 0.3394313 0.88244003 0.010129131 -0.22636153 -0.9509753 -0.56784064 -0.03559735 0.11420865 0.11677979 -0.17640397 0.7049703 0.17702879 -0.429128 0.13419688 -0.21943654 0.2394136 0.08055237 -0.110836394 -0.6780565 -0.42382202 0.23368913 0.3954541 -0.33784655 0.37817428 -0.009516973 -0.57827246 0.013908043 0.61192316 -0.1944426 0.50616175 -0.20261726 -0.36795312 -0.42867935 -0.27317333 0.687388 0.5941056 0.07027284 0.54077476 -0.58241135 -0.5676942 0.37732685 0.559357 -0.26142275 0.45942944 -0.1924143 0.35539046 -0.47111925 -0.0025232122 0.14654954 -0.32647207 -0.39124084 0.8461042 -0.482143 0.11688411 -0.47548598 0.38723436 -0.22263941 0.07315075 -0.80704105 -0.6433077 -0.205765 0.025187438 0.30611295 0.07836582 -0.69930637 0.48852468 -0.5173551 -0.29471394 0.20508733 0.13396066 0.04109724 -0.10949748 0.5506317 -0.47465426 -0.34866536 0.3550554 0.5629985 0.7465051 -0.54904765 0.1874089 0.688253 -0.2420738 -0.18241215 0.33811527 0.37557364 0.3851902 -0.45547396
vegetarian -0.70249814 -0.13740616 0.20295906 0.25763592 -0.39551264 -0.3201577 -0.74375683 0.6494405 -0.23750383 -0.16790321 0.53119636 0.13289589 -0.106699385 0.35351646 0.007275792 -0.58462137 0.16716419 0.24477173 -0.26487115 -0.37390026 -0.18789208 0.39559186 0.5582087 -0.002316745 0.46762636 -0.29071558 -0.3475768 0.41658536 -0.3873226 -0.048369832 -0.006439463 -0.5305291 0.23686609 -0.23616222 -0.014525976 0.74348974 0.49877107 -0.46265048 0.04187048 0.77026004 0.39109775 0.7538341 0.2221185 -0.6666148 0.85662335 -0.2632437 -0.21702264 0.7535491 0.35879323 -0.57828695 -0.07383274 0.12103496 -0.5618399 0.4566989 0.67657083 0.5199696 0.04569476 -0.3456811 0.056389507 0.40039748 0.83525556 1.1582303 0.13356227 -0.2067638 0.28234303 0.32344183 0.1263159 -0.12175297 0.23578091 0.0094180675 0.43949476 -0.14149864 0.1342642 0.2591553 0.7573337 -0.6502234 0.85214704 -0.71945125 0.5505632 -0.31775075 -0.10522437 0.061442036 0.10748156 -0.060681112 -0.6625203 0.33799693 -0.059401635 -0.38338548 0.2918864 -0.16580035 0.5840357 0.8193528 -0.20656466 -0.19466533 0.31151465 0.5467151 -0.5784159 0.6766555 -0.2435477 -0.22603013
ham 0.08837389 0.5391514 0.34972993 -0.18933618 -0.42145595 -0.91779786 -0.5004465 0.26889473 -0.72485876 0.37340194 -0.27840272 0.42534754 0.32972705 -0.025169197 -0.34328416 0.099890344 -0.60937977 -1.1717819 -0.28211465 -0.19755536 -0.4193179 0.35669973 0.10992943 0.11432972 0.05969341 -0.60786086 0.16588676 0.25553855 -0.61062163 0.21560736 0.015724 0.14550114 -0.5448666 0.19758955 0.5217489 -0.28360477 -0.26059425 -0.61208934 0.5541009 0.18660949 0.19364177 -0.10376318 0.008148753 -0.040830854 0.07660764 -0.27129593 -0.07757735 0.4580338 0.50684893 -0.5959194 0.2540796 -0.05874197 0.011589925 0.45392635 0.965954 -0.38221532 -0.51387477 0.44996995 -0.049206167 0.28102434 0.4320697 -0.20354037 -0.23989291 0.082140185 -0.2044912 0.29452136 0.08487959 -0.8382141 0.30626714 -0.68282765 -0.28262743 0.04381504 -0.32075098 -0.42103305 0.6530451 -0.01550707 0.46566325 -0.74397755 -0.4764419 -0.123206675 0.3183792 -0.4406181 0.71059304 0.7277061 -0.16377607 0.48417068 -0.58401793 -0.19716863 0.4381415 -0.5072898 0.16814116 0.0796268 0.18382843 -0.19210736 0.3448633 -0.1871877 0.36878422 -0.014971794 0.06562928 -0.39004645
cheesetopping 0.08224498 0.42083156 -0.09249551 -0.8878224 -0.7528333 0.014063951 0.124150254 0.5268853 -0.6450525 -0.6938034 -0.309712 -0.74924886 0.68347853 -0.059657957 0.3093988 -0.14591001 -0.24727379 -0.5382423 -0.40249732 -0.36478066 0.15194872 -0.00888564 -0.42803904 0.09160868 0.65396917 0.27109298 -0.08970797 -0.050310597 0.2622959 0.22624925 0.13218063 0.005255575 -0.44294906 0.03165735 -0.56836593 0.37558904 0.42063388 0.0821747 0.36319926 0.12210022 0.03328913 0.334345 0.09912323 -0.4946017 0.675378 -0.21437535 -0.558468 0.37750354 0.5130679 0.181262 0.3691076 -0.4523533 -0.39614236 0.3086643 0.29178873 0.16707353 0.042794578 0.0733111 -0.37026018 0.03489675 0.21756263 0.21542564 -0.07920973 0.05439455 0.10364174 0.48107642 0.011237836 -0.3603382 -0.20822713 -0.08944118 0.47390464 -0.30495846 0.100927405 0.11734739 0.1778127 -0.41541055 0.21125607 -0.32677445 0.54032457 -0.30677226 0.9534379 -0.72529876 -0.71826595 0.28802294 -0.85488534 0.9330695 -0.51389766 -0.34631497 0.053687442 -0.15683255 0.6333344 1.3310071 -0.32554007 0.1347332 0.05647776 0.0018086119 0.112413056 0.3461155 0.42759207 -0.42573658
garlic -0.058955435 0.293549 -0.4655344 0.43148786 -0.096393116 -0.14304565 -0.45898962 0.628917 -0.53862846 0.4460784 0.013580229 0.39706007 0.034212966 0.3470782 -0.34471896 -0.46692106 0.04809708 -0.44121546 -0.32836094 0.32661328 -0.17319122 0.24926966 0.5628724 0.14524542 0.19481224 -0.68774796 -0.13888374 0.42275253 -0.66383284 -0.6041085 -0.89265823 -0.41587436 0.07424654 0.0027544233 0.8821733 0.2774593 0.38779068 -0.56130034 -0.22616078 0.34833094 0.665516 0.25747365 -0.27609417 -0.24934606 -0.039935607 0.4197855 0.22091222 0.31959417 0.024261683 -0.46039522 -0.2161912 -0.23817869 -0.47183594 0.2516934 0.4983151 0.25981677 0.016489577 0.03018649 0.4419453 0.82232434 0.07074029 0.47841614 -0.13185257 -0.16382566 0.38187414 0.18778698 -0.08809964 -0.7339197 0.032928262 -0.33077785 -0.0609828 0.11854464 -0.31044537 0.38845545 0.19574313 -0.44322854 -0.007552084 -0.4034247 -0.07326773 -0.29158652 0.026503114 -0.46642762 -0.2256711 1.0300207 -0.37423623 0.12770712 -0.5234522 -0.17289835 0.78092086 0.039534435 0.3200441 -0.4118171 0.33612067 -0.9724661 -0.16313444 -0.018469602 0.7094628 -0.030203786 -0.092280336 -0.73223627
http://www.w3.org/2004/02/skos/core#altLabel 0.021091986 0.3993323 -0.076333284 0.0504374 -0.32762745 -0.4568197 0.24099322 0.20119351 -0.8816906 0.55657285 -0.79503965 0.44694343 0.17651933 0.74248844 0.53919625 -0.29802504 -0.595123 -0.92531323 -0.59326094 0.08571407 -0.31002066 0.16740666 0.18195358 0.714253 0.5270716 -0.36385027 -0.38657537 -0.054933675 -0.2885369 -0.39189273 -0.35595143 0.04823053 -0.8152589 0.20651199 0.34034285 0.416869 0.5039456 -1.0884569 0.040060766 0.15583225 0.46577772 0.0310333 0.17492051 -0.21975304 -0.074936576 0.27749878 -0.14287888 0.124832265 0.26570982 -0.17558089 -0.050514527 -0.53113514 0.29630637 0.10652224 -0.36065862 -0.48882455 -0.00867731 -0.014292552 0.034952957 0.10439748 -0.5160979 -0.4111296 -0.27589574 -0.16601917 0.5515715 -0.308992 0.07646142 -0.051799603 -0.11341789 0.14600986 -0.049240965 -0.1695316 -0.09946176 -0.049531356 0.30822733 -0.14222997 -0.17922343 0.29362887 -0.10880286 -0.12457323 -0.2231305 -0.25987962 -0.076169714 0.14660914 -0.11103256 0.33621606 -0.34373513 -0.21953875 -0.01390553 0.524932 -0.25061536 -0.114245564 -0.3344654 0.21332209 -0.1865224 0.31291452 0.20825286 0.00086084224 -0.18039002 0.024393277
polloadastra 0.18258613 -0.010207247 0.19225752 0.10403956 -0.39606944 -0.14657606 0.034060154 0.86429685 -0.2546496 0.18039751 -0.2702365 0.20167379 -0.2701537 0.26493055 0.2541988 -0.7690224 0.18533178 -0.5092055 -0.21246335 -0.41963035 0.35270154 0.8842127 0.7639942 0.4630173 0.2830046 -0.44561356 -0.6210574 0.1803099 -0.41137362 -0.23442046 -0.043651357 -0.43831316 0.46934986 -0.20707633 0.34347755 0.21818525 -0.0151711535 -0.653345 0.20702787 0.3378612 0.13403305 -0.007138663 0.014685775 0.07491461 0.21632667 0.09818837 0.27586162 0.11262545 0.49425548 -0.144431 -0.060951874 -0.78665626 -0.19238546 0.2048241 0.25008845 -0.06585227 0.39677322 -0.22645418 -0.06483326 0.39916763 0.016933154 0.60368747 0.23448023 -0.37495872 0.86462355 -0.26774856 -0.44767073 -0.9012802 -0.3603934 -0.26170072 0.53998995 -0.00072493136 -0.51566887 0.19109087 -0.044614907 0.5153857 -0.23153055 -0.81462044 0.27535084 -0.368637 0.5164303 0.18728256 -0.28358012 0.30498987 -0.6912018 -0.56670916 -0.37873563 -0.6076156 -0.22949603 0.546679 0.4992775 0.8633781 0.5892658 -0.5398098 -0.36305365 -0.66924024 0.68913984 0.28565148 0.21293789 0.02471037
olivetopping 0.06573577 0.3238655 -0.046846233 0.35445938 0.23122427 -0.3247009 -0.48852012 0.3999377 -0.9928959 0.2550211 0.2545789 0.5787735 0.04781179 0.342922 0.37667626 -0.18943086 -0.53575253 -1.0290283 -0.2857127 -0.0324133 -0.3525852 -0.38272595 0.46723634 0.23145168 0.47970113 -0.45188242 0.1456172 0.32436502 -0.2665168 -0.16171566 -0.82468784 -0.07240179 -0.5896246 0.040204205 0.44730532 -0.46685925 0.64494324 -0.29925776 -0.45707822 0.1463139 0.53418225 -0.025756396 0.12866513 -0.4395527 0.27083394 -0.23075257 -0.09477237 0.6854961 0.34772488 -0.5043933 0.471775 -0.52557707 -0.20910792 0.35751632 0.6969308 -0.29689303 -0.17484042 0.14736012 0.32614234 0.35193834 0.32840478 0.13399942 -0.39746943 -0.12533548 0.2657001 0.45084018 0.1959433 -1.3188382 0.51221627 -0.7395235 -0.19594793 -0.5093782 -0.17239767 0.45625702 0.35705197 -0.3431682 0.22243334 -0.84277624 0.030556448 -0.21727344 -0.1391905 -0.4492877 -0.055676803 0.8060388 -0.17406341 0.97635096 -0.4168914 -0.38412017 0.36231822 0.18455382 0.9017294 -0.21754454 -0.03208031 -0.20537378 0.56657344 0.32875422 0.03826318 -0.093920216 -0.04172506 -0.68135554
giuseppe -0.6366545 0.45756695 0.6758686 0.08076379 -0.3103364 -0.36474353 0.352158 0.27509776 -0.26555857 -0.61931646 -0.31481346 0.17689668 -0.31440583 -0.11095553 0.40357715 -0.58947337 -0.18192485 -0.5612291 -0.52781874 -1.0199224 -0.50380474 -0.09569745 -0.15922484 0.9859799 0.070157155 -0.618345 -0.7217484 0.048204016 0.3624054 -0.18825714 -0.29953793 -0.65530413 0.07567019 -0.3683098 0.5925685 0.08663272 -0.05934924 0.00066396187 -0.17588875 -0.21599084 0.64892495 0.42805862 -0.0939294 -0.2126118 0.12743758 0.019011648 0.1073657 0.9285117 0.9200113 0.020585507 0.1033344 0.10312635 -0.31581694 0.03721871 0.42360514 0.16035989 0.063727565 -0.06428194 0.5793578 -0.73680294 0.25172028 0.55750054 -0.13983634 -0.37846467 0.34397897 -0.43697864 -0.7852313 -0.98322684 -0.88389736 -0.4597502 0.43646276 -0.0853191 -0.8310139 0.25566038 -0.2492769 0.37150618 0.020437228 -1.3169038 -0.20510264 -0.51306427 0.0102909785 -0.18214643 0.21942517 0.5216828 -0.30598995 0.13793096 -0.5335281 -1.3463175 -0.3519731 0.35640764 -0.18510428 0.9710868 0.6298172 0.45338088 0.45817485 -0.18874624 0.77013713 0.34518853 -0.55964035 -0.5669209
sloppy -0.6399661 0.31755805 0.5348237 -0.11856528 -0.10009002 -0.36794192 0.059070002 0.58581036 -0.73854625 0.047817893 -0.13825604 -0.6464204 0.53958803 -0.21915857 -0.049180917 -0.76563066 -0.07559182 -0.38536745 -0.36544144 -0.8278839 -0.5871779 0.5610503 0.29938892 1.0983242 0.3312255 -0.28172725 0.11987733 0.1849155 0.11086263 -0.3536582 -0.23320936 -0.93821454 -0.43190908 0.20568998 0.51236266 -0.20386355 -0.2263111 -0.66265154 0.11454173 -0.11731269 0.107807584 -0.24055843 0.47774914 -0.21951896 0.5160935 0.24888353 -0.29178706 0.90022534 0.7590231 0.18031058 -0.06379685 0.14773943 0.19843963 -0.037101265 0.19754045 0.38336936 0.5422004 0.06339027 0.3356444 -0.4259534 -0.29942262 0.7565658 -0.15095602 -0.23436697 0.7081402 -0.5342551 -0.6861421 -0.71859676 -0.5523481 -0.44504124 -0.1349273 -0.49909264 -0.5860714 0.2026604 0.028112922 0.735297 0.52051955 -0.94415605 0.36411697 -0.2684014 -0.3927929 -0.31019062 0.17416742 0.5681013 -0.42681915 -0.18750864 -0.7367907 -1.3375083 0.12495592 0.22755516 0.1783745 0.55313474 0.7338507 0.5673832 -0.22838415 0.063967556 0.61948365 0.24942107 -0.45148197 -0.25905508
parmese 0.37507066 0.2658881 0.69919765 -0.48269454 -0.4960593 -0.83234745 -0.5146883 -0.083846994 -0.4947523 0.38619155 -0.31377319 -0.43747553 0.541537 0.2385517 0.23521727 -0.19752541 -0.31506717 -0.89403516 -0.5075217 -0.19123735 -0.4125639 0.35126302 0.2365255 0.42586 -0.1290154 -0.26374462 0.10776347 0.030746615 -0.49255267 0.49004498 -0.06626126 -0.25384519 0.028391622 0.030782284 0.6063106 0.0747305 0.460245 -0.5379171 -0.21222071 0.1625964 0.19821204 0.5602078 0.25883037 -0.30014294 0.22830926 -0.080612905 -0.22394457 0.3242079 0.6925745 -0.16622844 0.28774515 -0.06418893 -0.4840779 0.47389555 0.45319137 -0.24241222 -0.195332 0.38929772 -0.23492232 -0.18469131 0.12429478 0.22828503 -0.0031679054 0.13420132 0.123696245 0.31700644 -0.24702196 -0.60054034 -0.39933088 -0.25989863 0.38304254 -0.2836462 -0.1998721 0.061459642 0.18323597 0.68135464 0.35489064 -0.8853241 -0.18545572 -0.69275033 0.31058705 -0.19703032 0.1268241 0.6757692 -0.6019563 0.940995 -0.7289178 -1.3629248 -0.33062842 -0.3377588 0.8736088 1.1414933 0.7430378 -0.37804422 -0.33581218 0.35768938 0.1612852 -0.077929005 0.10976883 -0.06032665
onion 0.09653162 0.3204152 -0.0611235 0.34734818 0.18203288 -0.19050421 0.14072783 0.843704 -0.7566242 0.01466662 0.09813568 0.37107313 -0.040412627 -0.32929894 0.17568326 -1.0113839 0.17760415 -0.055327255 -0.19004019 -0.45740265 -0.30929244 0.20296367 0.65448356 0.34313202 0.1559406 -0.9522317 -0.5549725 0.005650841 -0.43548897 -0.80644596 -0.5280321 -0.48249438 -0.37866047 0.3315935 0.55679804 0.09360772 -0.20032421 -0.56556475 -0.45263976 0.1382953 0.35589108 0.2082469 0.0012727447 -0.39918634 -0.20085777 0.23169637 -0.23685497 0.5484055 0.3918856 -0.42176747 -0.2730883 -0.09830618 -0.28689525 -0.32136545 0.13990834 0.09188031 0.09788848 -0.16264051 0.33303753 0.4593928 0.6024301 0.8130125 -0.529252 -0.3275584 0.8584769 -0.0823878 -0.40050107 -1.2344778 0.092185505 -1.1060455 0.028998256 0.07265733 -0.38278595 0.51945907 0.27375096 -0.14145242 0.10182159 -1.026078 -0.10625666 -0.22374572 -0.029772187 -0.409241 0.1853172 0.7401743 -0.8751142 -0.21325555 0.034346227 -0.30374017 0.17775117 0.81002265 -0.06790086 0.32099655 0.49689487 0.16302685 0.24098097 -0.31278747 0.65643215 0.25062743 0.061869975 -0.44752362
la -0.39873844 0.35613525 0.8197936 0.108625524 0.022081055 -1.0165136 -0.6296268 0.07436439 -0.7982918 0.52692604 -0.14754158 0.50794524 -0.24847963 0.7369418 -0.06497489 0.026081251 -0.9102496 -1.3446362 -0.7255904 -0.1715289 -0.2198394 0.099286735 0.30826512 0.546663 0.075513706 -0.72431344 -0.08857603 -0.18460225 0.13387856 0.453552 -0.62010324 -0.13311544 -0.52281505 -0.30451733 0.30160424 -0.28960976 0.32066253 -0.5136521 -0.034734976 0.86262476 0.5602708 -0.16657816 0.094642475 -0.29069433 0.5654665 -0.16474159 0.00093152624 0.26468772 0.65332836 -0.4352514 0.4101678 -0.41256094 0.040784888 0.66589236 0.55331844 0.27881315 -0.109816976 0.28917542 -0.0084900465 -0.108760044 -0.07849808 0.37959313 -0.25850025 0.056997243 -0.17866383 0.45434016 0.1779628 -1.0057598 -0.18045942 -0.4008951 -0.21951912 -0.2752586 -0.91045624 0.44719118 -0.27648458 0.5824169 0.18586268 -1.1062406 -0.010951381 -0.57706374 0.29694664 -0.21172884 0.5154556 0.14063914 0.42152068 0.60582346 -0.67481834 -0.9579816 -0.28627014 -0.2593599 0.87506765 0.94485366 0.031081077 -0.076859765 0.3242222 0.17229305 0.13518219 0.2532356 -0.23573789 -0.14458226
reine 0.19600005 0.13876592 0.94596434 0.07803577 -0.33770126 -0.8754369 -0.20172997 0.7795235 -0.3275526 0.2523273 -0.41178963 0.3567742 0.393377 0.42781016 0.35411283 0.17243701 -0.54291904 -1.0494777 -0.35779864 -0.61657596 -0.24630533 0.46662715 0.36204082 0.5890738 0.16098864 0.08039055 0.074203834 0.45587292 -0.1669572 0.40491003 -0.033304814 -0.15722544 -0.08373736 0.08982728 0.86192954 -0.39319023 0.18632069 -0.57722723 0.07287256 0.55632037 0.39020047 -0.0044540665 0.513005 -0.009425136 0.7974499 -0.6600083 0.21929942 0.5340782 0.98131347 -0.25596458 0.8502229 -0.62761575 -0.024091188 0.37730077 1.0983453 -0.6036787 0.057216726 0.22700174 0.54988664 0.13865359 0.36988333 -0.07910267 0.21758538 -0.3038035 -0.13381237 0.26100805 -0.5493918 -1.5553226 0.27407512 -0.37030756 -0.045890577 -0.39340112 -0.3763022 -0.107540354 0.28512952 0.2724038 0.36378533 -1.2496915 -0.37409896 -0.3759962 0.26175004 0.024880141 0.30940005 0.6740468 -0.20365739 0.87252706 -0.9840473 -1.1011319 -0.31637707 -0.050348103 1.111242 0.5795063 0.08007502 -0.1046923 0.71846056 0.46029013 -0.16341314 -0.24150279 -0.3958396 -0.47444886
carlo 0.2975511 0.6743971 0.27476963 0.014346821 -0.6031948 -0.2594335 -0.3635886 0.24054255 -0.5464113 -0.2672638 -0.44093546 0.087951675 0.8792361 0.17170587 0.3268734 -0.111920804 -0.08445111 -0.6715317 -0.49749598 -0.632407 -0.3738407 0.49685434 0.49101254 0.49196148 -0.20849314 -0.1323514 -0.103828385 -0.12002583 -0.35027218 0.5188738 -0.66288996 0.044303652 0.23888886 -0.055602085 0.020771261 -0.12846418 0.5785625 -0.10372871 -0.71720403 0.050021105 0.063789405 0.4217316 0.6262247 -0.8529872 0.15670896 -0.30047178 0.29300758 0.69548523 0.49288788 -0.33466956 0.1990509 -0.5038091 -0.75320196 0.5560948 0.42930079 -0.09445705 0.33804065 0.28870353 -0.39404386 -0.6608381 -0.39640248 0.76349974 0.06796034 0.384456 1.0435832 -0.09925192 -0.055800166 -0.77637553 -0.59003305 0.3440747 0.7969381 -0.23148802 0.0750066 0.051193472 -0.5945064 0.049887404 0.41002575 -0.33284444 -0.060431447 -0.8013498 0.13831007 -0.124559 -0.42478064 0.22635087 -1.0485442 0.758122 -0.8216149 -1.6695973 -0.16418761 -0.34272847 0.7947382 1.3939644 0.79583746 0.22863457 0.08980017 0.23643097 0.08623407 0.80557996 -0.49609184 -0.4994522
prince 0.18469259 0.021977613 -0.0687423 -0.19797362 -0.8444737 -0.28702584 0.18422583 -0.28766903 -0.52161896 0.20431113 0.3166506 -0.60325634 0.31338355 -0.1518265 0.05049371 -0.6392196 0.10668478 -0.99988115 -0.54357713 -0.6175168 -0.572685 0.39553335 0.18790488 0.44954982 0.25297675 -0.3640916 -0.66687286 0.48734128 0.24801318 0.19794679 -0.31618187 -0.114801764 -0.11519411 -0.47040117 0.3253675 -0.39739323 1.0168749 -0.50894827 -0.58761144 0.59734315 0.5256001 0.29171857 -0.07281505 -0.6139588 0.50041866 -0.26467714 -0.37536725 1.0808631 0.5549092 0.007726116 0.21740985 -0.40639472 -0.3144355 0.59588325 0.24244751 0.13705914 0.5996634 0.100726634 -0.2825579 -0.6244228 -0.06357447 0.054944877 0.222907 0.5517682 0.6714057 0.011027875 0.029535348 -0.9277031 -0.4061593 0.13319828 0.23212549 -0.801802 -0.48962975 0.2824933 -0.5904844 -0.048620805 0.012390836 -0.47237262 0.116902344 -0.58294666 0.054025605 -0.5062598 0.03235094 -0.19745143 -1.0894083 0.7052044 -0.6422543 -1.5846131 0.007894987 -0.20345452 0.7558261 1.1079531 0.46567333 -0.06562795 -0.47001773 -0.010293915 0.07936694 0.14494224 -0.20660613 -0.2728748
fourseasons -0.009518341 0.23917347 0.66225034 0.2514755 -0.22979218 -0.32698596 0.11612192 0.5496814 -0.44815892 -0.08540887 -0.4300136 0.6825999 0.06332611 0.6328446 0.39700466 0.036732577 -0.5882079 -0.815707 -0.31694955 -0.7015773 0.19808531 0.19821015 0.083085366 0.101244584 0.5846158 0.1636723 0.17216736 -0.1015703 0.29264045 0.14969912 0.0355366 -0.5196914 -0.29087794 -0.27365732 -0.004407784 -0.1308684 0.37638488 -0.26104072 0.14706953 0.23427992 0.11181984 -0.271967 0.18708172 -0.28286192 0.59236956 -0.22297439 -0.1448772 0.5611907 0.7192599 0.027585836 0.06501079 -0.9452026 0.15241717 0.4734862 1.1363933 0.20016344 0.45366016 0.02435202 0.18187886 -0.21387668 0.09434131 0.20689665 -0.0017227224 -0.2694907 0.18904439 0.49915946 0.1273178 -0.66632926 -0.3577207 -0.078109205 0.07227467 -0.63728535 -0.46579978 -0.12501167 -0.21010222 -0.024986595 -0.1940034 -0.45870113 -0.004703319 -0.15626487 0.3908513 -0.5498127 -0.05539328 0.441532 0.18927686 -0.31747937 -1.2297643 -0.48102856 -0.2755376 -0.07984098 0.46730712 0.39477694 -0.46097988 -0.15956654 0.38845462 -0.15582258 0.013989509 -0.12005465 -0.2762739 -0.38197815
cheese 0.08035636 0.5627052 -0.038729653 -0.69633895 -0.42461085 -0.1065947 -0.03506499 0.38214025 -0.6033357 -0.7285867 -0.39113036 -0.7145627 0.587864 -0.12337116 0.4996204 -0.06330567 -0.2970611 -0.66474134 -0.29105264 -0.041291386 -0.23251393 -0.10187388 -0.3322504 0.3225183 0.7697872 0.40387365 0.084605366 0.12363594 0.21984255 -0.093193844 0.030549694 0.28102934 -0.7725005 0.26493657 -0.27623984 0.42505088 0.66608304 0.2839977 0.19511355 -0.20743845 0.15512021 0.18468693 0.20443916 -0.40965417 0.8011536 -0.26295826 -0.5619172 0.26061478 0.8235745 0.04497138 0.5256152 -0.42785054 -0.41711706 0.4335875 0.57984966 0.21235473 -0.11253143 0.20781337 -0.08210586 -0.19072884 0.31439787 0.5736512 0.013830046 0.20855868 0.1903375 0.6095822 -0.08773798 -0.31091872 0.08312523 -0.46897602 0.49365082 -0.271066 -0.26370308 0.11089974 0.031521045 -0.20240374 0.57093036 -0.3273788 0.660092 -0.62516505 0.5702596 -0.94937503 -0.5393006 0.31495067 -0.78255886 1.2583817 -0.60804266 -0.5254635 0.16116296 -0.31286818 0.85034543 1.2158668 -0.10599959 0.13214223 0.007869989 0.3121738 -0.073859215 0.43439174 0.33346105 -0.72656155
oniontopping -0.024213258 0.3920782 -0.14703983 -0.027660538 0.18253927 -0.2014968 0.058030546 0.7854319 -0.7431952 -0.13242286 0.2330836 0.46739674 -0.3474621 -0.32978445 0.20053886 -1.1666335 0.08833611 -0.074983954 -0.37777445 -0.48919684 -0.4276112 0.22653623 0.32485822 0.4514985 0.398227 -1.0471723 -0.32395822 -0.24914177 -0.36127633 -0.50043917 -0.37171385 -0.5231524 -0.27685016 0.3477279 0.43260536 -0.10204913 -0.19713037 -0.30398184 -0.19288048 0.16742742 0.3468582 0.14899457 0.16310132 -0.10004006 -0.0019268558 0.15682803 -0.17271689 0.77794665 0.24110314 -0.586282 -0.0955675 -0.058548134 -0.17252116 -0.07440422 0.0054759555 -0.2922448 0.22704734 -0.21195695 0.23214024 0.33094084 0.5729267 0.37638918 -0.27251858 -0.17816125 0.31638336 -0.17940152 -0.3923135 -0.96305364 0.13165732 -0.8733928 0.063858435 -0.2426678 -0.2663849 0.15370336 0.37666345 0.08326518 0.04246201 -0.6993633 -0.21299255 -0.13410878 -0.22130671 -0.63031095 0.14051187 0.7293425 -0.72352564 -0.3227695 -0.20030904 -0.33270416 0.20554599 0.7217168 -0.2535295 0.2981583 0.53011334 0.36518857 0.23180966 -0.26772967 0.7408012 0.24398796 -0.071217686 -0.48435256
http://www.co-ode.org/ontologies/pizza/pizza.owl#VegetableTopping 0.37772563 0.17826797 0.2771493 -0.33769238 -0.47875398 0.019754855 0.5463076 1.062597 -0.27945265 -0.7673748 -0.77594376 -0.032729566 0.1577007 1.0834367 0.2165986 -0.30138358 0.009318894 0.053024497 -0.5212179 0.30767068 -0.011541599 0.21250962 0.26776078 -0.116196685 0.4831684 -0.59279174 0.006417864 0.09915463 -0.25582632 -0.046377666 0.32384524 -0.35519904 -0.2968658 -0.33710656 -0.13468124 0.4351377 0.17961827 -0.88341504 0.34873417 0.56928694 0.52281314 0.2786341 0.3515258 -0.42062762 0.5390682 -0.45513588 0.17915007 0.055374723 0.80206746 -0.2867236 -0.6281945 -0.7597468 0.42701828 0.56092423 -0.37112355 -0.06610517 0.16065861 -0.09035626 -0.4431057 0.524192 0.25022277 -0.6145383 0.15615253 0.08861991 0.68217176 -0.0039933673 0.20550576 -0.8799388 -0.28945187 -0.39409527 0.291799 -0.13036731 -0.26294187 -0.318715 -0.081456974 0.01567915 -0.25260323 -0.15191135 -0.6168423 0.021416752 0.99552685 -0.88280874 0.17750405 0.5549991 -0.3513546 0.42712313 -1.0717033 -0.5165962 0.1390511 0.09989348 -0.29149812 1.1807126 0.04328704 0.059557337 0.17924628 0.07008419 -0.24268533 0.3137311 -0.6047757 -0.17926505
rosa -0.010968726 0.28709614 0.031704545 -0.7642468 -0.2640747 -0.44268757 0.36219415 0.09861012 -0.67627454 -0.01121098 -0.5002973 -0.50870174 0.19241501 0.03795276 0.07798034 -0.3049857 -0.6142296 -0.5923828 -0.23132472 -0.38209647 -0.085802145 0.15783666 0.036565997 0.22524278 0.60722965 0.27596343 -0.2306442 -0.2532443 -0.2691883 0.507541 -0.4375235 -0.24022429 -0.28666896 0.15803231 -0.19931695 0.20606439 0.12592213 -0.081218265 0.046513636 -0.16688846 0.18689711 0.24393614 0.64010906 -0.36514533 0.109714866 0.10103602 -0.21472138 0.47634643 0.5561397 0.2333267 0.46638134 -0.49468708 -0.7659322 0.48701242 0.3082353 -0.04879523 -0.033836715 0.26846293 0.12038278 -0.15942249 0.077807404 0.32387713 0.1115759 0.08733251 -0.075275205 0.1954689 -0.36061916 -0.53959167 -0.107575476 -0.023273135 0.31268013 -0.4847113 -0.18141404 0.021156333 0.03985758 0.60993344 0.42852145 -0.40411454 -0.09588883 -0.71817523 0.3588176 -0.5796867 -0.46467194 0.4931395 -0.4977811 0.36294782 -0.66240156 -0.60115427 -0.1437428 0.15211998 0.4054325 0.81170076 -0.103628956 0.05591131 -0.39213333 -0.31906518 0.77465266 0.2415036 0.37219596 -0.60994595
parmezantopping 0.28455874 0.41343412 -0.24538848 -0.06221232 -0.50479937 -0.343524 -0.5649614 -0.16164233 -0.77396125 0.3769801 -0.21246465 0.20291136 0.16867031 -0.06778257 -0.06936692 -0.16599138 -0.438399 -0.8087088 -0.488373 -0.0017151879 -0.38802445 0.27127638 0.09208375 -0.26454985 -0.064197704 -0.38294527 -0.015380586 0.2760324 -0.6534569 0.13795893 -0.8187524 0.07027168 -0.5062931 0.3875215 0.392313 -0.001517875 0.576528 -0.276628 -0.43422067 0.23547395 0.36928695 0.48093516 0.5022332 -0.5329576 -0.037567392 -0.12326536 -0.16069372 0.7753376 0.1767633 -0.39658636 -0.32525325 -0.24167559 -0.61127347 0.48479873 0.48987228 -0.22154838 0.22820854 0.15999493 -0.36731407 0.08769846 0.3179651 0.23282889 0.151796 0.36201742 0.28666922 0.38003793 0.4492477 -0.5984068 0.10390375 -0.33327115 -0.09336719 -0.46668872 0.27998072 0.018567659 -0.31624863 -0.100399785 0.3128998 0.03039224 -0.16499147 -0.46905214 0.16207197 -0.71044135 0.027689654 0.34401444 -0.83863485 0.63181406 -0.5614458 -0.47324365 0.68122125 -0.49300736 0.58061093 0.6655799 0.3774319 -0.41633773 -0.022065135 -0.16846254 0.15046683 0.15651055 -0.10113172 -0.6621441
mushroomtopping -0.3339171 0.42540035 0.019014858 0.033465214 0.2131779 -0.15718658 -0.081283316 0.6200612 -0.75893444 0.013452701 -0.12557942 0.7681061 0.12222676 0.40770537 0.109368704 0.047042582 -0.52425843 -0.99386466 -0.3640998 -0.19630861 -0.38313025 -0.016238507 0.03490835 0.16122681 0.38867533 -0.44142294 0.063666396 -0.07919687 0.08760714 -0.08362852 -0.31800988 -0.094796 -0.4905512 0.31464055 0.4074554 -0.48376253 0.32953426 -0.46452558 0.00064439134 0.49253345 0.12022188 0.019779006 0.22534211 -0.3917664 0.5929562 -0.13580091 -0.1532678 0.6625513 0.29873753 -0.7540281 0.37753496 -0.3405383 0.33714885 0.3722257 0.8307662 0.06424442 0.15882538 0.38479823 0.2846666 0.04838393 0.39564762 -0.19228071 -0.08869234 0.30092672 -0.32721767 0.3886109 -0.08586499 -1.1886504 0.22901627 -0.5454424 -0.45311674 -0.31105796 -0.19230722 0.09139367 -0.061237443 -0.523975 0.18544026 -0.34368262 -0.5013986 0.0040366426 0.10916585 -0.5841971 0.08799385 0.48228654 -0.27490273 0.38953343 -0.68994313 -0.5944124 0.26702443 -0.08922787 0.5954215 0.12735687 -0.15973201 -0.04097425 0.9513348 0.09892932 0.0047427337 0.09529722 -0.44326213 -0.8983115
caper 0.1565373 0.21712956 0.09237628 -0.11113069 0.21476993 0.13260286 -0.31413972 0.45996094 -0.8988569 0.211598 0.31834564 0.6555644 -0.07541632 0.11346269 0.5226549 -0.17904076 -0.6186033 -0.6504299 -0.17373934 -0.20932232 -0.0038177343 -0.322718 0.0557694 -0.029197767 0.5375651 -0.33416075 0.2998373 -0.4347796 -0.100132674 -0.27191088 -0.08960885 -0.47702223 -0.65259963 -0.025802739 -0.26048148 -0.080049135 0.36406308 -0.36377013 -0.21549374 0.11834537 0.214059 -0.18253078 0.12424154 -0.3888134 0.17712434 0.009849409 -0.21383035 0.76307017 0.46544796 -0.43055025 0.16665694 -0.47410014 -0.1289904 0.47022498 0.80903846 -0.033926893 -0.13735785 -0.104297355 0.0772066 0.15724258 0.4315138 0.21795279 -0.56048185 -0.1188657 0.11816685 0.36243075 0.13199195 -1.0954624 0.25733775 -1.0252242 -0.25396797 -0.40487242 0.027934836 0.15778944 0.46762305 -0.24706136 -0.09231873 -0.6104413 -0.29350096 0.00432569 0.33465752 -0.94808483 -0.21919654 0.9263826 -0.22208989 -0.048987396 -0.638681 0.027388817 0.092041 0.34638447 0.46416488 -0.29676956 -0.10909247 0.05955804 0.6459831 -0.49807557 0.18938862 -0.036748458 -0.19078203 -0.88936204
di -0.10871911 0.40765354 -0.31337687 0.060108118 -0.74994236 -0.40358686 -0.10464157 0.28325632 -0.191604 0.4174085 -0.6272138 0.24281271 -0.03031095 0.17897172 -0.43929312 0.15476662 -0.583143 -0.53815377 -0.4957566 -0.096560836 -0.34326616 0.7810551 0.6926775 0.63310254 0.5990401 -0.5004408 -0.3423262 0.27593157 -0.76605535 -0.5298787 -0.9381027 -0.22323099 0.44736844 -0.63506544 0.85237736 0.71225196 0.6925612 -0.20836177 0.3819978 0.15154532 0.6706206 0.52974033 0.022219345 0.08298552 0.09379839 0.36539334 0.6921953 0.24033903 0.22813904 -0.46363991 0.32696182 -0.5336504 -0.47791216 0.73410153 0.6540186 0.35351023 -0.0599668 0.01018726 0.59476715 0.2935625 -0.5128694 0.33896166 0.021933043 -0.36530507 0.3133603 0.40015957 -0.6522527 -0.7659185 -0.36639464 0.17991011 0.82481885 0.26057377 -0.516734 -0.08961241 -0.5526048 -0.11336857 -0.4915342 -0.949014 0.09716112 -0.80330515 -0.007364215 -0.9358713 -0.07736408 0.8341393 0.0026411316 0.31943533 -0.88038373 -1.0338932 -0.36626142 -0.31167442 0.07982574 0.16076517 0.05240926 -0.539457 -0.5711889 0.42947236 0.40857625 0.26014265 -0.084621854 -0.14578594
mare -0.1325205 -0.022106657 -0.07418425 0.24381255 -0.434032 -0.23636597 -0.21736132 0.41908807 -0.36724508 0.4196307 -0.26134583 -0.35469547 0.55134624 0.37395412 -0.7804791 -0.03410057 -0.07312481 -0.032546762 -0.3619228 -0.20198472 -0.31136826 0.40446562 0.74673367 0.69768775 0.63426137 -0.039137423 -0.30898595 0.27302465 -0.9407049 -0.03712841 -1.0423905 -0.49884054 0.49478063 -0.3556837 0.42439067 0.6982082 0.81140256 -0.53224915 0.124911346 0.3962486 0.73225945 0.821872 -0.031149453 0.15123962 0.15327318 0.6211195 0.11698655 0.2728339 0.49820033 0.09073321 0.07801264 -0.8235855 -0.8789723 0.39941016 0.7493265 0.25002903 0.2306172 0.48849905 0.30751505 0.7165116 0.0010483778 0.6522819 0.35851994 -0.34554765 0.2561936 0.22859463 -0.71284336 -0.77280504 -0.5596554 -0.028889554 0.29955035 -0.43278092 -0.7973269 0.015905019 -0.33332738 0.24633084 0.14943823 -0.61587334 -0.21451354 -0.46687216 0.39531314 -0.8742824 -0.5970632 1.0304378 0.014342335 -0.047293745 -1.1642962 -1.0583274 0.039407134 -0.0015058587 0.37089348 -0.09846914 0.15953432 -1.1797493 -0.6505663 0.36340868 0.7591306 -0.01915511 -0.50814915 -0.37880674
frutti -0.025684122 -0.06723154 -0.10332122 -0.07476028 -0.5573667 -0.4947819 -0.12487424 0.25753093 -0.24264048 0.14933892 -0.6156314 -0.34471425 0.31330517 0.6599123 -0.35270232 -0.48094952 -0.11463959 -0.5347568 -0.5376585 -0.37548944 -0.30752373 0.2967624 0.45029238 0.4430446 0.54870003 0.011168362 -0.21857698 0.19805288 -0.5982102 -0.21908413 -0.9527149 -0.6263789 0.08392482 -0.5227191 0.90525407 0.3397467 0.42430672 -0.57282394 0.04607867 0.34260908 0.7866989 0.908703 -0.14326909 0.010373175 -0.06479503 0.6816785 -0.03764659 0.2717076 0.851179 0.15859196 -0.055270933 -0.5921675 -0.49583992 0.5197916 0.6560451 0.5545831 0.47980794 0.2324955 0.29328838 0.4060167 -0.5278865 0.42412153 0.31198606 -0.40433383 0.7690477 0.2688194 -0.4129663 -0.5116586 -0.24672656 0.32275245 0.71488214 0.009265399 -0.42073768 -0.46780103 0.25125256 -0.25333643 -0.3994355 -0.9228548 0.17177947 -0.5137147 -0.22622155 -0.79393876 -0.2651532 0.5346364 0.3275165 0.21716563 -0.77157795 -0.4221057 0.2820756 -0.12449131 0.61603826 0.26507264 0.52870893 -0.59228617 -0.5757185 0.5505189 0.6305846 -0.22421592 0.17587309 -0.6338884
americanhot -0.16172406 -0.051808447 0.32044813 0.019282268 -0.46409538 0.026391031 0.17749755 0.28458586 -0.30384982 0.054032933 -0.42341095 0.38641366 -0.0026083686 0.36922804 0.20733796 -0.21721523 -0.012560631 -0.8774823 -0.06566716 -0.6398138 0.3799812 0.25001252 -0.17008111 0.5489099 0.66564846 0.08542399 -0.3579498 -0.36412713 0.2738244 -0.2247109 0.27894148 -0.6472132 0.27223006 -0.34848848 -0.22303738 -0.078530036 -0.04840603 -0.13048865 0.04210643 0.12391443 -0.16003537 -0.22383748 -0.015828056 -0.30646574 0.2100743 0.095926166 -0.057835974 0.62044173 0.9931717 -0.28158024 0.021693321 -0.6225776 -0.122777835 0.30110654 1.1999639 0.19297786 0.39673164 0.13025643 -0.01281021 -0.623328 -0.38525105 0.22128797 0.037600532 -0.4309884 0.46796566 -0.030321991 -0.34409678 -0.13986793 -0.87729335 0.021728208 0.40362844 -0.5031133 -0.3166524 -0.4012653 0.11222026 0.2523376 0.102984354 -0.4300169 0.12076495 -0.57863635 0.1291443 -0.28394943 -0.10300522 0.41697875 -0.23023102 -0.3571694 -1.2315538 -0.8898208 -0.19058356 0.42882863 0.3929986 0.029208748 0.45515546 -0.20159872 -0.06208949 -0.51497674 0.5937331 0.46188116 -0.41890252 -0.1571948
vegetarianpizza2 -0.14736438 -0.3470767 0.20854707 -0.14116633 -0.38908672 0.088580064 -0.8898425 0.35826778 -0.6612936 -0.16130279 0.5404013 0.23482227 -0.37284818 0.09197288 0.15807056 -0.36768615 0.23853834 -0.022489918 -0.3028513 0.04922801 0.17913412 0.300367 0.37967166 0.041004077 0.6227602 -0.28312248 -0.40470427 0.09913911 -0.27759352 0.06407538 0.539565 -0.37150976 0.38700843 0.03987686 -0.16202486 0.3323313 0.3189072 -0.3880232 -0.09453675 0.8809575 0.54105455 0.62609935 0.7184044 -0.5858326 0.62560606 -0.35725984 -0.003344679 0.5232311 0.2040673 -0.6309162 -0.2588552 -0.52615047 -0.5564922 0.7469623 0.532008 0.0126072345 0.23861721 -0.12899843 -0.062896766 0.26005957 0.6644888 1.0372239 0.044498682 -0.002423326 0.09473215 0.18927398 0.35633633 0.05536864 -0.06796732 -0.39352062 0.108068615 -0.012996131 0.43625227 0.2783426 0.83658576 -0.13936341 0.7240907 -0.2909393 0.57664055 0.021661293 0.031296816 -0.35255632 -0.45735243 0.3261608 -1.0670854 0.120023824 -0.3699671 -0.42625675 0.10997479 -0.025219569 0.074949756 0.62504935 0.46321133 0.1253298 0.023390053 0.0034052238 -0.030638807 0.46122697 -0.33929613 -0.43537554
comment -0.2355544 0.18477948 -0.44469512 0.3961697 -0.23683879 -0.25162324 0.011180974 0.25356916 -0.27973133 -0.17297299 -0.36935672 0.45128757 -0.40807852 0.16991359 0.14630716 -0.37407014 -0.5619093 0.101771034 -0.6591584 -0.25387886 -0.3563236 -0.45753932 0.84021825 0.51202804 0.46508276 -0.043771982 -0.13872623 0.53991956 -0.24176043 -0.6341921 -0.45984048 -0.00261177 -0.13030815 0.3910247 0.34930852 0.15348774 0.5769556 -0.3597015 -0.15552814 0.061055906 0.6678613 0.56308824 0.08284222 -0.4831138 0.69607836 -0.76171774 -0.3957474 -0.0029907504 0.4917633 -0.48717457 0.8532876 -0.6035009 -0.37965804 -0.271447 0.008784864 0.49603516 -0.08447395 0.018934924 -0.23911452 -0.36641547 -0.31049043 0.15306978 -0.08483729 0.42312664 0.14393118 -0.076892965 0.091347255 0.102334835 0.12857237 0.36526442 -0.2336919 -0.5985678 -0.18622139 -0.011576698 1.1592941 -0.48278242 0.8024661 -0.23414032 0.5013954 -0.4619188 -0.29421276 0.13649857 0.34301358 -0.01466153 -0.08057167 0.74054736 -0.2661046 -0.1311389 0.1762692 0.70345104 -0.10160143 0.056629807 0.1373519 0.17617276 -0.05495201 0.74029446 -0.15525225 0.3303864 0.095095575 0.07461746
