764 100
of 0.2930196 -0.23419017 -0.20851907 -0.009231416 0.34703693 -0.2747141 0.20243941 0.3051871 -0.22160865 -0.38534176 0.2382942 0.2356414 -0.18634325 -0.07734222 0.018586306 -0.5773639 -0.0025332856 -0.14456813 0.1689284 -0.4400044 0.3955339 -0.23952149 -0.14308892 -0.082760975 -0.07042498 0.17704333 0.086151235 -0.15639576 0.49516308 0.07424519 0.063821435 0.31574014 -0.61907953 -0.21142116 0.10626326 0.30262098 -0.033213954 -0.007028675 0.34185988 0.00035607218 -0.06576809 -0.1531838 -0.03269776 0.17464845 -0.6834258 -0.0194489 0.37513185 0.11938743 0.56070507 0.39289632 -0.18583065 -0.113689855 -0.09675822 -0.03457053 0.41142002 0.4303961 0.2372846 -0.3515548 -0.00030221598 0.37689754 -0.011856783 -0.13987991 0.23777528 0.19747418 0.07776989 0.51372725 0.15176027 0.30184796 0.322454 -0.30545872 -0.41887495 0.29369766 -0.27827862 0.17896205 -0.08351257 0.41840976 -0.43991965 0.3504373 -0.8376628 -0.3409547 -0.47419992 -0.31502342 0.30925417 -0.44890955 -0.21564528 0.6399786 -0.24105814 -0.42383587 -0.10545441 -0.10594511 -0.29848304 0.35396433 -0.09491213 0.4713616 0.06696743 0.0864671 0.6798984 -0.18649872 -0.071204565 0.2665964
topping 0.29059237 -0.24387407 -0.16569711 -0.14277448 -0.17478724 -0.70637226 0.12318224 0.23231803 -0.26954848 -0.43826944 0.084329 0.10249205 -0.38963053 -0.03161914 0.46747118 -0.11538793 -0.39636874 0.0023266017 0.48612744 -0.77869576 0.6554615 0.1792665 -0.29836747 -0.014823751 -0.20052657 0.16359408 -0.07141535 -0.121453896 0.53957295 -0.053976007 0.065264724 0.68731236 -0.6071049 0.114420466 0.2497378 0.09505617 0.07734907 -0.36623058 0.38267586 -0.440826 -0.4606386 -0.062253125 -0.45462015 -0.2219322 -0.89022154 0.15806112 0.32861763 0.21853642 0.39232916 0.49317235 -0.33746532 0.32564673 0.35409337 -0.21412724 -0.22529422 -0.26882705 0.25514537 -0.077930905 0.2517609 0.14168082 0.118320756 -0.30241242 -0.21106412 0.5972561 0.4535777 0.32781664 -0.3138939 0.40730163 0.38521442 -0.0006893377 -0.6449517 0.17144649 -0.33803976 0.23896034 -0.06469275 0.506382 -0.33995026 -0.088323645 -0.2084724 0.24860553 -0.37955743 -0.23498179 0.42222077 0.11951602 0.057576556 0.20718445 -0.30677837 -0.246781 -0.13139738 0.0120069785 -0.3211963 0.27652532 -0.08849932 -0.23834887 -0.11782381 0.44365436 0.61968964 -0.39730883 0.05049713 0.0728028
subclassof 0.4803835 -0.15250327 -0.37849727 -0.014710059 0.07615289 -0.37340513 0.06429359 0.15435958 -0.18025628 -0.3589226 0.10635777 0.15167269 -0.28297424 0.115955055 -0.019977245 -0.30270642 -0.4885166 -0.10426173 0.34892 -0.39888743 0.56481856 -0.058377057 -0.11699669 0.27822098 -0.017210495 0.14490011 -0.14868797 0.06834487 0.58373713 0.39374822 -0.23326737 0.6007624 -0.32327682 0.07383076 0.21775922 0.2634003 0.20438795 -0.13416345 0.056113534 -0.24771516 -0.15790224 -0.1132069 -0.093074635 0.3078861 -0.5755004 0.2390962 0.18426245 2.3259083e-05 0.6044315 0.18179631 -0.13782251 -0.40644813 -0.08064013 -0.019328244 0.18753837 -0.14943406 0.42467657 -0.25793236 0.37074575 0.4129041 -0.0031957356 -0.011367266 0.0649339 0.36904773 0.22108841 0.10767856 -0.038122676 0.1885267 0.28098813 -0.12704843 -0.21046029 0.0456964 -0.18523069 0.15520191 -0.12172445 0.12711158 -0.43633115 0.09585748 -0.5014409 0.037473097 -0.4479374 -0.25504282 0.36405575 -0.41027874 -0.14714156 0.32041907 -0.37384185 -0.38829583 -0.11330554 -0.22606061 0.05823438 0.5764959 -0.057164673 0.078159064 0.09898331 0.26510233 0.3964954 -0.03876489 -0.22244008 0.10281899
has 0.29743627 -0.13503274 -0.013935829 -0.07024199 -0.059072886 -0.14823481 0.08813381 0.35231543 -0.12506981 -0.36019242 -0.1702118 0.03082453 -0.25275666 -0.112706445 -0.0016257061 -0.21662645 -0.53364336 -0.17360452 0.19734824 -0.6832708 -0.037709165 -0.33326182 -0.3076597 0.4591585 0.0008657664 0.16944115 -0.570379 0.034695186 0.45675865 0.6311111 -0.09786641 0.55538017 -0.25019193 0.23436554 0.11082964 0.331909 0.32986295 -0.15200473 0.33849376 -0.2371995 -0.11250199 0.13360488 -0.100226894 -0.12844674 -0.7083799 -0.11373798 0.34561604 -0.079771146 0.7882783 0.42162633 0.016535433 0.23077907 0.29341507 -0.046179835 0.24131733 0.06322645 0.3979667 -0.39443633 0.27148232 0.49240416 -0.15943581 0.2811305 0.08547533 0.48727503 0.44213817 0.075414486 -0.109797314 0.6044389 0.48802778 0.119839706 -0.20220357 -0.05590048 -0.33764806 0.51134366 -0.04771821 0.3800749 -0.38786557 0.45777154 -0.64182436 0.105339095 -0.6557692 -0.11274735 0.08196327 -0.24259567 0.06976569 0.3478969 -0.28151882 -0.44097665 -0.20731215 -0.015948253 0.055285886 0.3448287 -0.042617626 0.043596238 0.09512251 -0.057875313 0.7385677 -0.13183619 -0.39367992 0.107558765
class 0.4529318 -0.2198255 -0.4774481 -0.5051224 0.13304034 -0.20617498 0.091757104 0.15692666 0.07907349 -0.5409252 -0.087110065 -0.0025460953 -0.3348825 -0.07173484 -0.11008652 -0.460153 -0.61440545 -0.046186835 0.30262756 -0.50970006 0.5079258 0.033395875 0.050024662 0.34287608 -0.14144675 0.12720528 0.08668295 -0.0841748 0.34318238 0.45034295 -0.38300857 0.90843767 -0.5101783 0.007758911 0.4367213 0.29676852 0.096649475 -0.17110811 0.057146475 -0.2257758 0.12272909 0.088561885 -0.25447634 0.47851232 -0.34352806 0.3176245 0.28373912 0.06917761 0.5667665 0.37819186 -0.095945716 -0.57459146 -0.34669477 -0.02573244 -0.028610189 0.111896425 0.16688706 -0.4031122 0.20975342 0.24929965 0.13014957 -0.23529251 -0.03505272 0.48722857 -0.15012272 0.10122892 0.032483105 0.25390282 0.15736273 -0.07569259 -0.4416541 -0.28182203 0.016263178 0.037066676 -0.017160513 0.19179037 -0.455682 0.05802477 -0.46612895 0.08557592 -0.52978337 0.4089025 0.5808416 -0.44046623 0.074731715 0.25461003 -0.19809234 -0.555208 -0.21992676 -0.32288703 -0.35985014 0.55383974 -0.15954612 0.27664712 -0.04523023 0.33704728 -0.047644403 -0.24664189 0.20882632 0.21877995
super 0.12224699 -0.16375405 -0.72750497 0.12565278 -0.18517941 -0.11254305 -0.022137197 0.19587258 -0.09504821 -0.48503017 0.09158843 0.027380459 -0.16475622 0.43685272 -0.019747503 -0.23825608 -0.5124893 0.023935687 0.45210242 -0.27373987 0.75977874 -0.36885455 -0.08042733 0.013942899 -0.059575286 0.2994222 -0.15709257 -0.24864192 0.5758931 0.26501757 -0.42384595 0.88532263 -0.42661083 0.13816236 -0.13592568 0.52496934 0.13787274 -0.27785838 -0.048244804 -0.30660984 -0.34000236 -0.044468902 -0.2210626 0.33450332 -0.524467 0.14344217 0.49926013 0.16917369 0.36874887 0.14366123 -0.33229282 -0.553137 -0.20115082 -0.026663067 -0.038893573 -0.011917108 0.24960755 0.14187633 0.42574394 0.38963452 0.022471663 -0.15148605 0.3930891 0.08591202 -0.24696727 0.055695117 -0.23817337 -0.21623059 0.23408246 -0.43605453 -0.33078092 0.1564312 -0.12471138 0.043981273 0.15004934 0.22589009 -0.47144488 0.4647194 -0.43560785 -0.2607797 -0.41318348 -0.23229378 0.48917323 -0.51410633 -0.18849596 0.32188392 -0.48268074 -0.27198362 0.064055696 -0.021236423 -0.074619904 0.73697287 0.06141705 -0.086931534 0.24359979 0.23407452 0.06844417 -0.49123016 -0.03833189 0.0038116144
http://www.w3.org/2000/01/rdf-schema#subClassOf 0.069796585 -0.008710476 -0.5043877 -0.33691204 0.01896113 0.043543134 -0.040927906 -0.049115516 -0.23771773 -0.18655308 0.041487522 0.14442454 -0.32502884 0.02278132 0.3358947 -0.107841335 -0.22345278 0.02683125 0.3268187 -0.22073007 0.520015 0.08530171 0.30124015 -0.24682818 -0.18117175 0.38321504 0.08207208 -0.16804749 0.23071797 0.3370705 -0.6579525 0.49515522 -0.26902372 -0.06117318 0.23821445 0.115290895 0.18913828 -0.27660885 0.28996655 -0.3285267 -0.34774297 0.02937427 -0.2221901 0.24133757 -0.25496233 0.30020854 0.045067426 0.049277097 -0.0780561 0.10119312 -0.23309578 -0.3969241 -0.35681212 0.009433445 0.30540824 0.12745461 0.118423544 -0.25872704 0.2659425 0.19625601 -0.030916035 -0.054201398 0.0694758 0.39243367 -0.06810442 0.27956697 0.11677572 -0.11654387 0.3494254 -0.27371475 -0.16649166 -0.13129857 -0.099637866 0.15904638 0.058969997 -0.052586183 -0.73233205 0.066115044 -0.42922303 -0.2480358 -0.4955932 -0.18884163 -0.109752305 -0.49237746 -0.23429117 0.337019 -0.033780955 -0.4920735 0.27609295 0.11242544 0.063337706 0.4595219 0.14657414 0.6196302 0.2187715 0.19181639 0.12490552 -0.07236921 -0.17494282 0.24807806
is 0.2424018 0.082838506 -0.41353193 -0.289655 -0.016392855 0.06207057 0.23230383 0.2694411 -0.13673502 -0.6890694 0.25293437 -0.019505711 -0.2682818 0.3190437 0.3386154 -0.14975403 -0.4690883 0.2864818 0.3618946 -0.44756368 0.3219238 -0.101863064 -0.05806567 0.12438295 0.10167373 0.2675247 -0.011972852 0.09477057 0.7369149 0.29152802 -0.15196003 0.71769303 -0.5476536 0.042425387 -0.10273848 0.16636643 0.34112123 -0.0033791945 0.18155736 -0.15548047 0.16297697 0.19876705 -0.0623128 0.13251252 -0.49073336 -0.097896434 0.5737431 -0.18985568 0.5193098 0.3707962 -0.26173824 0.25927868 0.17768873 0.28578177 -0.14079311 -0.20592384 0.17109281 -0.015914196 0.5658086 -0.146574 0.06441532 0.18128638 0.04754673 0.6767094 -0.030898586 0.15466177 -0.4885665 0.3653726 0.5429655 -0.058431543 -0.6601771 -0.3106014 -0.34094903 0.22272086 0.26815614 0.27472565 -0.32813352 0.38614732 -0.9446409 0.07203518 -0.7316661 0.1772422 -0.0020148156 -0.39257792 -0.10415422 0.3972316 -0.20034762 -0.6695066 0.072879285 -0.324579 -0.20596659 0.2349841 0.24053165 -0.063187495 -0.12579149 0.2124359 0.7745144 -0.46144113 -0.26919967 0.09938019
pizza 0.40871382 -0.18227021 -0.60630673 -0.102181435 -0.49487633 -0.66666585 -0.3041719 0.2715177 -0.100957274 -0.6021819 -0.52963626 -0.11496024 0.060219027 0.38004935 0.76454836 -0.092819475 -0.5164173 -0.6381814 0.31470984 -0.12794788 -0.17102496 -0.24732865 -0.023511784 -0.44386148 0.18559943 0.40827668 0.21773864 -0.1406743 0.58876365 0.5427378 -0.60694814 0.71915287 -0.09396358 -0.41536337 0.8936187 0.64835864 0.26943198 0.17882259 -0.10606121 -0.44640368 -0.23136242 -0.17133018 -0.26670426 0.51038027 -0.48800662 -0.18884385 0.66067994 -0.027099447 0.23563038 0.22066781 -0.11150361 0.3237109 -0.07739899 0.46842876 -0.26022664 0.27154624 -0.1485868 -0.32263985 -0.677719 0.5832551 0.2327533 0.35332236 0.18402302 0.1171505 0.0094571505 0.46670854 -0.38968408 0.7336722 0.02905293 0.19220607 -0.3984337 0.083577596 -0.32980335 0.07784612 0.28346336 0.29075384 -0.34901085 -0.23861915 -0.724977 0.1220164 0.49157724 -0.03560424 0.09108468 -0.3580432 -0.05464394 0.62426376 -0.81645954 0.41871253 -0.52269536 -0.4179852 0.011880204 0.09301588 -0.21543846 0.17098308 -0.12898093 -0.27522042 0.32770586 -0.64260024 -0.10700718 -0.25917011
http://www.semanticweb.org/owl2vec#superClassOf 0.068226665 0.17621337 -0.4319379 -0.41633394 0.07605732 0.053029064 -0.06752568 -0.039923027 -0.15130942 -0.02221894 0.06321147 0.22261347 -0.25457084 0.03303977 0.20899674 -0.21107365 -0.1827756 0.033942644 0.384743 -0.16394542 0.48756507 -0.027942512 0.23617923 -0.26621595 -0.16363797 0.35905597 -0.06039976 -0.3678768 0.10958505 0.32865298 -0.7296335 0.51584506 -0.3780339 -0.07950616 0.2945163 0.20663601 0.25433522 -0.3236648 0.34200555 -0.26462013 -0.44504324 0.056993816 -0.29123604 0.26026773 -0.1753554 0.4600706 0.03236129 0.25400326 -0.09905162 0.08983402 -0.24838875 -0.43458083 -0.32096013 -0.09243579 0.32782835 0.21457697 0.1869519 -0.31632414 0.36265877 0.25733483 -0.015942704 -0.11312474 0.19160077 0.40974405 -0.17893416 0.26701853 0.13826843 -0.16427971 0.2925049 -0.230319 -0.09752899 -0.17250642 -0.054169655 0.21346948 0.05652511 -0.081063904 -0.84983325 0.05288956 -0.3165119 -0.2673993 -0.50372386 -0.17688209 -0.19323163 -0.5398117 -0.18465585 0.37067387 -0.10794875 -0.41117454 0.34240973 0.16184857 0.0056383098 0.5604217 0.13111006 0.6484434 0.2277357 0.114865966 0.13005932 -0.11029922 -0.08173148 0.29498312
http://www.co-ode.org/ontologies/pizza/pizza.owl#hasTopping 0.22141516 -0.25608483 0.052703008 -0.37442183 -0.2757236 -0.37789148 -0.17026293 0.09382382 -0.14335662 -0.053157594 0.08276712 0.0890053 -0.42594138 -0.2916516 0.7936161 0.38633147 -0.29236615 -0.02472376 0.29936317 -0.36708304 0.39055735 0.15468508 -0.13166372 -0.41228622 -0.07014794 0.4975146 -0.17354529 -0.28584126 0.25330606 0.3508833 -0.47322264 0.26241454 -0.0031927808 0.18696491 0.64309067 -0.22779949 0.259384 -0.65729696 0.5266318 -0.6560002 -0.7484136 0.15355958 -0.14353435 -0.21105072 -0.3132835 -0.11170328 0.13997263 0.21969418 0.13665868 0.35396564 -0.26059002 0.37033904 -0.04140568 -0.1478537 0.038662802 -0.04887378 -0.015793918 -0.10263653 0.24952228 -0.0047833533 -0.07398666 0.07294885 -0.32174003 0.6550777 0.5491449 0.21652648 -0.10028483 0.39573023 0.52247536 0.17859061 -0.09284885 0.06465203 -0.3889142 0.4287821 -0.18696155 0.18900609 -0.56225204 0.07020402 0.0003733297 0.24513283 -0.6276667 -0.37934062 -0.45160675 -0.052845016 0.05162146 0.27830863 -0.24479635 -0.19466844 0.1469833 0.2723628 -0.032754976 0.32227632 0.13337278 0.39716917 -0.12902744 0.14920557 0.55384624 -0.19901429 -0.3412399 0.2562407
label 0.19801529 -0.24659921 -0.43383646 -0.039692465 0.122853816 -0.164405 0.19761422 0.28501853 -0.20643409 -0.45417544 0.06846928 0.07962039 -0.31079197 0.04977686 0.06400634 -0.2388138 -0.29489478 -0.030937135 0.28415117 -0.5296306 0.4382353 -0.124305464 -0.012293986 0.1977392 -0.17440152 0.09086034 -0.01567616 0.05519854 0.4334166 0.22002463 -0.08448215 0.6474867 -0.44782227 0.0066974163 0.11341746 0.2707067 0.1603744 -0.081194304 0.18406579 -0.19462715 -0.021436159 -0.07281507 -0.109278165 0.10396131 -0.6926527 0.047552556 0.2833791 -0.06217408 0.5334916 0.42019558 -0.16420393 -0.24267313 -0.05500277 -0.032484718 0.10238771 0.11819711 0.17142352 -0.16646872 0.21329644 0.3565602 -0.019982131 -0.027542625 0.10852822 0.3587225 0.14396206 0.11852663 -0.08998157 0.21045679 0.31640315 -0.24727467 -0.4287996 -0.0719532 -0.21521974 0.13109125 0.09435413 0.27639094 -0.46656257 0.18251203 -0.6090491 -0.095124066 -0.47979313 -0.18301497 0.37349573 -0.33977923 -0.07463857 0.3067041 -0.22489543 -0.52534586 -0.20824365 -0.17429471 -0.01652795 0.33512324 -0.081332736 0.19001374 0.15764618 0.2702223 0.3199938 -0.19659276 -0.15464361 0.10906194
preflabel 0.18574154 -0.23495483 -0.4326287 0.0030908748 0.046748374 -0.13414551 0.113442056 0.28349313 -0.22915842 -0.44274437 0.03826141 0.10569757 -0.2975743 0.06955254 0.09945791 -0.14665015 -0.31501943 -0.13944024 0.30007726 -0.5694751 0.41497713 -0.17383939 -0.04078784 0.18020102 -0.21851371 0.118631266 -0.053077944 0.108787835 0.48599494 0.22044519 -0.12720887 0.6700531 -0.4228886 0.067567624 0.089132294 0.33293676 0.17057063 -0.10084635 0.14147185 -0.19257939 -0.07342791 -0.04001679 -0.16125628 0.12305186 -0.6976245 0.06694845 0.25341848 -0.04485113 0.5107715 0.4225409 -0.21830219 -0.13519503 0.023336362 -0.025479969 0.11616565 0.08934018 0.19043845 -0.1565755 0.22206953 0.37742934 -0.09233109 -0.012456072 0.08879202 0.3702879 0.12609687 0.15839061 -0.1457556 0.24230385 0.3747904 -0.24032657 -0.40235254 -0.10964452 -0.26286432 0.117614195 0.102673985 0.2539709 -0.42467445 0.1678584 -0.5941861 -0.081897885 -0.48647887 -0.12280405 0.32567462 -0.39343715 -0.018645441 0.33049232 -0.22411555 -0.5152957 -0.19770473 -0.17598426 -0.011609708 0.31833324 -0.016054882 0.1704328 0.21602796 0.32167327 0.35603255 -0.26219693 -0.11453158 0.057472516
http://www.co-ode.org/ontologies/pizza/pizza.owl#isToppingOf -0.0857722 -0.025320988 -0.41001108 -0.5224168 -0.071482345 -0.23977485 -0.010889914 -0.03357074 -0.06265714 -0.42121556 0.5242844 -0.027199553 -0.1807155 -0.047033094 0.8533241 0.0987584 -0.18454523 0.30400527 0.44223252 -0.27248242 0.56249577 0.07158645 0.070748106 -0.4355371 -0.050239004 0.28503945 0.19914445 -0.20886604 0.32784277 -0.013848078 -0.5183389 0.59163976 -0.40798536 -0.19505757 0.039288957 -0.37875074 0.048352733 -0.45537 0.6419082 -0.27779362 -0.40779337 0.095028155 -0.29618996 -0.05358767 -0.42823914 0.26810315 0.35902658 0.07414776 -0.06388372 0.33028632 -0.3930888 0.32332167 -0.07963581 0.174776 0.21983053 0.16471712 -0.0971116 0.053870413 0.3975428 -0.06063048 -0.0916457 -0.029673003 -0.2354057 0.47638485 0.21619992 0.4610571 -0.13166352 0.08024679 0.4859411 -0.19584195 -0.26899466 0.008577191 -0.39098698 0.24316536 0.20863421 0.20954548 -0.65757215 0.0643618 -0.51123106 -0.011681312 -0.54417074 -0.22103901 -0.2493663 -0.43129358 -0.009998141 0.15786967 0.009833649 -0.35771504 0.13748604 0.10079581 -0.347552 0.314247 0.23394892 0.49570683 0.1212051 0.3848206 0.5390121 -0.34140962 -0.10510975 0.40326878
pizzatopping 0.4965883 -0.6368244 -0.35489765 -0.10027324 0.121354416 -0.06880009 0.08070722 0.58100104 0.2785896 -0.6776733 -0.17560552 0.13275643 -0.30434385 0.20951842 0.17190357 -0.28192872 -0.66736645 0.37204394 0.6521892 -0.34818137 0.9589438 0.39155272 0.049459193 0.39857855 0.30687615 0.28987885 -0.2518207 -0.11843378 0.5141961 0.32703105 0.08324047 0.569663 -0.6530026 0.21180086 -0.14186452 0.32274678 -0.023225645 -0.2091509 0.21768752 0.47047195 -0.23010732 0.008915176 0.13250342 -0.00073650735 -0.41088167 0.12459089 0.6803251 0.0039848387 0.5896328 0.2083789 -0.36394697 0.017016485 -0.10890814 -0.4754447 -0.019351954 0.187974 -0.15617035 -0.20883201 0.3484845 0.17689301 -0.31494218 -0.12558796 -0.07349537 0.39706862 -0.09101893 0.10189573 0.074975535 0.2301819 0.23609236 -0.4086013 0.06302085 0.018266166 -0.14075777 -0.20205404 0.10326149 0.03504735 -0.17923601 0.43409726 -0.12836027 0.029643996 -0.7772705 0.20760122 0.61309266 -0.38247404 -0.3280314 0.27564186 0.096525826 -0.59163284 -0.09620481 0.18595108 -0.16816501 0.22727463 0.010353836 0.12348492 0.21882042 0.6376817 0.20646699 -0.1676724 -0.102155626 0.0045135394
http://www.w3.org/2000/01/rdf-schema#label 0.029793585 -0.14736603 -0.41101602 -0.24449365 -0.0062689553 0.02295961 0.01698752 -0.031001583 -0.22603469 -0.1537644 0.068478 0.17045976 -0.37106034 -0.048727296 0.34236383 0.084214725 -0.21991555 0.011401247 0.35121706 -0.3419499 0.38828456 0.11250626 0.16568303 -0.18049133 -0.18044074 0.29039323 0.029070966 -0.041938037 0.20111382 0.348773 -0.56328446 0.45343703 -0.1579966 0.039449178 0.18674807 0.12627502 0.28893647 -0.27552512 0.36239243 -0.38225704 -0.3096329 0.11069749 -0.23166293 0.023390543 -0.25183085 0.22902642 -0.020433508 -0.08711339 -0.040507037 0.21144386 -0.27234465 -0.15881743 -0.12986986 0.019685691 0.2566522 0.16814137 0.21325348 -0.18679576 0.29875478 0.21603473 -0.07107411 0.040495068 -0.08580762 0.3631302 0.15176429 0.17825684 0.018657768 -0.10960233 0.4213318 -0.2073173 -0.19867674 -0.21190076 -0.17515756 0.2448188 -0.03159793 -0.037617743 -0.6125539 0.034803335 -0.430121 -0.13131881 -0.5544687 -0.22844198 -0.1919825 -0.37175122 -0.044860788 0.20290129 -0.07007759 -0.47691458 0.13783732 0.052327666 0.03609543 0.33698994 0.2545016 0.6512754 0.18847202 0.30158955 0.1910637 -0.09452417 -0.20007867 0.24979879
http://www.w3.org/2004/02/skos/core#prefLabel 0.048255064 -0.16987792 -0.40126213 -0.2541019 0.09037851 0.06631003 0.07653593 0.04705309 -0.22962515 -0.12879899 0.1423143 0.16384934 -0.34728038 -0.041571856 0.38769877 0.026428064 -0.11297365 0.053226404 0.41080302 -0.18093883 0.4190273 0.07410193 0.19567701 -0.15059404 -0.10253969 0.31419063 0.03916034 0.008271434 0.11889036 0.26406994 -0.59675634 0.44401175 -0.23423901 -0.053572677 0.11227198 0.1022737 0.38191393 -0.22443888 0.40125293 -0.3437722 -0.30158377 0.120226115 -0.11962583 -0.010632726 -0.269143 0.20048176 -0.0029783635 -0.122035384 -0.0023461892 0.29317895 -0.17437196 -0.17177787 -0.10675366 -0.033559766 0.29359356 0.2220302 0.096115075 -0.1088236 0.22310106 0.2716426 -0.052790657 0.039308727 -0.030831406 0.37583658 0.13090493 0.1568251 0.03928782 -0.11868452 0.39596736 -0.21204397 -0.18651706 -0.24057117 -0.21319312 0.2065975 0.06571715 -0.018535074 -0.6675713 0.016150583 -0.42846438 -0.21243511 -0.49504915 -0.27374408 -0.22692285 -0.32855344 -0.08903816 0.23144837 -0.026039312 -0.48294976 0.16937338 -0.008818332 0.003714994 0.28769827 0.2518456 0.6830429 0.2676673 0.1853443 0.17045547 -0.08517836 -0.24467443 0.2854044
spiciness 0.3449378 -0.6271265 -0.34700477 0.14678046 0.23679316 -0.3483916 -0.24176595 0.2747773 -0.09062423 -0.72725385 -0.08811115 0.0050524236 -0.44545984 -0.34339955 0.27277908 0.084820986 -0.47194442 0.09839352 0.38869187 -0.7410237 0.6589505 0.07434644 -0.02364045 0.50586516 -0.15906441 0.047742058 -0.003054247 0.430153 0.8910983 0.036692355 -0.0061685513 0.80691963 -0.53855294 0.116191395 -0.26476702 0.6224332 -0.28914872 -0.1936621 0.07293826 0.1253973 -0.17332102 -0.11695964 -0.37372932 0.27180487 -0.4087994 0.64651203 0.36010724 -0.39015967 0.5253854 0.44179365 -0.3144623 0.1133694 0.4765451 0.03229987 0.04935273 0.45111617 0.3185804 0.07961208 0.21107772 0.77751076 -0.5434456 0.04433194 -0.192391 0.14714266 0.17643563 0.009619466 -0.10908155 0.0090539595 0.12918481 -0.42491657 -0.18441881 0.21661247 -0.30279514 0.20058332 -0.009062712 0.12709899 -0.18464667 0.14629251 -0.6556481 0.01743496 -0.243062 -0.13205259 0.5663319 -0.5617743 0.45310488 -0.1116299 -0.16540296 -0.5787024 -0.46134925 -0.055721693 -0.04920912 0.08024278 0.16960967 0.411968 0.6600816 0.81705827 0.39660037 -0.008491927 -0.016682884 0.26984194
http://www.co-ode.org/ontologies/pizza/pizza.owl#PizzaTopping 0.2758736 -0.5469268 -0.3763847 -0.39030203 0.123993605 0.0015021596 0.00156915 0.2460817 0.3322266 -0.43590513 -0.2116246 0.15655175 -0.38613302 0.035542153 0.5446433 -0.029875917 -0.50845814 0.5017771 0.5651004 -0.109386295 0.90305644 0.63805586 0.37885925 -0.08155939 0.21864662 0.5132205 -0.12589285 -0.20705774 0.32322982 0.1989679 -0.29444963 0.40373665 -0.41207287 0.16737026 -0.03861718 0.08474993 0.015466395 -0.31976742 0.43652335 0.28486815 -0.5714396 0.012627113 0.005914292 -0.17421576 -0.026421532 0.32825387 0.33845112 0.13609214 -0.04129754 0.12739514 -0.39289358 -0.014993667 -0.1956274 -0.4456797 0.092222184 0.26926416 -0.3742666 -0.22718138 0.21701314 0.10463419 -0.3540786 -0.105591446 -0.19830228 0.3928882 -0.039876238 0.15658787 0.16704908 -0.07230213 0.0947329 -0.40910783 0.1550454 -0.08558445 -0.066124134 -0.14379936 0.10708229 -0.30345556 -0.43482852 0.3220341 0.028711881 -0.042787872 -0.7247179 0.041262362 0.13269298 -0.5176821 -0.37111464 0.085816 0.3709087 -0.33220053 0.1920605 0.44588393 -0.1254328 0.05556183 0.060568415 0.5976586 0.31860548 0.58740026 0.086056024 0.033808123 -0.32450047 0.2755468
tomatotopping 0.26736394 -0.054310802 -0.33001626 -0.16034615 -0.29134637 -0.54169863 -0.06191632 0.26015314 -0.20936005 -0.32752213 -0.058541473 -0.46023333 -0.31199467 -0.053506747 0.5684486 -0.10061474 -0.17181617 -0.012077767 0.278415 -0.44900012 0.636876 0.03235793 -0.519862 0.10475911 0.26620355 0.27325952 -0.23062508 -0.3452793 0.3498373 0.07742317 -0.09414239 0.64513695 -0.507471 -0.17572044 0.09509565 0.59124005 0.11501843 -0.60399187 0.31520554 -0.36568955 -0.34833568 -0.21429467 -0.07394033 0.29138434 -0.5861308 0.26352692 0.14093998 0.2561679 0.85664916 0.6562943 0.040384836 0.3046398 0.4810472 0.07401329 0.21063562 0.28447586 0.2907747 0.0542328 -0.010404769 0.39859205 0.29371142 0.057504535 0.2675411 0.1578235 0.22118145 0.067839265 -0.55434126 0.33806914 0.17398474 0.16786762 -0.075190894 -0.16458671 -0.40265274 0.34388345 0.15541127 0.50933903 -0.24930482 -0.061533436 -0.62585896 0.45525888 -0.26552287 -0.4066828 0.026599538 -0.30850056 0.6480625 0.21995388 -0.8773889 -0.16769536 -0.3963559 -0.109604925 -0.46492955 0.2563191 0.10363681 0.010168711 -0.19635408 0.25306436 0.7903321 -0.3637042 0.059773035 0.043091647
http://www.co-ode.org/ontologies/pizza/pizza.owl#Pizza 0.12522586 -0.08407016 -0.6538154 -0.41633695 -0.45618305 -0.604532 -0.59376323 0.19310442 -0.34819862 -0.3394662 -0.49872956 -0.11111354 -0.26301956 0.18619965 0.9186874 0.4042591 -0.5133436 -0.1943416 0.34352276 0.13433763 0.014355562 0.2997452 0.21186832 -0.8238386 0.060459793 0.36627212 0.4117365 -0.15039895 0.15904981 0.70490927 -0.77371943 0.48195675 0.03552229 -0.44991368 0.6521904 0.30594486 0.30059227 0.14572288 0.24707237 -0.58461463 -0.3273217 -0.020826902 -0.11505344 0.13630907 -0.19421625 -0.098197125 0.30060923 0.018744297 -0.23521785 0.13320015 -0.1995382 0.5680914 -0.108408995 0.34847414 0.07239781 0.37774158 -0.063274 -0.4059779 -0.4260577 0.13499391 0.22345053 0.22564258 0.07478754 0.12145195 0.029313797 0.27267563 -0.3813918 0.5525657 0.26931456 0.453477 -0.2271767 -0.02826116 -0.39179724 0.19495045 0.19788468 -0.045757245 -0.73835695 -0.5034877 -0.49128348 0.0010049511 0.40324298 -0.40212232 -0.40290076 -0.020893266 -0.06079914 0.30373216 -0.55861914 0.24310923 -0.025269296 -0.13771938 0.06877089 -0.012777854 0.045711465 0.45019484 -0.21416406 -0.30106142 0.45943475 -0.2855684 -0.324821 -0.24580105
mozzarella 0.24889752 0.017059473 -0.12295791 -0.15584856 -0.15731192 -0.5599211 0.13028485 0.112213865 -0.040735155 -0.13321933 -0.022924889 -0.3127796 -0.14836618 -0.15787528 0.34789884 -0.2132638 -0.12959889 0.1813805 0.0696337 -0.35701573 0.20447697 -0.19916026 -0.5595499 -0.08608919 0.2984379 0.10648066 -0.19225736 -0.3507086 0.33264557 0.07165419 -0.15157793 0.6822617 -0.2771403 -0.007961574 0.35274652 0.4160456 0.06579823 -0.4634703 0.093143284 -0.53785855 -0.37322524 -0.14600167 -0.029053375 0.23370305 -0.45478868 0.09355971 0.033616118 0.29573938 0.6619462 0.7868607 0.08455517 0.3302838 0.5493083 -0.0031671617 -0.11410611 0.30688742 0.3553859 -0.06956059 -0.11301371 0.5221845 0.3537776 -0.098774455 0.20989336 0.09941258 0.4470736 0.2080042 -0.6511656 0.5280289 0.28556636 0.12628968 -0.297758 -0.017569702 -0.33263296 0.5907701 -0.036934704 0.66374826 -0.21751666 0.03472101 -0.6508316 0.27625164 -0.32396606 -0.40982762 -0.08544306 -0.31862646 0.55643564 0.2483409 -0.67668486 0.093629815 -0.24217716 -0.3524281 -0.47813308 0.13259901 -0.035725802 0.018274589 -0.31835312 0.028543195 0.64697236 -0.39889812 -0.012244328 0.16237192
some 0.0012290207 -0.17155711 0.05217368 0.21371737 -0.0097022345 0.0943672 -0.2176257 0.14590658 0.0097127585 -0.4117526 -0.039985597 -0.12399625 -0.21272731 -0.12686199 0.65118563 0.55148435 0.04895302 -0.1349535 0.19258653 -0.7399029 -0.0144626 -0.2830038 -0.011070202 0.037284523 -0.16632643 0.099649236 -0.30521291 0.2650755 0.6838102 0.5112305 -0.14548159 0.5051027 -0.1286021 0.05217859 0.5298924 0.28608736 -0.16137327 -0.3303714 0.04945616 -0.4153821 -0.25549135 -0.16050474 -0.36692765 0.21291465 -0.5368508 0.38775045 0.40597942 -0.2693559 0.42287832 0.5417254 -0.31221625 0.57809097 0.3106655 0.09706091 -0.09988913 0.5340111 0.21790943 -0.20961697 0.5402985 0.5889731 -0.43342125 0.46809986 -0.23256657 0.598854 0.28917262 0.20024322 -0.4559058 0.18095067 0.42384872 -0.22461909 -0.25707313 -0.39260072 -0.38136563 0.5340964 0.03534626 0.56186223 -0.2365846 0.21373858 -0.42134905 0.42094576 -0.21707776 -0.14196496 -0.15288857 -0.69431514 0.4216852 0.1343026 -0.06349668 -0.6326699 -0.43086752 0.28811944 -0.035215925 -0.068694115 0.3891021 0.47873336 0.614055 0.843983 0.6698163 -0.16778602 -0.17384762 0.273987
http://www.co-ode.org/ontologies/pizza/pizza.owl#TomatoTopping 0.031610914 0.20182613 -0.3636138 -0.4534984 -0.28765282 -0.5122493 -0.20809041 0.05861698 -0.19031541 -0.011902871 -0.017049363 -0.34912336 -0.32947552 -0.11134119 0.88786775 0.14744954 -0.032730453 0.12000653 0.24605094 -0.17639488 0.5222097 0.18127203 -0.25483054 -0.38537124 0.29668972 0.36104012 -0.067267425 -0.5305657 0.08069331 0.19558538 -0.46507677 0.5540406 -0.23388074 -0.24463242 0.20308901 0.3506232 0.17018388 -0.5876249 0.54302734 -0.5165521 -0.47562048 -0.13681886 -0.11597714 0.20129034 -0.18032473 0.4851691 -0.07430982 0.23093662 0.206851 0.50008523 0.011818956 0.40207636 0.355036 0.12073885 0.38582435 0.42802355 0.17913803 -0.06477894 -0.015102129 0.32845834 0.24607953 0.19592305 0.21058287 0.25940377 0.15889928 0.0599875 -0.41164172 0.11882115 0.21966325 0.2312885 0.045345657 -0.23013824 -0.37890637 0.4308203 0.0860426 0.24689664 -0.533978 -0.28411126 -0.44445038 0.30836016 -0.22656207 -0.44460478 -0.5492989 -0.4180011 0.63937706 0.105284974 -0.7133748 0.015934447 -0.14212297 0.12623927 -0.37630922 0.18206589 0.2845303 0.47253278 -0.11971063 0.21922264 0.698439 -0.120441064 -0.031799804 0.27096358
http://www.co-ode.org/ontologies/pizza/pizza.owl#hasSpiciness 0.09250042 -0.3920715 -0.27494413 -0.13595152 0.10373314 -0.22934985 -0.27418318 -0.03975122 0.010653472 -0.40074745 0.037840676 0.016069278 -0.43795153 -0.43234977 0.5876243 0.27543724 -0.23259118 0.1927507 0.5292975 -0.49552304 0.57808334 0.27641538 0.21703406 0.09734557 0.030025914 0.37252527 0.03372203 0.19583243 0.6217802 0.21652047 -0.40947685 0.568348 -0.26230797 0.08103884 -0.19920902 0.1154745 -0.0957782 -0.5174725 0.36115918 -0.21429469 -0.45938107 -0.0007395032 -0.42638436 0.035961714 -0.08637071 0.90474004 0.061639983 -0.3273324 0.03026738 0.23602252 -0.22979568 0.14763112 0.36579582 -0.023474747 0.3752479 0.5001502 0.3352499 0.0018960661 0.25804955 0.5962761 -0.4902705 0.1871324 -0.24094416 0.37608504 0.23494975 0.139648 0.008462438 -0.15046813 0.42672908 -0.32875097 0.14207703 0.09722724 -0.31601724 0.4434419 0.01480329 0.026282154 -0.37107784 0.19869587 -0.5457696 0.14288352 -0.38691077 -0.27496284 -0.21289352 -0.65622324 0.37982285 -0.17552921 0.12483066 -0.56907594 -0.12932315 0.26139408 -0.016877405 0.05746614 0.35423547 0.7488772 0.7344578 0.63752425 0.39073786 0.18857466 -0.23472744 0.55088246
named 0.057022847 -0.014069333 -0.71301186 -0.35668796 -0.54408604 -0.8552561 -0.6393892 0.37487587 -0.5541035 -0.73989254 -0.15655188 0.0108655635 0.11384114 -0.0013490156 0.6910732 0.36180663 -0.5923795 0.22317453 0.23620398 -0.57811344 0.2869848 -0.24205579 -0.35535914 -0.6506597 -0.48192516 0.41598624 0.13679641 -0.43193942 0.055587016 0.4890525 -0.5190293 1.1815395 -0.49868196 -0.6087565 0.3624997 0.7029556 -0.1361465 0.1864571 0.28364348 -0.33517373 0.05805318 0.2073268 0.038459733 0.31561792 -0.39841172 -0.2899098 0.5525381 0.30409715 0.68773353 0.5177642 -0.0015289383 0.23795994 -0.4354796 0.22601551 0.46606103 0.40049925 0.07531104 -0.23619577 -0.4014654 0.33344293 0.16433096 -0.025669113 0.27055132 -0.10264927 -0.2907625 0.1825654 -0.54643446 0.6871968 0.36986378 0.026834134 -0.3838724 0.25607526 -0.13363172 0.12331749 0.1271864 0.5838196 -0.7744993 -0.16395181 -0.56497234 0.19907129 0.41593212 -0.51945174 0.059252657 -0.19891532 0.3639108 0.07517342 -0.8340246 -0.00530505 -0.32714486 -0.38570967 -0.44156057 0.57618105 -0.07041792 0.37180108 -0.18034391 -0.31309015 0.5074017 -0.6421635 -0.15594551 -0.053466603
http://www.co-ode.org/ontologies/pizza/pizza.owl#MozzarellaTopping 0.116800226 0.05267718 -0.021697288 -0.41343856 -0.21184751 -0.42953247 -0.11326822 -0.004154971 -0.09990367 0.13700132 -0.02504253 -0.30895048 -0.29440007 -0.28444153 0.7784184 0.10254056 0.042026628 0.35468417 0.093720496 0.052974537 0.37465173 0.106707245 -0.23184207 -0.43833548 0.35850653 0.29196894 -0.12405344 -0.4380809 -0.036789678 0.17045347 -0.6763151 0.44715407 -0.049411394 -0.17020342 0.40374476 0.16509631 0.14574713 -0.67363614 0.4341518 -0.6755559 -0.6219203 -0.1453328 -0.029123347 0.07964352 -0.12091292 0.32070968 -0.15198392 0.19618224 0.1965232 0.6238985 -0.00093712215 0.49345407 0.45034218 0.07228073 0.1520668 0.4688907 0.1560299 -0.09169221 -0.039645765 0.39443845 0.32793507 0.026091632 0.06996078 0.18682487 0.36907312 0.14107995 -0.433277 0.16173318 0.23081417 0.30972394 -0.054431677 -0.073576026 -0.46744207 0.66162264 -0.018874964 0.27904138 -0.36309183 -0.14642982 -0.4118339 0.21099532 -0.26739776 -0.5188527 -0.6539297 -0.31849733 0.5549003 0.084587865 -0.57531935 0.13342613 0.01152107 0.05528783 -0.3436053 0.029585354 0.28793353 0.49041086 -0.23397425 3.7147987e-05 0.63098097 -0.20101385 -0.06112557 0.35832796
altlabel 0.16692856 -0.020548278 -0.41374692 -0.400762 -0.25950572 -0.562464 0.17127562 0.36523926 -0.4365014 -0.6380053 0.2345863 -0.022458998 -0.20083494 0.07004857 0.6395896 -0.16930407 -0.2748446 -0.002299361 0.2881335 -0.82047904 0.631165 -0.1778174 -0.39887136 -0.0115602445 -0.2995084 0.49399358 -0.11193268 -0.30045983 0.45093113 0.09465487 -0.21524803 0.82209384 -0.53836715 -0.16118838 0.22763361 0.30001622 0.14767359 -0.22694826 0.5483415 -0.4092311 -0.16111211 -0.018012127 -0.39401832 0.04012131 -0.8211365 -0.04401994 0.20541918 0.22295462 0.6205913 0.6102153 -0.053956106 0.042079613 -0.005533381 0.09138887 0.42925307 -0.1394581 0.022580748 -0.08921297 -0.04156156 0.18000649 0.16683632 -0.008101234 0.12517114 0.46490487 0.13185936 0.34962052 -0.2588651 0.5813539 0.32846138 -0.20611653 -0.40579772 0.0055476115 -0.37022936 0.13514517 0.2238521 0.3998349 -0.47105452 -0.011895962 -0.7149668 0.2030418 -0.30127075 -0.3147186 0.13287136 -0.3646101 0.13059568 0.27807623 -0.47398847 -0.27888665 -0.3009489 -0.0446655 -0.3287826 0.52043074 -0.1335309 0.16015649 -0.019007444 0.06712192 0.6654136 -0.52975124 -0.09076349 0.15790957
SubClassOf 0.256442 0.2546766 -0.07365939 -0.16921559 0.022527004 -0.37275958 -0.0880871 -0.27617532 -0.13009393 0.22481394 0.2096599 0.173784 -0.4113071 -0.083912745 0.14446509 0.0013479424 -0.23934975 0.14393517 0.37702483 -0.29698387 0.51429874 0.032516412 -0.112784386 0.03228341 0.033646505 0.20705466 -0.12508534 -0.1455643 0.4250834 0.46503356 -0.6556198 0.5588938 -0.13119437 0.2788285 0.198578 0.07664898 0.33548632 -0.56253254 0.2922654 -0.5553925 -0.47635788 0.037714947 -0.44301662 0.1898924 -0.1977151 0.6476466 -0.35694867 0.091322474 0.022820095 0.012881057 -0.221623 -0.26553392 0.2196477 -0.054025255 0.27491716 0.007924761 0.7553197 -0.121564224 0.5388896 0.578554 0.022382447 -0.094645 -0.107304975 0.4936125 0.5495784 0.19261768 -0.10940554 -0.08373915 0.5193652 -0.24820927 0.06250757 -0.056721598 -0.2721007 0.626326 -0.43133575 0.0071809045 -0.52172154 -0.06401305 -0.3955265 0.104812354 -0.6261727 -0.5379533 -0.38709572 -0.5578619 0.20995887 0.020474434 -0.15216449 -0.2999753 0.31090954 -0.00031032215 0.0538091 0.4615369 0.35495472 0.5653286 0.108885705 0.545955 0.36944237 0.27937382 -0.16345055 0.32136792
vegetabletopping 0.5083867 -0.5779666 -0.12234669 -0.250581 0.18930098 0.10306792 0.1721865 0.47185037 0.618685 -0.8811244 0.025494376 -0.105939925 -0.229624 -0.3135106 0.44913772 -0.09800619 -0.7349549 0.6312145 0.5778378 -0.4722441 0.7694552 0.39431268 0.32771888 -0.011966959 0.7547557 0.4679274 -0.20398699 -0.23698129 0.556737 -0.3277515 0.11628885 0.90505457 -0.4981238 -0.0138218 0.26120788 0.35892478 -0.3440395 -0.4033395 0.39574364 0.45918804 -0.3946633 0.015433724 0.2693663 0.014241341 -0.44172615 -0.028234268 1.0046048 -0.011303434 0.505874 0.53870136 -0.1631641 -0.19862263 -0.06405185 -0.39153296 0.045145746 -0.0088996645 -0.42308536 -0.22108008 0.2753192 0.53642386 -0.3429654 0.19647756 -0.19876722 0.48463333 0.046419267 0.28737083 0.103393644 0.30353397 0.42483762 -0.13553709 -0.056639407 0.18737651 -0.14385054 -0.10025239 0.08050436 0.3175523 -0.2026522 0.50754714 0.22856319 0.07205053 -0.52473825 -0.007968064 0.5388708 -0.42042723 -0.28306973 0.33590797 0.18001209 -0.41334903 -0.076818764 -0.113951914 -0.18114837 0.106294714 0.070980094 0.0119811 0.5172057 0.33548084 0.13530786 -0.026105348 -0.36492503 0.4450895
or 0.29177245 -0.6185384 -0.14565536 0.23236232 0.44925472 -0.38540876 0.26593444 0.034346648 0.23180099 0.016632985 0.60273224 0.15515271 -0.41279495 -0.055603784 0.28140038 0.040379975 -0.0873921 0.3482753 0.42006212 -0.25247523 0.8054034 0.45020112 -0.08800021 0.10710868 0.30752105 -0.080190316 -0.09905177 0.1631831 0.7044454 -0.08822609 0.050862893 0.6371906 -0.3544565 0.39090165 -0.102036595 -0.38723624 0.09730173 -0.84313506 0.23992516 -0.41287786 -0.54513156 -0.032854896 0.2273516 -0.16397068 -0.62041867 0.07925001 0.18853176 -0.26905233 0.3625825 0.4315558 -0.15574226 0.21567337 0.34392875 -0.37266815 -0.4211914 0.048859905 0.2198307 -0.020361884 0.88007885 0.4872492 -0.1971549 -0.1978713 -0.37208182 0.53402036 0.8678067 0.090071134 -0.49175397 -0.16060522 0.7586 -0.5078296 -0.05452765 -0.3635935 -0.47189248 0.4117408 -0.1351163 0.29800355 -0.15508139 0.35463628 -0.39529723 0.38806516 -1.4751036 -0.4671437 0.35088322 -0.5767626 0.14281811 -0.05130573 0.23563069 -0.5933882 0.004115197 -0.2367043 -0.054261494 -0.046964716 0.31853643 0.12383154 -0.01578248 1.2573061 0.39945763 0.099302776 -0.51161003 0.44219995
pepper 0.5333542 -0.21347179 -0.48811415 -0.031168992 -0.45058176 -0.5480023 -0.12130236 0.4368536 -0.16203766 -0.18371496 -0.4205335 -0.38901508 -0.6494766 0.23648085 0.42813322 0.21133173 -0.43107256 0.96077955 0.70688283 -0.5923997 0.8149038 0.43806407 -0.4813327 0.0066222 0.38277453 -0.18261544 -0.7152771 -0.6895119 0.013144648 0.6798531 -0.08409537 0.29157746 -0.65624046 -0.053166762 -0.1699692 0.5750957 -0.40844885 0.04254161 -0.51718503 0.14476074 -0.030585676 -0.53850317 0.3560409 0.20944035 -0.15494747 0.42772943 0.23489241 -0.00066210655 0.8812822 0.656916 -0.6227042 0.6953938 0.5409053 -0.37836167 -0.0072270837 0.92777497 0.38569713 -0.56872576 0.52789646 0.2980656 -0.33930975 -0.49483424 0.21040532 0.1603182 0.012584308 -0.16376907 0.5714432 -0.17945772 -0.12170129 0.07759088 -0.08893436 0.49466574 -0.06334936 0.3612573 -0.080485016 0.014762786 -0.37954143 -0.08152922 -0.76877576 -0.39405185 -0.95861024 0.10067901 0.362072 -0.63992023 0.18804559 0.2733604 -0.23608373 -0.08438695 -0.49800855 0.56802446 -0.52105016 0.3379465 -0.4118602 0.2598789 -0.04711681 0.6095648 0.48868105 -0.07212191 0.20150541 0.14594603
http://www.co-ode.org/ontologies/pizza/pizza.owl#NamedPizza -0.02652566 -0.014448958 -0.4873417 -0.5193927 -0.52030224 -0.6396351 -0.5571508 0.18583219 -0.36065224 -0.49769136 -0.14872663 -0.07930135 -0.025706863 -0.20820343 1.3260815 0.5189028 -0.21832342 0.23489264 0.22792177 -0.16485469 0.18151972 -0.026861606 -0.025906371 -0.6631332 -0.026948513 0.49245188 0.15987906 -0.35438997 -0.0051376587 0.43233648 -0.91542715 0.7252717 -0.22283347 -0.59039426 0.4977218 0.30662572 -0.02024894 -0.2131207 0.6351909 -0.48313874 -0.4625578 0.03282401 -0.25859517 0.06564727 -0.14610256 0.18643017 0.43197513 0.09528822 0.12956703 0.52608323 -0.15800825 0.73834264 -0.06445424 0.30308986 0.27354178 0.7071855 -0.30519632 -0.03574452 -0.43901944 0.1823032 0.15756437 0.34351355 0.036641683 0.12439076 -0.059000164 0.18099388 -0.36430869 0.39681274 0.12666418 0.3068361 -0.19781612 0.18474694 -0.40501726 0.29233593 0.39454323 0.2137101 -0.6663658 -0.39200857 -0.5426537 0.12177032 0.4114533 -0.26998535 -0.6762814 -0.24456827 0.4537702 0.13485362 -0.7296687 0.13019903 -0.3191595 0.13359728 -0.28451166 0.20068476 0.23382902 0.69616055 -0.0059000608 -0.21895045 0.6037098 -0.5744835 0.0061715813 0.20073666
base 0.57277477 -0.51772815 -0.672882 0.23756827 0.060201786 -0.5741134 0.07047351 0.5340065 -0.2816102 -0.31014806 -0.749072 0.31278437 -0.41032565 0.49630973 0.18112747 0.104232736 -0.42848337 -0.0026474027 0.34338653 -0.024229325 0.21080394 0.47448543 0.096959956 -0.3974874 0.12563588 0.36278206 0.10827485 -0.22692208 0.2927493 0.78812397 -0.04899552 0.6801441 -0.30556288 -0.16259587 0.7374498 1.2806097 0.33933678 0.4812389 -0.43751788 -0.61013013 -0.2638524 -0.04503962 0.3237473 0.21836296 -0.28915718 -0.36284122 0.24423403 0.080575086 0.4394281 0.4271143 -0.0021577831 0.18490152 0.018807968 -0.17895429 -0.30049187 0.30416998 0.24015322 -0.7963699 -0.46372566 0.55403084 0.31110743 -0.09332736 0.2730407 0.008605728 0.17108914 -0.1137401 -0.65579796 0.4689606 0.24866773 0.016374975 -0.7492358 -0.32027596 -0.14792837 0.23313974 -0.114233024 0.020899244 -0.21305268 -0.19966422 -0.5090234 0.027102897 0.1212826 -0.33435002 0.30878714 0.007660795 -0.11788108 0.30099306 -0.3662135 0.18876031 -0.19848666 -0.51713294 -0.01063029 -0.22439505 -0.05545267 -0.0037439493 -0.14990202 -0.21580297 0.2735489 -0.17158496 -0.6647761 -0.3024086
http://www.w3.org/2004/02/skos/core#altLabel 0.04779951 0.03513953 -0.23440354 -0.51941645 -0.30654818 -0.38548842 0.047788948 0.14232588 -0.44683972 -0.3248145 0.33307314 0.038210627 -0.33382416 -0.0804508 0.86395216 0.12577428 -0.1915089 0.17136979 0.2887273 -0.4507253 0.5968944 0.020824553 -0.1452134 -0.31818536 -0.2075547 0.5619887 -0.088597305 -0.3148866 0.159565 0.17555895 -0.67963886 0.5480391 -0.2029293 -0.12707897 0.35649064 -0.07085234 0.22662747 -0.31106704 0.6597332 -0.55842257 -0.37104994 0.103908196 -0.28426707 -0.055169713 -0.47480333 -0.010397442 -0.0038468076 0.11291358 0.16116174 0.53130615 -0.12800656 0.19080283 -0.088695005 0.04193119 0.4965802 -0.027449163 -0.08272977 -0.06565298 0.020903375 0.06727334 0.124273024 0.024052428 -0.09142939 0.50981843 0.17996079 0.32792833 -0.045511015 0.33784166 0.44391465 -0.105334476 -0.2527842 0.02489293 -0.35420746 0.2700575 0.13233614 0.12722167 -0.59373444 -0.18240741 -0.38382182 0.020043226 -0.38675308 -0.42522195 -0.38414592 -0.34536675 0.10889989 0.2695357 -0.33020586 -0.19596513 0.05254202 0.07573309 -0.30343083 0.4325007 0.11462618 0.59880805 0.055086207 -0.01451299 0.54622334 -0.33666626 -0.13514256 0.31349054
olivetopping 0.07456267 0.08528515 -0.064192094 -0.17845447 -0.30162442 -0.6553071 -0.11071551 0.08864712 0.0421424 -0.113597505 0.095782064 -0.6377424 -0.6488045 -0.40415373 0.5560812 -0.17696321 -0.28176868 0.46822706 -0.055581823 -0.2975705 0.50067836 -0.03627269 -0.12821785 -0.040846355 0.43364242 0.3909768 -0.19253987 -0.41503063 0.2322226 -0.09447007 -0.15043409 0.7426923 -0.5354367 -0.17876704 0.32906106 0.31371045 -0.20646617 -0.5499138 0.17533126 -0.32443422 -0.27605394 -0.19594325 0.1903464 0.4615863 -0.82561374 0.17016879 0.36950663 0.1512998 0.82844085 0.89105874 0.21309543 0.104817696 0.44084457 0.0075251926 -0.039934367 0.4755142 -0.10672732 0.029262686 0.09475843 0.7131437 0.21869309 -0.014092671 0.31657198 0.46794045 0.3867199 0.04497082 -0.45829302 0.47667977 0.40701878 0.24776742 -0.49503407 0.18702082 -0.27797747 0.5990422 0.14777637 0.6669057 -0.336286 0.23026583 -0.3708315 0.1972516 -0.13102782 -0.6350398 0.122239836 -0.3893579 0.57413787 0.13428004 -0.81172925 0.009606436 -0.29901195 -0.17930298 -0.41868526 -0.025051108 0.058187626 -0.08391079 0.023074254 0.14836417 0.66768837 0.1346595 -0.14006329 0.41340125
hot 1.0575219 -0.49531883 -0.11794817 -0.0072796266 -0.5051595 -0.58914846 -0.14993848 0.14450146 -0.032797325 -0.22975084 -1.2602932 0.41328672 -0.085875824 -0.008017901 -0.13026975 -0.035559576 -0.7207239 0.5993267 0.6339695 -0.7180914 0.45786697 0.54068166 -0.13631953 -0.26143023 0.23650128 0.21894468 -0.09070148 -0.16760491 0.048807304 0.3946264 0.45315674 0.5881746 -0.5131278 0.2473192 0.40537956 1.0271294 -0.12533845 -0.28911933 -0.5927847 0.23331325 -0.2617824 -0.57468545 0.21338554 0.41184703 0.21260102 0.2963366 0.19713177 0.29279226 0.33985186 0.3835103 -0.7448765 0.64139503 0.26024166 -0.43589056 -0.09701522 0.5375834 0.67930704 -0.24553467 0.12490305 0.33656463 0.0731159 0.05095291 0.093793534 0.19762881 0.031224994 -0.07078023 -0.004714202 -0.17690337 0.2415506 -0.15401122 -0.07985539 0.41909662 -0.11257497 0.23930311 -0.59643185 0.4592442 -0.26099053 0.45398256 -0.36525568 -0.14287084 -1.0729518 0.20573275 -0.08909684 -0.38848454 0.097362764 0.6628555 -0.6520795 -0.29750147 0.004817197 0.23008052 0.21475142 -0.146446 0.02051876 0.3821513 -0.5747096 0.42952454 0.53157383 -0.54929465 0.09437127 -0.20617524
mild 0.5108443 -0.50333524 0.12451247 0.20692588 0.099877 -0.17705941 -0.20743103 0.3190736 0.40486374 -0.5584159 -0.28609058 0.01392583 -0.44593176 -0.5122723 0.14986457 -0.19748911 -0.53010637 0.07443969 0.6554627 -0.33241084 0.8256003 0.22325024 0.022990016 0.79502344 0.62879753 0.43913502 -0.53384733 -0.15322179 0.37615252 0.27536693 -0.06253199 0.538664 -1.0373425 0.42810982 0.20577894 0.5858676 -0.19845234 -0.5799716 0.03432538 0.22545047 -0.68829864 0.19509125 -0.19006051 0.35929197 -0.3395622 0.49859098 0.8156702 0.10657891 0.80170804 0.1935317 -0.26159325 -0.12773596 0.1439421 -0.64974076 -0.109622255 0.27766946 0.21277848 -0.14328998 0.20754501 0.68761575 -0.45696038 -0.23478599 -0.2883637 0.35405833 -0.0022453226 0.027438562 0.011224532 0.17411815 0.3263452 -0.28811127 0.14551349 0.2729393 0.014087337 0.5266168 -0.21103576 0.27755478 -0.2471378 0.5756755 0.1485001 0.110019945 -0.39505032 -0.05653913 0.71187514 -0.26960838 0.09042541 0.1756706 -0.17468517 -0.7952675 -0.18629213 0.3881102 -0.17772566 -0.025259513 0.2607767 0.027967293 0.6203071 0.58025 0.098268114 0.17509943 -0.08020548 -0.14487304
http://www.co-ode.org/ontologies/pizza/pizza.owl#VegetableTopping 0.23609991 -0.45166624 -0.21382305 -0.43827358 0.026500668 0.16708396 0.07959065 0.3271204 0.5679918 -0.5849249 0.037508544 -0.11768447 -0.28874722 -0.40702075 0.82708263 0.20121615 -0.49950552 0.75942266 0.6351863 -0.28208497 0.77647984 0.60103166 0.33041483 -0.35459256 0.71513677 0.6212776 -0.18271865 -0.3591418 0.31239715 -0.30549145 -0.17120685 0.6833758 -0.4015521 -0.028661858 0.112103306 0.03964695 -0.17389865 -0.5644317 0.59708565 0.33190912 -0.7321247 0.02430961 0.18895914 -0.17759094 -0.15051965 0.15828219 0.6736352 0.042647965 0.020698454 0.41731685 -0.33238193 -0.11008885 -0.04870143 -0.42055476 0.18434055 0.11434241 -0.53510684 -0.08862565 0.25008705 0.30638182 -0.4736395 0.13057676 -0.20190416 0.5195427 0.034188565 0.21851718 0.17522702 0.039600465 0.40830123 -0.1347234 0.23674606 0.047419854 -0.16123381 0.032409277 0.15507682 0.024425065 -0.47844803 0.45392305 0.2273358 -0.026310638 -0.6026567 -0.17192471 0.068767056 -0.5357398 -0.25981215 0.15533398 0.3131264 -0.36793497 0.08518461 0.27447975 -0.07689328 -0.01302954 0.13909024 0.4311894 0.5513433 0.35821396 0.09919541 0.08188493 -0.51937175 0.5424754
giardiniera 0.051904775 -0.097939916 0.08221603 -0.018780867 0.04819653 -0.051296085 0.06878741 0.3900497 0.08962849 -0.5238926 0.45386788 0.026320135 -0.584843 -0.18313932 0.115969814 0.016556147 -0.39298928 0.06716939 0.3653313 -0.34472683 1.0000168 0.3172293 -0.108244404 0.3495941 0.9444634 0.7130292 -0.35757956 -0.5931319 0.23811698 -0.20283945 -0.3058365 0.53209 -0.90971446 -0.1046218 0.34975445 0.914007 -0.110185556 -0.5590344 0.16686684 0.015459002 -0.686018 0.13097852 0.21790434 0.3584914 -0.49453697 0.06262317 0.62169075 -0.05430047 0.40903702 0.83004683 0.08334877 0.12992439 0.23956738 -0.50071675 0.29682153 0.074684426 0.12642838 -0.6266777 0.20488627 0.5628782 -0.27519673 -0.07630137 0.1079714 0.33605644 -0.15627225 0.23933959 -0.36286494 0.28113076 0.34453493 -0.2429956 -0.10398006 -0.07849137 -0.2107333 0.34594464 -0.0043604216 -0.2312223 0.010104849 -0.09665111 -0.017150791 0.1369911 -0.3910901 -0.13092838 0.7282082 -0.55589056 0.4025902 0.21466376 -0.46417242 -0.12775542 -0.19564463 -0.39392626 -0.5092045 0.09468532 0.27070865 0.08825218 0.35360748 -0.06244375 0.5614962 -0.037582554 -0.27888742 0.10904835
veneziana 0.5077063 -0.025165917 0.4077333 -0.23237267 -0.093623385 -0.20594555 0.06225244 -0.010158332 0.13979462 -0.109213196 0.105555095 -0.15637296 -0.019650305 -0.04049464 -0.079170406 -0.2810894 -0.5361851 1.0102822 -0.1476459 -0.20340438 0.7198978 -0.16843063 -0.07297354 0.35443398 0.4446501 0.31336007 -0.19987296 -0.27178583 0.19905066 -0.18296096 -0.32967666 0.63423324 -0.32731533 -0.3507618 0.41994166 0.6859955 -0.30879033 -0.6727926 0.22510333 0.36090887 -0.416611 -0.23725533 -0.0049747787 0.22193132 -0.29794878 -0.41685775 0.5607645 0.30505955 0.63472867 0.602111 0.1292886 0.17830987 -0.06133362 -0.25423664 -0.1351092 0.32097676 -0.4050914 0.014725537 -0.028036593 0.8735679 -0.023379195 -0.1174033 0.14368159 0.3524692 0.58616287 0.13367389 -0.47298157 0.44403335 -0.23156898 -0.28281793 -0.416992 0.25678885 -0.57926345 0.26055637 -0.2987661 -0.06486487 0.14976884 0.33911023 -0.084341876 -0.0042526443 -0.40147623 -0.07480993 0.11238958 -0.46185064 -0.056940075 -0.01240762 -0.28476825 0.33323684 0.07979122 -0.48740974 -0.33620372 0.24224184 0.18437864 0.47707906 -0.32560268 0.2473064 0.5011986 -0.21151263 0.07995014 0.32867998
capricciosa 0.14217794 -0.0880631 0.42235377 -0.13360004 -0.39190257 -0.26594442 -0.020713912 0.12845042 0.10345104 -0.353834 0.10174392 -0.35778028 -0.7173728 0.1540767 0.12353173 -0.24840602 -0.52000445 0.7426188 -0.07439974 -0.2128904 0.88455033 0.11101133 -0.030760111 0.36393404 0.43919417 0.73610485 -0.31253305 -0.29200974 0.19729854 0.12929639 -0.5675629 0.4965003 -0.5901015 -0.0982784 0.4458071 0.4494094 -0.37366408 -0.3717421 -0.007997104 0.09169648 -0.266006 -0.058018673 0.059438016 0.5061701 -0.7871999 -0.37456056 0.38465104 0.1910844 0.601782 0.63959104 0.013121737 0.16658586 -0.120014116 -0.1540665 0.0454627 0.2616492 -0.34320593 -0.2734957 0.12556374 0.6628319 -0.02585927 -0.39264908 -0.05626478 0.36671677 0.3200245 0.35334125 -0.502941 0.70007366 0.11474317 -0.5224808 -0.33663335 0.00797542 -0.24347027 0.4259024 -0.21488406 -0.10752072 0.2008672 0.2143627 -0.02079066 0.051798902 -0.2761148 -0.3831187 0.5684035 -0.6547262 -0.015447408 0.0364975 -0.27022594 0.14334764 -0.08182213 -0.16919829 -0.6896224 -0.055440705 0.1413987 0.281888 0.09900499 0.39573133 0.52598906 0.11254547 0.008914092 0.16579464
siciliana 0.10259319 0.14651784 0.30365103 -0.16403513 -0.25368682 -0.37674472 -0.08739136 0.1294843 0.2778932 -0.49548027 0.017043209 -0.4128657 -0.6433856 0.19270675 0.39413062 -0.2516255 -0.5826828 0.59045005 -0.06386549 -0.22168054 0.8021634 0.068079256 0.08650348 0.35326713 0.41147825 0.8590195 -0.2651061 -0.38116723 0.5478492 0.034717925 -0.17670245 0.7070177 -0.6368352 -0.021245401 0.39789036 0.39066327 -0.19902524 -0.24204619 0.04948725 0.037328653 -0.20141193 -0.02151266 -0.11701221 0.48526424 -0.70838296 -0.2773424 0.45407575 0.21112037 0.40866175 0.48750266 0.10195652 0.06879221 -0.13324147 -0.23643284 -0.052161306 -0.0124815 -0.3741594 -0.27619976 0.014419374 0.73134923 -0.023585485 -0.26294655 -0.060499504 0.5855276 0.17699787 0.35429496 -0.52580345 0.958678 0.20271684 -0.5119515 -0.30353394 -0.038761068 -0.19402356 0.5142577 -0.14928263 -0.033555087 -0.034611877 0.36275715 -0.09733823 0.18641919 -0.21537776 -0.4927237 0.45566568 -0.72544897 -0.17658512 -0.017318334 -0.087324075 0.11866497 0.03878599 -0.11102596 -0.55204844 -0.24304639 0.06620359 0.22885916 0.27453348 0.33618718 0.47928494 0.29690644 -0.32947958 0.07192354
country 0.5924456 -0.049356397 0.08275038 0.14179523 -0.1400625 -0.63066506 -0.18776764 0.068351135 -0.6180748 -0.16853742 0.13206422 0.3212163 0.3722458 -0.41945574 0.5485299 0.062101655 -0.28355944 0.787336 0.14422955 -0.19106011 0.13869192 -0.23815408 -0.28040794 0.26661965 0.14169535 0.42165565 0.07361045 0.033768456 0.060853515 -0.20981587 -0.7197606 1.1655113 -0.8938867 -0.5303434 0.071939215 0.8990691 -0.23633589 -0.20022517 0.07890888 -0.35425228 0.20406032 0.07155621 -0.13786256 0.22142608 -0.061941 -0.38440078 0.62324196 -0.37155932 0.74449617 0.56816643 0.24977453 0.29905355 0.3564731 0.105078414 -0.35502478 0.26341176 0.21895969 -0.0817762 -0.3716564 0.69079554 -0.21726131 -0.44101134 0.013392841 0.087860055 0.18576527 -0.027109891 0.030053055 -0.024326084 -0.12074289 0.042013228 -1.0031955 0.46067864 -0.44486237 0.36270186 0.002190578 0.48022664 -0.010590635 0.13122192 -0.90447336 -0.4012671 -0.12127469 0.04394334 0.03975032 -0.21182184 0.07462523 0.1239986 -0.647642 -0.08389323 -0.19654597 -0.2958711 -0.2945031 -0.48615414 0.47760573 0.4399939 -0.33749905 -0.17205547 0.28215522 -0.63048774 0.117147096 -0.0553905
polloadastra 0.5615275 0.20243956 0.06354091 -0.105162516 -0.11784202 -0.24860887 0.21662772 0.22287264 0.00047020803 -0.3484297 -0.09474279 -0.33501604 -0.20917839 0.55493295 0.20359741 0.17607762 -0.42874616 0.8127773 0.783577 -0.57124513 0.9777275 0.13662677 -0.2004986 -0.0401177 0.35518113 0.24362059 -0.56272984 -0.5687242 0.5620043 -0.016005883 0.39876822 0.7040049 -0.52961445 -0.00026320576 0.34532905 0.44156334 -0.14497168 -0.045288127 -0.5808525 0.30245644 -0.07608956 -0.54127663 -0.011157238 0.39476192 -0.12838326 -0.10453479 0.20306197 0.23647952 0.37096816 0.43548292 -0.24084643 0.47456154 0.13633679 -0.51952696 0.030506209 -0.07856336 0.088210806 -0.39703667 0.37985867 0.49540132 -0.30636293 -0.3516207 -0.20673631 0.7327905 -0.10997721 0.1476338 0.07495637 0.3652703 0.12458121 -0.44984582 0.18361244 0.054306947 -0.20962755 0.41103676 -0.32173547 -0.053500213 -0.22975875 0.09189553 -0.27613047 -0.044300273 -0.88505906 -0.183712 0.20199548 -0.9373438 -0.49025947 0.22344209 0.37419567 0.089712 0.029021444 -0.05873139 -0.19854581 -0.05170725 -0.2901294 0.34059387 0.08867722 0.4602928 0.18150215 0.04657029 -0.30011252 -0.14758214
fourseasons 0.23382133 -0.18190065 0.53760993 0.03217705 -0.30538723 -0.13655075 -0.089841105 0.1826157 0.123358205 -0.46444812 0.029056204 -0.23844805 -0.41803607 -0.010114073 0.2074694 -0.033084296 -0.583127 0.78952223 0.010609545 -0.28008065 0.8098168 0.21126321 -0.050337832 0.44250455 0.50009745 0.6450748 -0.3100129 -0.29067764 0.41185576 0.16518459 -0.5630832 0.5568544 -0.42344984 -0.037039157 0.42663953 0.39200667 -0.42642984 -0.5392317 -0.027291473 0.12046775 -0.4286375 -0.18735732 -0.025210781 0.3558955 -0.7203382 -0.37545666 0.44614527 -0.05126332 0.47930107 0.5208925 0.0187375 0.2927884 -0.02865706 -0.20022374 -0.09543545 0.17525908 -0.27439448 -0.3143134 -0.010098374 0.56585664 0.0764212 -0.28515044 -0.12585935 0.33434787 0.29758194 0.4876444 -0.368434 0.5881173 0.20408486 -0.3789427 -0.3039247 0.25272033 -0.26618958 0.51562023 -0.23060437 -0.048819717 0.40323547 0.14316748 0.01884713 0.15932342 -0.3117218 -0.25439295 0.45096287 -0.5484672 -0.068889596 0.04169126 0.028981116 0.16500333 0.006423133 -0.22373736 -0.5561443 -0.008414022 0.26373208 0.32889244 0.0068738093 0.30522013 0.5304726 -0.03416517 -0.11167156 0.15768887
ham 0.38071 -0.4325284 -0.16986753 -0.2752758 -0.31102327 -0.5171099 -0.30055794 0.266441 0.16601288 -0.31640905 -0.66072476 -0.61730903 -0.96130574 -0.016470999 0.5503519 -0.77690154 -0.38183948 0.3205359 0.08738637 0.06777761 0.41629362 0.06170353 0.0147084985 -0.15520397 0.12692837 0.9392306 0.15106581 0.24515319 0.33461964 0.15128697 -0.31972 0.731259 -0.053997707 0.22841923 0.08683356 0.19731398 -0.14688842 -0.21571474 0.13948156 -0.38746247 -0.070311815 0.0021286453 0.35615522 0.7141543 -0.684657 0.22728309 0.026641428 0.4604706 0.5602425 0.73322284 -0.0926896 -0.02000383 0.50410956 0.18353444 -0.0028127055 0.5673791 -0.26715487 0.12017109 -0.25302616 0.7527722 0.07964956 -0.16893378 0.30647647 0.30059856 0.13368645 0.3837717 -0.7979727 0.99102217 0.28806582 -0.2763779 -0.18677004 -0.109727785 -0.2004583 0.17581968 0.046385355 0.81193393 -0.2485029 0.686155 -0.21377091 -0.048887335 -0.13660133 -0.55019635 0.08705569 -0.7538054 0.47379613 0.3164343 -0.4089369 -0.1609967 -0.13585399 0.13015419 -0.43160102 -0.4887765 -0.2034678 -0.096819095 0.37428275 0.47122002 0.46719772 0.25095174 -0.023081038 0.4471065
soho 0.23649155 0.18798016 0.10899006 -0.025824038 0.10177968 -0.46495008 0.06953172 0.14741105 0.27235165 -0.6533716 0.18743177 -0.20416598 -0.22100489 -0.18472672 0.6126147 0.04286619 -0.57470334 0.4258997 0.18651998 -0.3913271 0.6474401 0.10227717 -0.049840048 0.15566854 0.47449094 0.54609686 -0.40450168 -0.55881923 0.76398534 0.041293565 0.11687815 0.83579415 -0.6225596 -0.006899828 0.5296996 0.4819136 -0.17968889 -0.1495151 -0.11257849 -0.13197349 -0.4576306 0.058012765 -0.036136497 0.3651909 -0.24311695 -0.041455526 0.51099885 0.14070272 0.34349075 0.48005852 0.2851777 0.1648177 0.03249871 -0.4185493 -0.103656575 -0.15302047 -0.06772734 -0.36601067 -0.14399156 0.6511436 -0.18225873 -0.049428858 -0.0671685 0.3412021 0.07005386 0.28297973 -0.28208205 0.71520805 0.40080938 -0.46276593 -0.11733667 0.11347751 -0.1443708 0.54252464 -0.09479721 0.15630868 -0.18198167 0.2596902 -0.15255992 0.42719492 -0.292979 -0.33496588 0.22241521 -0.66434044 0.026502475 0.096641995 0.04406701 0.26703507 0.042157013 -0.26184735 -0.49026453 -0.12036957 -0.08558645 0.18597896 0.38008517 0.010298989 0.39445373 0.27046454 -0.6736259 0.14082173
http://www.co-ode.org/ontologies/pizza/pizza.owl#Mild 0.34093773 -0.37275285 0.20854892 -0.09758875 0.070081934 0.03340198 -0.34706107 0.19289367 0.49913695 -0.38808864 -0.31682223 0.14402819 -0.4228758 -0.7087674 0.54905534 0.14167728 -0.391167 0.21206148 0.6328433 -0.1576374 0.7038104 0.29390702 0.30692473 0.35401058 0.6346062 0.66382104 -0.39197597 -0.3322861 0.19215843 0.21970683 -0.45751652 0.3723919 -0.8148952 0.46373445 0.3975903 0.48676562 -0.056007132 -0.76765394 0.33112657 0.13020939 -0.93352866 0.326657 -0.16936345 0.15183797 0.17153043 0.6440452 0.6047471 0.26706496 0.27010748 0.07058639 -0.30907 -0.110955134 -0.026246233 -0.5126845 -0.06385991 0.4323833 -0.053959247 -0.18643378 0.14356041 0.5233574 -0.5467904 -0.06773594 -0.3140422 0.39434728 -0.12215038 0.031289093 0.21433881 0.0028713953 0.21341367 -0.2868113 0.3359034 0.12652332 0.0928331 0.42336306 -0.16332 0.055143904 -0.40997615 0.5784974 0.3777332 0.069303684 -0.3990073 0.07119485 0.09564352 -0.310775 0.120113455 0.24416044 -0.057320178 -0.5974585 0.060525212 0.63962764 -0.1698307 -0.12470028 0.41864753 0.47929364 0.58315736 0.39830625 0.100318104 0.20297833 -0.19633171 0.11672109
cheese 0.37189472 -0.67497045 -0.40906626 0.12767865 0.5595458 -0.4236111 0.16267946 0.3465298 0.16377711 -1.0283121 -0.2166746 -0.15056174 0.09642123 -0.47627598 0.6781148 -0.24313182 -0.5310928 0.316733 0.47142336 0.19978313 0.9385022 0.50996786 0.3907073 0.56034386 0.5580911 -0.0072276993 -0.15960176 0.07036534 0.546712 0.20892681 -0.064009696 0.16571647 -0.53633046 0.26452675 0.25403145 0.11654094 -0.32705992 -0.48568773 0.03161802 -0.017464446 -0.9302188 0.053449117 0.23127611 0.029664652 -0.17096995 -0.0008691622 0.81883043 0.09697283 0.49516624 0.1531448 0.2830778 0.31593683 -0.1291496 -0.3764486 -0.4450915 0.14730838 -0.41779393 -0.3446688 -0.43518627 0.20332873 -0.1727177 -0.23170355 -0.0945315 -0.2453463 0.036405608 0.096022286 -0.40654495 0.35439664 0.17588669 -0.04916328 -0.06728808 0.2531961 -0.18766697 0.24961239 0.59295624 0.21373913 -0.25895134 0.53330255 -0.2260901 0.33108607 -0.42835912 0.18578003 0.2451557 -0.12995215 -0.32667062 0.28051656 0.1155277 -0.24966367 -0.12000455 0.0125595955 -0.24864784 -0.36224833 -0.142108 -0.23220783 0.05554126 0.2230404 0.43260735 0.04548579 -0.60997134 -0.2724752
fiorentina 0.17241582 0.2765576 0.10269133 -0.052620802 0.05837227 -0.4282094 0.08712806 0.117896244 0.25320688 -0.614671 0.206666 -0.2672552 -0.23666202 -0.2387563 0.64705217 -0.009849358 -0.5842367 0.41313198 0.1819714 -0.37260857 0.685763 0.06548806 -0.030843904 0.18342963 0.5171967 0.56607 -0.4682637 -0.5754986 0.68843925 -0.04106318 0.0914512 0.80304676 -0.7273902 0.025633335 0.5278324 0.4442107 -0.10468767 -0.20411494 -0.09826256 -0.11291596 -0.51617044 0.076926336 -0.025264759 0.38874966 -0.28260222 0.018289736 0.5059883 0.21978927 0.38712114 0.50626236 0.3054541 0.13538986 0.018975195 -0.43931958 -0.064087726 -0.2010587 -0.058103073 -0.3613539 -0.12824628 0.619349 -0.18634355 -0.08313504 -0.02105238 0.39083624 0.030932285 0.28641897 -0.26139978 0.7436892 0.4185901 -0.41402376 -0.1379553 0.14082679 -0.09288046 0.6212793 -0.013721732 0.19155242 -0.2476025 0.28588718 -0.11245073 0.37878233 -0.3194485 -0.37176752 0.24211633 -0.6123936 0.012193559 0.17328852 -0.0013887323 0.22219057 0.07650155 -0.24752705 -0.52231073 -0.12018796 -0.05402073 0.1384797 0.3376408 -0.06745034 0.46483487 0.27965122 -0.66701883 0.13568483
http://www.co-ode.org/ontologies/pizza/pizza.owl#OliveTopping -0.05442617 0.080939636 -0.03821246 -0.4135837 -0.31718376 -0.53154624 -0.29930934 -0.07525996 -0.028058015 0.15988885 0.16464032 -0.58492285 -0.77351385 -0.3595757 0.84439623 0.08651114 -0.114200056 0.6218328 0.07860854 0.05123128 0.5309436 0.33968744 0.09817893 -0.36021614 0.4560266 0.57268304 -0.027462749 -0.4511475 0.008980652 0.006405829 -0.611276 0.58232653 -0.32764345 -0.31239888 0.33221412 0.08243556 -0.06236095 -0.74056387 0.4919337 -0.46768945 -0.49699563 -0.15625551 0.10472025 0.26323456 -0.5493151 0.32374355 0.14225739 0.05280392 0.26856112 0.6470459 0.19192995 0.14848672 0.36020932 0.042522196 0.09037633 0.5544257 -0.20146717 0.024966162 0.20723696 0.5816932 0.23779935 0.035060216 0.15154614 0.51412725 0.44915408 0.06572153 -0.4513153 0.24212813 0.3363402 0.2830097 -0.23108657 0.020484317 -0.29093024 0.65934056 0.0020921496 0.23514263 -0.48217732 -0.057266016 -0.16215156 0.20757283 -0.030918222 -0.83539087 -0.34350395 -0.34579036 0.40709814 -0.108594455 -0.5750027 0.0634166 -0.008845699 0.057367068 -0.33473432 -0.07800685 0.309763 0.35860106 0.036628213 0.2526332 0.57027555 0.32832465 -0.21480162 0.61167586
napoletana 0.089698926 -0.04358399 0.6028282 0.040000584 -0.31733608 -0.23279044 -0.03987674 0.11152472 0.2088593 -0.32947892 0.1120746 -0.2676419 -0.2520125 -0.0639251 0.23887883 -0.094374105 -0.49062866 0.7950423 -0.17956702 -0.15606208 0.5765585 -0.09145052 -0.14175634 0.5201135 0.5228279 0.5792639 -0.29280296 -0.46811414 0.08138718 0.080390364 -0.52812994 0.62003976 -0.5639263 -0.34834123 0.40146878 0.53045404 -0.21618257 -0.5134704 0.19719627 0.005409982 -0.3330955 -0.16602519 0.014656138 0.20567118 -0.68751 -0.61143905 0.5970647 -0.021918992 0.56068665 0.6852684 0.2618312 0.22223882 -0.12899335 -0.25800607 -0.18071775 0.33999318 -0.34918758 -0.20818868 -0.23999457 0.8487811 0.24643572 -0.25627 -0.015927898 0.24460228 0.4309926 0.35516655 -0.38168296 0.653367 0.053891618 -0.29380628 -0.4824996 0.24016458 -0.3266809 0.6654888 -0.2309163 0.05489317 0.18641113 0.21400087 -0.17349984 0.15123056 -0.16875415 -0.3453305 0.38001963 -0.40628347 0.08400138 -0.04328695 -0.27623317 0.3419767 -0.10685467 -0.36392078 -0.6101414 -0.047948446 0.28475872 0.43936297 -0.13164966 -0.009290402 0.4525653 -0.09504963 -0.13649909 0.14102586
cajun 0.36255434 0.11267099 -0.06577563 -0.21189721 -0.22184183 -0.30339512 0.07503377 0.12084339 0.026030255 -0.2656333 0.024307575 0.0144274365 -0.3303157 0.4907183 -0.23339413 -0.16142286 -0.46737218 0.51812476 0.13817918 -0.5895288 0.93000835 0.11271333 -0.07802908 0.1427719 0.24653298 0.32974768 -0.22229227 -0.57911116 0.35215786 0.02561821 -0.0018924152 0.6444549 -0.48500896 -0.19466753 0.29827937 0.708403 -0.3651365 -0.33451536 0.12325208 0.5489139 -0.30852762 -0.21272352 -0.20761368 0.16690774 -0.3391651 -0.09305918 0.46872774 0.45117578 0.30923724 0.31925783 -0.21420608 0.30350542 -0.21119979 -0.23570971 0.23416239 0.19981545 -0.07234954 -0.4134901 0.3553626 0.6533277 -0.16898777 0.020495791 0.040137704 0.5891547 0.3418079 0.034419615 -0.41089946 0.33489642 -0.14828908 -0.630463 -0.14097953 -0.24704164 -0.49125162 0.05503963 -0.3321665 -0.33464375 -0.069894224 0.08657614 -0.10283809 0.14219502 -0.7355712 -0.0139149 0.47697788 -0.75694764 0.095589444 0.050545305 -0.2924726 0.09815425 -0.095483005 -0.13121168 -0.31278327 0.2261692 0.06231635 0.36711377 -0.14281873 0.840869 0.5758502 -0.15330754 0.042327374 0.09319005
americanhot 0.55704737 -0.23660935 0.33684584 0.17366429 -0.26930696 -0.2373517 0.11875682 0.17215176 -0.16696566 -0.567653 -0.27531275 0.06284434 -0.07166486 0.092182755 0.13848317 0.20121278 -0.4747538 0.87428164 0.40907246 -0.51266694 0.72060096 0.25235626 -0.4539446 0.3763605 0.44195738 0.28353968 -0.6576575 -0.44897345 0.17660747 0.3950062 -0.3033108 0.43026438 -0.54351914 0.06624795 0.23546356 0.86746335 -0.3981258 -0.23087074 -0.53849375 0.043156575 -0.3429559 -0.5357608 -0.05616179 0.35938126 -0.18113379 -0.16612895 0.10900629 -0.059066407 0.35698727 0.64861935 -0.27937979 0.78008246 0.17588198 -0.33904615 0.14602241 0.42577383 0.4104501 -0.6035334 -0.06484252 0.35191968 0.02988251 -0.4535475 -0.0921733 -0.08451282 -0.08180009 0.46938482 0.25829154 -0.037417237 -0.025662322 -0.43534136 -0.18435283 0.5160207 -0.17098 0.5540943 -0.34589744 -0.1610712 0.4715363 0.010825259 -0.53491557 -0.31156355 -0.8639669 0.21429619 0.2768393 -0.7768225 0.0911522 0.39654207 0.17396289 0.23092215 -0.039592452 -0.006803564 -0.5762167 0.049119588 0.07686768 0.5636837 -0.14100072 0.060150415 0.5560645 -0.37536675 0.07930844 -0.037047304
lareine 0.1883973 -0.16064884 0.33719513 -0.09741707 -0.12338036 -0.26639777 -0.060591355 0.141842 0.18204072 -0.4345498 0.17072104 -0.14497952 -0.48948577 -0.110325195 0.2328478 -0.16986221 -0.40218553 0.42283595 0.037743524 -0.12839717 0.77550393 0.057718303 -0.024939664 0.23531543 0.6345382 0.88389516 -0.24407317 -0.22864813 0.3797524 -0.027296826 -0.39257154 0.5468232 -0.58221155 0.1594507 0.53970695 0.56034493 -0.26800275 -0.47837037 -0.12748703 -0.076175585 -0.54856545 0.1491222 0.13050933 0.5944982 -0.5287558 -0.29944673 0.33836922 0.22609003 0.4715409 0.677653 0.117092036 0.15514503 -0.00483193 -0.21627127 0.015945133 0.12123284 -0.25952947 -0.2369982 -0.044872444 0.6196024 -0.11928174 -0.2769271 0.013776234 0.29261857 0.14109546 0.39623487 -0.68138593 0.7477647 0.3793212 -0.5373378 -0.1891014 0.053602476 -0.19715112 0.45320073 -0.16322629 0.046575103 0.2289251 0.3963931 -0.0028779681 0.11052634 -0.3227189 -0.24685591 0.41139647 -0.65348047 0.120687 0.19462638 -0.21267511 0.11351246 -0.019048864 -0.3449679 -0.569161 -0.14575642 0.15529574 0.14601123 0.17780507 0.18309174 0.50356215 0.085740246 -0.20811464 0.19394605
garlictopping 0.23039708 0.29800445 -0.27343968 -0.338649 -0.22701271 -0.89383364 -0.20344475 0.23345613 0.2028781 -0.18130133 -0.31287572 -0.7127568 -0.5648053 0.025658758 0.7191167 -0.16781142 -0.37775785 0.3497283 0.13398118 -0.44602 0.4028608 0.0480853 -0.20271058 -0.19091529 0.24437377 0.250839 -0.15999833 -0.6502195 0.6459782 0.1222702 0.4207325 0.96233034 -0.44359404 -0.0071266233 0.30632043 0.29819176 -0.034094222 -0.120972544 0.03831193 -0.20407286 0.093753725 -0.35745478 -0.077319816 0.4994979 -0.6195154 0.22592482 0.21560243 0.25903583 0.55255425 0.38380942 0.08551085 0.124653086 0.35219252 -0.038376916 -0.09813719 0.2570149 0.07910815 -0.14953873 0.10376921 0.7547552 0.12757698 -0.0046227626 0.2913682 0.7043064 0.3095336 -0.03554335 -0.29531693 0.68437433 0.3296705 0.003195581 -0.15407875 -0.0625215 -0.1292827 0.49966475 -0.06703928 0.59088653 -0.61048955 0.023301944 -0.40564752 0.32899594 -0.21118295 -0.7912008 0.20270821 -0.5232932 0.2108467 0.07837166 -0.41546246 0.04019833 -0.26891726 0.15443724 -0.18418457 -0.1670928 -0.31266844 0.07800624 0.105019726 0.4965084 0.48934165 0.51444423 -0.47337133 0.1548277
food 0.94022435 -0.08499589 -0.626146 -0.06571316 0.049801078 -0.42554316 -0.2817542 0.7656933 0.041451853 -0.46665493 -0.8774168 0.6485862 -0.02544442 0.53750664 -0.071403965 -0.34360412 -0.4215213 0.3884007 0.6298285 0.36297366 0.37497002 0.44210202 0.53517926 0.081312574 0.5245127 0.18225612 0.06073699 -0.21956149 0.055829044 0.31813794 -0.40012407 0.7491735 -0.9285287 -0.049884994 0.24056196 1.4343818 0.19495703 0.49745837 -0.1141007 0.38186917 -0.22160164 0.047653023 0.032220498 0.004331721 0.3396262 -0.17921937 0.80068153 0.5616655 0.4357027 0.20662725 -0.17009078 0.2723357 -0.109181814 -0.4389669 0.016780784 0.66781664 -0.035531547 -0.9206944 -0.35599494 0.6509231 0.33633098 -0.25383127 0.40410742 0.07925288 -0.5466169 -0.0549143 -0.41713202 0.3295494 -0.18831116 0.23318264 -0.7264877 0.058211446 -0.095341064 -0.1476234 0.26631528 -0.20241529 -0.45057085 -0.004575314 -0.42786476 -0.69052136 -0.23229735 0.29325488 0.36929253 -0.07313667 -0.36018565 0.5022366 -0.28233445 -0.13301538 0.024129134 -0.36809632 -0.06945928 -0.21899195 -0.12924351 0.23412865 -0.041920014 -0.10176536 0.40675172 -0.51527494 -0.23236126 -0.2469648
tomato 0.2881569 -0.614828 0.09471753 -0.25333872 -0.10804289 -0.33889246 -0.55140233 0.50464374 0.3731145 -0.26906982 -0.20587552 0.12532708 -0.6183627 -0.61436933 -0.10396047 0.07122 -0.10020453 -0.23514646 0.013876652 0.06516201 0.93468094 0.48817238 0.34047294 0.22999182 0.56028545 0.68660635 -0.3154078 -0.51920533 0.11640539 -0.5360146 0.06972496 0.60897803 -0.898315 -0.07047299 0.016131788 0.80460024 0.1817693 -0.6775795 0.3998344 -0.2999892 -0.84246355 -0.45463228 0.17798692 0.010304384 -0.3221105 0.29727006 0.91658396 -0.12722167 0.45972577 0.9187917 -0.0003520625 0.16585645 0.29775402 -0.18196407 0.43152875 0.65887773 0.0050586583 -0.7259566 0.3820595 0.9791995 0.40155995 0.24839756 0.0026628291 0.5655107 -0.49129635 -0.121670835 -0.64618486 -0.11590197 -0.11929552 0.49807876 -0.17605539 -0.068550244 -0.6401565 0.78968936 0.28787422 -0.1235264 -0.41184893 0.57675177 -0.2206613 0.059094574 -0.61218095 0.042695135 0.88626105 -0.56411046 0.7219018 -0.1685913 -0.86689836 -0.50784093 -0.09299004 -0.14203563 0.11496092 -0.1584788 0.40366736 -0.13771388 0.096571006 -0.11399147 0.6343469 -0.63708514 -0.3024515 0.3493277
http://www.co-ode.org/ontologies/pizza/pizza.owl#Veneziana 0.24506837 -0.022298425 0.43633333 -0.41169962 -0.066236384 0.099235296 0.12594874 -0.08925032 0.2580507 0.01100821 0.06069347 -0.17837104 -0.13343109 -0.05455707 0.22109479 -0.026996475 -0.35267115 1.1645603 0.017411876 -0.07124702 0.69023716 0.1124015 0.07457326 0.07977217 0.4877908 0.4964512 -0.24744388 -0.38186115 -0.04155998 -0.17490369 -0.6609395 0.46284539 -0.21270567 -0.39450595 0.3555505 0.46203426 -0.16086847 -0.7700574 0.4422819 0.2651259 -0.5906925 -0.32017168 -0.046731066 -0.006496874 -0.1743793 -0.27429956 0.33588278 0.17986313 0.05893746 0.54791844 -0.050388254 0.1745101 -0.082538866 -0.3202161 -0.05031381 0.36848634 -0.51312876 0.00059403986 0.14321102 0.6590507 -0.0764525 -0.12484054 0.0154098 0.42933768 0.51822495 0.21182258 -0.35530442 0.14624248 -0.19127473 -0.36105546 -0.16195697 -0.020494398 -0.49846548 0.28847045 -0.26298794 -0.3632252 0.0077749435 0.20612617 0.03160097 -0.004906608 -0.48764968 -0.19839968 -0.17717353 -0.638254 -0.15927029 -0.18045236 0.04599205 0.27185923 0.29690045 -0.13713928 -0.23117994 0.086421795 0.2881523 0.87071514 -0.11328071 0.2978532 0.32315588 -0.05178943 -0.05062668 0.4665797
sloppy 0.7926336 -0.2852396 -0.10511639 -0.4480408 -0.15201415 -0.4974784 0.13911846 0.05531317 -0.2792932 -0.2001202 -0.5907177 0.3299826 -0.006518604 0.40274677 0.40875664 0.14789754 -0.38743103 0.38156247 -0.049343213 -0.6158284 0.99161255 0.12470061 -0.3001432 -0.34923565 -0.03142751 0.48074177 -0.373772 -0.26240262 0.6486692 0.13311957 0.026615959 1.0172318 -0.40602636 0.073293075 0.31754354 1.377639 0.20532326 -0.3136279 -0.14402714 -0.031629015 -0.48369947 -0.499787 0.09557029 0.2823432 0.3791493 -0.112109974 0.040982544 0.6327702 0.42989576 0.5903351 0.056497872 0.5330846 0.0030222184 -0.06476917 0.38599464 -0.014079853 -0.13201907 -0.24964531 -0.44596386 0.8834037 -0.102451324 0.15886989 0.074520245 0.15482748 0.17147855 0.15568127 -0.63013434 -0.09756075 -0.29275888 -0.8422645 -0.029065432 -0.077223636 -0.68569815 0.14204761 -0.42309558 -0.07345053 0.18158664 0.40146104 -0.3840322 0.21588154 -0.95409024 0.66828775 -0.18962567 -0.95603967 0.34865546 0.29785654 -0.18861991 0.58340114 0.013214558 -0.3223072 -0.11459344 0.18238848 -0.044555616 0.6265428 -0.5615729 0.59428144 0.802963 -0.61796665 0.17640209 0.4018982
giuseppe 0.57704884 -0.14250503 -0.20278442 -0.40082046 -0.2287774 -0.53315 -0.27597034 0.11430133 0.29392886 -0.17128067 -0.22648466 0.4601945 0.16263595 0.527588 -0.23904903 0.201944 -0.5520929 0.34941754 0.45201832 -0.7543217 0.40641305 0.21386325 -0.49168614 -0.0992302 0.5643152 0.6130453 0.07522269 -0.6674122 0.43719068 -0.040289935 0.12836589 0.5371325 -0.42850032 -0.13086514 0.2411476 1.382243 -0.3457239 -0.6885464 0.040487163 0.32215145 -0.6819504 -0.16294582 -0.58896846 0.1251109 0.28755438 -0.28739887 0.3650681 0.58041596 -0.010219333 0.53985226 -0.37030292 0.7477339 0.10454092 -0.35972086 0.097977184 0.70184565 0.42313585 -0.5726866 0.12965818 0.27557614 -0.29463255 0.26778468 0.13438265 0.32402495 0.07369939 0.2865507 -0.76149184 0.5329343 -0.22888026 -0.4388444 -0.093335405 -0.01938685 -0.48843816 0.08711384 -0.5485451 -0.33593842 0.13876215 -0.0075951596 -0.5082781 -0.11600336 -1.0612267 0.3092055 -0.15933278 -1.00412 0.13735466 0.26455635 -0.42949024 0.39989883 0.12759061 -0.4848063 -0.28957093 0.38881868 0.13873886 0.52701205 -0.49749684 0.65121114 0.79501367 -0.70838046 0.2569222 0.10704149
prince -0.091330916 0.02079698 -0.47625095 0.20780389 0.35213622 -0.78873515 0.13132145 0.1595197 -0.06868282 -0.5586381 0.15364394 0.31209934 0.28181857 -0.41047123 0.9068158 0.20418966 -0.5864724 0.18749852 0.5280183 -0.5838317 0.8105929 0.25115433 -0.30655286 0.3842046 0.86621827 0.8058241 -0.25217682 -0.71212804 0.5322798 -0.09732328 0.18396546 1.0534729 -0.5041534 0.109449655 0.47723755 1.1541189 -0.22039497 -0.31630015 -0.16817674 -0.40561458 -0.9778768 0.23207363 0.29883316 0.4026798 0.35089076 0.36761174 0.09658863 0.045944635 0.16162959 0.8523877 0.5398991 0.38119838 0.057055242 -0.53004014 -0.03182979 -0.13534419 0.19943528 -0.9171273 -0.5808386 0.5244974 -0.12236251 0.13418646 0.24391253 -0.014480531 -0.15711457 0.16189033 -0.20710732 0.65739405 0.4888437 -0.538887 0.1150541 0.22228609 -0.046414603 0.3794813 0.40472904 0.35160965 -0.31759468 -0.17356063 -0.21007665 0.03903905 -0.8201209 0.1532447 0.007665009 -0.52384156 0.6361586 0.21446471 -0.10152604 0.35226294 -0.34332967 -0.20962557 -0.3611301 -0.024566587 -0.02224646 0.15041044 0.42968425 -0.44304416 0.594864 -0.025201319 -0.897848 0.124512
carlo 0.5572223 0.23457572 -0.06321838 -0.19974604 0.47480842 -0.8267535 0.024405735 0.47178409 0.5663656 -0.71047664 0.20672967 0.24830541 0.31644648 -0.32084534 0.5141203 0.13860643 -0.22353068 0.07338775 0.65854114 -0.07018592 0.5189154 0.07552448 -0.5598088 -0.2773609 0.9941069 0.1309169 -0.22116986 -0.7387405 0.49312034 0.26677287 -0.08324303 0.8405631 -1.0045848 0.12952171 0.18209724 0.6037991 0.24622644 -0.13001214 -0.08200297 -0.34680414 -0.630449 0.08232144 0.12543067 0.14138179 0.24526569 0.28710282 0.8305134 0.4116351 -0.10968762 0.59705156 0.35380247 0.49599335 0.24912235 -0.85384625 0.060798444 -0.084237635 0.34532914 -0.48081318 -0.67151815 0.7230816 -0.20293859 -0.12203816 0.11911882 0.11879202 -0.5246874 0.57645726 -0.74510884 0.30858192 0.3774101 -0.31314868 0.17602158 0.06226194 -0.06713675 0.82266515 -0.2726837 0.39629513 -0.58379793 0.23420037 -0.28599504 0.4697747 -0.3960923 0.3664623 0.12662838 -1.0722225 0.68301356 0.38214862 -0.0018878179 0.36516577 0.1900165 -0.64514107 -0.66390646 -0.23884206 -0.22075331 0.1491732 0.056415047 -0.22595556 0.6583495 3.207561e-05 -0.6960065 0.06713359
http://www.co-ode.org/ontologies/pizza/pizza.owl#Giardiniera 0.0044145146 -0.07052723 0.1876412 -0.21947475 0.16051868 0.14268221 0.08134236 0.24070202 0.18630102 -0.3933892 0.34936345 -0.0124878315 -0.52519304 -0.2789731 0.4795487 0.17339185 -0.2678886 0.3929204 0.45636642 -0.15568009 1.0118366 0.45320162 0.084783785 0.1978755 0.9088119 0.76515085 -0.42314193 -0.56912804 0.07649906 -0.021929497 -0.63754857 0.3303785 -0.6383935 -0.0899155 0.3727582 0.61887544 -0.056026783 -0.7064843 0.41937903 -0.0020850594 -0.8112682 0.061045203 0.053218957 0.21785405 -0.15906245 0.36869156 0.33145848 0.0037340822 0.04263718 0.5771416 -0.06685326 0.15847616 0.1414204 -0.44948483 0.36061433 0.2036657 -0.043342676 -0.49872002 0.2770005 0.48409277 -0.37485263 -0.026537856 -0.08000566 0.33674648 -0.10206464 0.23652142 -0.13746658 -0.04325076 0.22152324 -0.35134146 0.2034666 -0.21997048 -0.2104904 0.38014963 -0.039365288 -0.36586058 -0.07249019 -0.01897877 0.07670705 0.20589542 -0.42859894 -0.13041702 0.13795738 -0.7551015 0.25428838 0.046019133 -0.109191336 -0.1252925 0.0057166032 0.13653527 -0.4641276 0.019289967 0.39547336 0.5504449 0.49977297 0.1290317 0.45259282 0.17969476 -0.3012937 0.33575436
parmense 0.19602056 -0.14135045 0.10736671 -0.043520216 0.15168113 -0.5762702 0.050351985 0.11914451 0.27544764 -0.6035842 0.16630928 -0.036189053 -0.19343603 -0.17680529 0.46222615 -0.24965122 -0.3720266 0.32187527 0.24931684 -0.007722618 0.7164001 -0.020911073 -0.06814095 0.28179047 0.59084976 0.69635403 -0.16124867 -0.24762917 0.43668064 0.09290736 -0.22204858 0.5822801 -0.6799147 0.3043319 0.36140928 0.39763266 -0.20173761 -0.19479047 -0.19790468 -0.26764044 -0.5372342 0.24295266 -0.018841514 0.4933327 -0.26922184 -0.076923706 0.3624152 0.28887 0.2901817 0.48161358 0.21492097 0.13627572 -0.07178357 -0.31289348 -0.10034985 0.0564967 -0.15673614 -0.19450933 -0.296862 0.52406037 -0.1166902 -0.35509992 0.0065195807 0.04343772 -0.024899738 0.41849625 -0.52559406 0.6550995 0.3855892 -0.7114532 -0.08336437 0.2255728 -0.07588293 0.50217485 -0.009845363 0.2454141 -0.06307337 0.5392684 -0.15449364 0.03739137 -0.34820738 -0.15724249 0.2932856 -0.6416636 0.1502476 0.25435752 -0.009230699 0.12105206 0.06424652 -0.18032865 -0.6102911 -0.25525448 -0.022919608 0.0597308 0.34032455 0.031913824 0.3881472 0.1738707 -0.40963656 0.12689266
vegetarianpizza2 0.06999326 0.14655563 -0.5722938 -0.1466155 0.48051038 -0.49963418 0.2741312 0.095520206 0.06246625 -0.33469298 -0.038255632 -0.23449029 0.023838146 -0.06491523 0.18625867 -0.57147056 -0.73414814 1.0484291 0.04841796 0.38719767 1.0689332 0.30125833 0.45573613 -0.00030973394 0.43180135 -0.07674833 -0.061363637 -0.20719483 0.5163312 -0.07476742 -0.05294434 0.70123965 -0.5806578 0.1053837 0.043633 0.3692733 -0.3717719 0.17469361 -0.10109858 0.40156782 -0.39602497 0.03984298 0.50023633 0.21747844 -0.1559663 0.21696149 0.33142063 0.29015902 0.17493373 0.21054015 0.0042643556 -0.16199525 -0.06408705 -0.46909901 -0.4481492 0.09751222 -0.21354221 -0.51726764 0.040300302 0.35417435 0.043035276 -0.7445114 0.29124236 -0.054626714 0.18933469 -0.103341036 -0.33718428 0.15305376 -0.10982267 -0.07671752 -0.6607438 0.030483343 0.081272036 0.008489058 0.43376714 -0.0091410065 -0.6676413 0.23065354 -0.37814078 -0.20835939 -0.41795632 -0.31430063 0.7467242 -0.3929082 -0.4751544 -0.048998512 -0.0013971278 0.08409607 0.2238596 -0.27215865 -0.3528719 -0.15079898 -0.101355545 0.07818597 -0.14374456 0.3465674 0.21825622 0.63659835 -0.6624736 -0.053830482
oniontopping 0.5026693 -0.022885542 -0.43568707 -0.49029234 -0.3529671 -0.6844667 -0.052293006 0.13334467 0.019189375 0.23916544 -0.22139364 -0.36236256 -0.29131523 0.20844373 0.02296369 -0.08145825 -0.2888664 0.6674862 0.113415465 -0.49375167 0.6289707 -0.079671994 -0.15886064 -0.3688075 0.2158933 0.10895112 0.005312868 -0.4289565 0.33927846 -0.24876106 0.28748694 0.9054367 -0.312215 -0.19364308 0.21972816 0.6449997 -0.19191308 -0.5777181 0.14626871 0.2546384 -0.19252007 -0.51601726 0.047211185 0.24330604 -0.19201732 0.12697895 0.3452183 0.52313113 0.7481576 0.67277324 -0.14659587 0.22730385 0.2460943 -0.0061241817 -0.0017836897 0.75449854 -0.20317887 0.22279306 0.2926067 0.68505204 0.028176319 0.31386393 0.3922202 0.60798526 0.5073767 -0.35239276 -0.5672632 0.08458029 -0.20573565 0.12099753 -0.23650393 -0.043091748 -0.5038093 0.08438478 -0.13867451 0.2720964 -0.4028429 0.20612028 -0.35292846 -0.06557714 -0.61857814 -0.17184974 -0.186365 -0.54156125 0.28069657 0.0625759 -0.80361307 0.18882091 -0.27293074 -0.23719217 -0.009989804 0.41270956 -0.044840306 0.1837453 -0.48188362 0.7886735 0.59416944 -0.2931516 0.26402503 0.4211343
caper 0.06512785 0.0784403 0.07875716 -0.07559892 -0.43958026 -0.5629006 -0.18479282 -0.0099591045 -0.017852498 0.07712593 -0.101662 -0.60913914 -0.6016414 -0.19956008 0.2281666 -0.2274148 -0.36869973 0.92362356 -0.22097565 -0.04650689 0.5968347 -0.027865982 -0.032300476 0.06350097 0.38436857 0.30135623 -0.1373754 -0.29189798 0.017873298 0.07513827 -0.43938142 0.63873225 -0.37095332 -0.27825946 0.17648628 0.26916438 -0.35502297 -0.5047691 0.115883306 -0.12056352 -0.13465224 -0.32996714 0.23482335 0.42277572 -0.829076 -0.024852294 0.2659929 0.091179095 0.80272424 0.720797 0.090375766 -0.019764869 0.22828688 0.09917448 -0.12793143 0.62478244 -0.1808448 0.05053122 0.15989484 0.6618622 0.37507772 -0.22901694 0.3393235 0.35660893 0.47213647 -0.00559073 -0.3842625 0.3391408 0.2231078 0.26741514 -0.6003576 0.28025636 -0.26658285 0.5629386 0.04026615 0.47675398 -0.18407278 0.2877573 -0.40523183 -0.040136147 -0.1290706 -0.62697494 0.1417169 -0.34802893 0.34450853 0.025573174 -0.78338873 0.06446474 -0.19582577 -0.18618786 -0.34246147 0.048676766 0.25669557 0.035712454 -0.23328835 0.2898991 0.6048785 0.18572672 0.07760166 0.27552298
parmezantopping 0.21574199 0.18118696 -0.44696924 -0.1245459 0.2539414 -0.82435894 -0.06961118 0.2800533 0.23671195 -0.4428951 -0.0053278618 -0.44673106 -0.22632036 -0.52258784 0.78809375 -0.19678445 -0.2293274 0.1823838 0.17231174 -0.023619223 0.53562164 -0.0007645948 -0.12498505 -0.0622564 0.52098566 0.2359292 -0.12534548 -0.427443 0.64377093 0.17495888 -0.009571469 0.9239195 -0.5512955 0.2613708 0.3040253 0.33909568 -0.016112166 -0.18141563 -0.12620547 -0.62785494 -0.47544536 0.07322844 0.18478326 0.5144264 -0.117880166 0.69824266 0.27358314 0.3295698 0.45702446 0.5569186 0.3521982 -0.0037298577 0.38798332 -0.26363164 -0.22064807 0.06747626 0.21098463 -0.20965117 -0.29918393 0.64299935 0.1971263 -0.17485708 0.2867277 0.16522402 -0.086437486 0.07227092 -0.61482716 0.5353511 0.43022373 -0.007357826 -0.12292718 -0.039430674 -0.042659324 0.69579583 0.31602022 0.81438094 -0.68061 0.274935 -0.36939797 0.3761815 -0.10258191 -0.36408028 0.102266274 -0.5237965 0.60548145 0.14073801 -0.3834139 -0.04472666 -0.08653883 -0.06586588 -0.50421435 -0.2910539 -0.24443614 -0.20890571 0.2524093 -0.03407394 0.46153247 0.3019484 -0.6125588 0.15081942
mushroomtopping 0.11041794 -0.06585153 -0.24637778 -0.13121815 -0.33474487 -0.47539574 -0.18683095 0.14679605 -0.034606364 -0.12538692 0.06972997 -0.43101597 -0.71864957 -0.29717886 0.35699546 -0.21478322 -0.25399536 0.19753183 0.10972577 -0.15591869 0.5433977 0.2119228 -0.033245858 -0.21270786 0.50709105 0.47813234 -0.14586109 -0.40641055 0.1785625 -0.03982246 -0.38354173 0.6722466 -0.42287344 -0.08483938 0.3476997 0.34387675 -0.117979765 -0.5697599 0.033022225 -0.34735358 -0.3281081 -0.099653 0.44277212 0.52153176 -0.8127356 0.19416231 0.23016231 0.16387725 0.75749767 0.82902473 0.13190067 -0.046350468 0.45693293 0.045858443 0.11281016 0.364759 0.040339265 -0.26867977 0.26526445 0.5176611 0.2442086 -0.09076441 0.25470966 0.37396505 0.15855238 0.14221434 -0.63106304 0.4763282 0.5696862 0.37998855 -0.40548542 0.086764075 -0.14258263 0.45919964 0.11655388 0.43785286 -0.20218989 0.12836279 -0.31050068 0.18697354 -0.1979933 -0.4617546 0.31442058 -0.45419243 0.5583853 0.1391924 -0.825656 -0.08963016 -0.3656746 -0.4084732 -0.37710944 0.06535908 0.05232973 -0.21786493 -0.05751826 0.051480155 0.6279754 -0.009697613 -0.19327986 0.31008503
seafood 0.007201931 0.07940501 -0.1646531 0.09673852 -0.45345792 -0.41007888 -0.5976869 0.4998673 0.6144296 -0.38308215 -0.66152936 -0.2361154 -0.4101191 0.32316855 0.1586253 -0.30759326 -0.3549776 0.3371793 -0.0678649 -0.18414809 0.64900786 0.0823631 0.34073985 0.45833334 0.33933577 0.28990212 0.005512083 -0.8383419 0.22655608 0.3184422 0.11138766 1.0300658 -0.5384912 -0.10810329 -0.15937959 0.21564065 -0.3437837 -0.17051832 0.5193571 0.5934277 0.056793835 -0.27196127 -0.14755446 -0.07007283 -0.688422 0.11486384 0.6746597 0.19922699 0.35757315 -0.12897626 0.004306261 -0.033234835 -0.30858263 -0.26658925 -0.13709068 0.69766873 -0.41434088 -0.55823493 0.025451269 1.0693543 0.48732972 -0.031010048 0.1651594 0.86375666 0.08935232 -0.22999863 -0.14362495 0.5935283 -0.022735134 -0.056393944 -0.07206974 -0.18788542 -0.12840776 0.3530588 -0.088794015 0.024423938 -0.72440356 0.36087132 -0.19763258 -0.011105829 -0.3830089 -0.23141806 0.6912799 -0.5197883 0.2625349 -0.2537202 -0.17356876 -0.36544895 -0.3373688 0.54418606 -0.18891142 -0.52474827 0.20122425 0.2782213 0.05843316 1.0096917 0.24506345 0.32662413 -0.47307944 -0.23087618
http://www.co-ode.org/ontologies/pizza/pizza.owl#CheeseTopping 0.14017266 -0.58794487 -0.377599 -0.1331538 0.37155473 -0.1623392 0.0064189313 0.18988305 0.171114 -0.73340327 -0.19579478 -0.06633812 -0.07225807 -0.41281268 0.8923322 0.025993036 -0.27318007 0.29877767 0.49873844 0.32276088 0.7843113 0.62941897 0.5442966 0.17837492 0.48603767 0.1432997 -0.12643106 -0.033349622 0.2414445 0.17940344 -0.40616223 -0.0078508435 -0.33380583 0.1440808 0.27777606 -0.011117958 -0.12676004 -0.5783898 0.35296655 -0.10075275 -1.0221292 0.047172904 0.05829775 -0.10024312 -0.0028657892 0.24030598 0.5997338 0.056696553 -0.00095541665 0.022022597 0.013781032 0.2996524 -0.23320167 -0.36041847 -0.23253147 0.30337313 -0.46676153 -0.3200009 -0.2417862 0.15479305 -0.27141848 -0.12921266 -0.18373147 -0.109205805 0.035908293 0.10686564 -0.22481538 0.015706498 0.05713946 -0.029384308 0.11141445 0.08802606 -0.11824419 0.17900985 0.43696833 -0.14629538 -0.4512349 0.3487456 0.0032946991 0.17575757 -0.29486448 -0.019968959 -0.08741552 -0.18331738 -0.37110275 0.112036414 0.23471828 -0.27528915 0.06541422 0.30312866 -0.16199379 -0.32527602 0.050237935 0.374481 0.2003826 0.27067178 0.27842942 0.110769175 -0.5877447 -0.07435824
http://www.co-ode.org/ontologies/pizza/pizza.owl#FourSeasons 0.012503306 -0.11350401 0.5138639 -0.20388505 -0.17816253 -0.02553759 -0.015873393 0.040862612 0.15777354 -0.24037951 0.1254014 -0.21031363 -0.5140349 -0.097723134 0.5116711 0.15089975 -0.33517247 0.9487506 0.11293618 -0.08735297 0.80454516 0.36474708 0.060715917 0.22040185 0.6077446 0.7631767 -0.30884123 -0.45784932 0.06821969 0.05043121 -0.79178905 0.37207055 -0.43667573 -0.14879951 0.45788574 0.36431584 -0.24462539 -0.6522466 0.31111547 -0.044098943 -0.5709977 -0.16556326 -0.09166027 0.120531745 -0.45605293 -0.13488345 0.24358952 -0.047280245 0.05262236 0.5583503 -0.063490756 0.26559007 -0.006378977 -0.2953006 -0.0071801026 0.27517623 -0.36319208 -0.28411022 0.13075668 0.49834058 0.0072424533 -0.2828634 -0.20354958 0.40279648 0.30219677 0.40128207 -0.2951709 0.23723708 0.045696914 -0.38726148 -0.18245138 -0.01539722 -0.20796299 0.5222136 -0.26813054 -0.30777735 0.1543266 -0.0076784804 0.094038896 0.12150579 -0.22892334 -0.35284638 0.09716376 -0.6020766 -0.036869615 -0.17703919 0.0844707 0.16098303 0.13849719 0.063407235 -0.50138456 -0.14708811 0.36601985 0.6324314 0.15883888 0.2515657 0.4121511 0.15143718 -0.20965979 0.31105158
caprina 0.087138005 -0.29951197 0.041898604 -0.0032457197 0.010025279 -0.01772469 -0.16538575 0.36035094 0.016421769 -0.5204322 0.141653 0.0024599652 -0.24905865 -0.15059376 -0.010868078 -0.034077086 -0.3734748 -0.2885308 0.14077084 0.13114014 1.0200607 0.21933547 0.10965912 0.7090728 0.64634395 0.5125249 -0.31218827 -0.39534932 0.09534899 -0.11440603 -0.45865735 0.22553027 -0.85819703 -0.18847047 0.23865439 1.1222105 0.21920659 -0.7963074 0.23478317 -0.0687585 -0.86121416 0.08052476 0.037001822 0.26849267 -0.27642217 -0.15260622 0.6111211 0.07369961 0.4026627 0.51686543 0.24083987 0.31103623 -0.057630554 -0.31491762 0.25943044 0.33582193 -0.0057225935 -0.60498273 -0.08234929 0.6024394 0.11426899 -0.14850348 0.052249774 -0.011976231 -0.30931926 0.050894488 -0.6188709 0.20686853 0.017915554 0.041519977 -0.09410284 -0.25426745 -0.47070676 0.37344506 0.25696722 -0.45494375 0.041250385 0.09614205 -0.26343906 0.24199243 -0.40538314 0.13790432 0.53774303 -0.36348963 0.29176116 0.1379759 -0.734599 -0.11073084 -0.08113657 -0.4762641 -0.44836986 0.015327999 0.47499096 0.23688674 -0.080880426 -0.199251 0.6026309 -0.4059329 -0.16002326 -0.27620208
http://www.co-ode.org/ontologies/pizza/pizza.owl#Siciliana -0.014565369 0.03928335 0.4240745 -0.23229504 -0.04271359 -0.033295296 -0.059817962 0.064034216 0.2993669 -0.21312301 0.04509773 -0.2578071 -0.58191925 0.013192123 0.57878023 0.016096124 -0.3498132 0.7347428 0.07373702 0.05014364 0.68951786 0.27417317 0.25578824 0.07558971 0.49089375 0.7418773 -0.30102026 -0.36017 0.18741041 0.13260828 -0.63780487 0.3892386 -0.3642826 -0.123392306 0.56211036 0.26066077 -0.086761676 -0.41167772 0.34856713 -0.07204984 -0.4567579 -0.077951014 -0.1397471 0.19635251 -0.43022242 -0.095095634 0.2227052 0.07825389 0.0029403875 0.4141185 -0.040000904 0.17546004 -0.13461897 -0.30565175 0.071723044 0.19915338 -0.41659737 -0.33545572 0.14666466 0.577604 -0.118703574 -0.15828133 -0.21304297 0.48667243 0.24896608 0.39261916 -0.36534703 0.48159468 0.1295257 -0.43338212 -0.05626033 -0.16570704 -0.17477404 0.51052004 -0.1684883 -0.30028844 -0.056270394 0.19988197 0.07587896 0.11792479 -0.18083668 -0.50094384 0.007161115 -0.71375066 -0.24816245 -0.10368826 0.1310407 0.09929561 0.17350842 0.11591276 -0.353593 -0.3250917 0.25854608 0.66952175 0.36838615 0.26866093 0.37701696 0.33323213 -0.3896976 0.2129152
http://www.co-ode.org/ontologies/pizza/pizza.owl#PolloAdAstra 0.21382295 0.19713505 0.07442858 -0.259223 0.0010172199 -0.06916471 0.1090261 0.045186047 0.080137655 -0.23602556 -0.09647081 -0.10438633 -0.33361486 0.3065326 0.4888175 0.22145253 -0.29080656 0.74910086 0.57040626 -0.28734532 0.78169274 0.3515397 0.06979161 -0.12898842 0.34061274 0.42184603 -0.42848974 -0.4525802 0.33231893 0.12675004 -0.22982375 0.47247458 -0.35549453 0.015291226 0.36082742 0.40022638 -0.01930152 -0.24469464 -0.0123861 0.08633214 -0.35253868 -0.31272948 -0.24957454 0.1876323 0.08225112 0.26061442 0.042246692 0.13411254 -0.16981016 0.24086632 -0.28647095 0.4208973 0.008690302 -0.3895288 0.21934292 0.075859845 -0.014046481 -0.40088686 0.34149027 0.309464 -0.28467178 -0.16250676 -0.26411402 0.5288756 -0.113066375 0.22306673 0.038365718 0.05799293 0.06302955 -0.49151754 0.2776634 -0.13268706 -0.1381899 0.41387257 -0.21858369 -0.35819295 -0.26458797 0.05574865 -0.13413265 -0.04340041 -0.64301044 -0.17092516 -0.20836724 -0.8908066 -0.3470045 0.035542402 0.3626726 0.050152697 0.2487907 0.22450736 -0.23981363 -0.13824639 0.06445127 0.73476607 0.26287293 0.4132552 0.2487852 0.15762028 -0.3256807 0.09714737
american 0.480648 -0.2853403 0.36873838 0.05885214 -0.22270328 -0.3897427 -0.11408103 0.07348063 -0.10430498 -0.34130612 -0.11331049 -0.0011479814 -0.03898221 0.002835398 0.17459378 0.01598593 -0.35426632 0.63740796 0.16649096 -0.24335906 0.5597569 0.10166094 -0.37040168 0.2586382 0.3102437 0.33772603 -0.28100246 -0.24655457 0.16433597 0.19825938 -0.5611559 0.5459493 -0.34278005 -0.11573343 0.29971763 0.5063692 -0.3211477 -0.51880485 -0.30157113 -0.13924384 -0.34089765 -0.29311556 -0.06233196 0.41377467 -0.35208735 -0.320155 0.1785547 -0.020771293 0.4365745 0.6091154 -0.01221757 0.7019031 0.033413865 -0.1336616 -0.1010001 0.43591473 0.057262875 -0.2976234 -0.27828786 0.42669055 0.20681989 -0.36281666 -0.043819584 -0.08553953 0.059657663 0.49010623 -0.18955462 0.25263828 0.10343683 -0.34727937 -0.15370558 0.42860952 -0.3245148 0.502773 -0.17468445 0.0927278 0.511798 0.08042138 -0.33799872 -0.04615052 -0.58037746 0.04365371 0.15797623 -0.54515356 0.2080804 0.25597894 -0.0055413228 0.3200244 0.014022201 -0.34329814 -0.6068385 0.036263213 0.1352263 0.49593255 -0.34742948 0.027635463 0.49150625 -0.48837435 0.089418605 0.051394492
meat 0.6940424 -0.8503847 -0.21847641 -0.25544152 -0.15144758 -0.46875924 -0.36048213 0.27987656 0.056799278 -0.50040066 -0.8656505 0.2165986 -0.6950834 0.46298525 -0.0288536 -0.3570411 -0.6131591 0.34415358 0.26193523 -0.4394099 0.68897164 0.4866782 0.24594279 -0.0374746 -0.11241942 0.63312364 0.037266124 0.24309209 0.65331167 0.43646783 -0.107332274 0.60697734 -0.17387363 0.47924972 0.20336568 0.49286973 -0.23234373 -0.29221988 -0.4433269 0.10663371 -0.15548013 -0.1538741 -0.07341233 0.6825094 -0.2326508 -0.13071685 0.13327782 0.11739424 0.28730735 0.24685599 -0.4892832 0.53063047 -0.1526292 -0.15219152 -0.19010942 0.435487 -0.31056663 -0.16011119 0.017256312 0.16007584 -0.23303775 -0.13167359 0.16042818 0.3515548 -0.3226107 0.30837646 -0.47322616 0.5385148 0.31539553 -0.72375613 0.039446756 0.18243387 -0.101417765 -0.04606821 -0.12827823 0.023492737 0.40856096 0.64771223 -0.008540604 -0.29052755 -0.88381493 0.12326203 0.22191334 -0.632955 -0.30798832 0.408665 0.12733015 -0.105873264 0.12308939 0.08290154 -0.08614345 -0.18626958 -0.14730114 0.39947498 -0.02772387 0.7104201 0.359433 -0.31115556 -0.013432582 0.13116826
http://www.co-ode.org/ontologies/pizza/pizza.owl#Cajun 0.28725478 0.02048821 0.06710526 -0.3622019 0.044775985 -0.16113791 0.0943962 0.025404893 0.17948766 0.03290096 -0.019120354 0.07098188 -0.24623007 0.30593458 0.08010196 -0.01756884 -0.24510284 0.7373231 0.27349004 -0.21873021 0.81702495 0.37592772 0.037433583 -0.13335986 0.38806635 0.46563366 -0.20253196 -0.6018558 0.06536158 -0.028795825 -0.2786751 0.44044453 -0.26957223 -0.22025393 0.30473182 0.505408 -0.12068619 -0.5923407 0.320061 0.25232852 -0.5325299 -0.24231243 -0.1162388 0.02785023 0.009561428 -0.036260758 0.1886552 0.3741641 -0.13998683 0.24640882 -0.13647607 0.28387824 -0.17685936 -0.4230465 0.14659768 0.25256932 -0.24003235 -0.3546712 0.30430585 0.514915 -0.15782535 -0.023948407 -0.0062019154 0.49108562 0.2574061 0.13822916 -0.32706282 0.052949224 -0.10031592 -0.54863834 0.1590182 -0.286366 -0.37795845 0.10691458 -0.32304066 -0.45220208 -0.12768376 0.06013905 0.05996774 0.08697228 -0.7854081 -0.07761958 -0.06797165 -0.77621853 -0.07850624 -0.109595455 0.101096645 0.15794872 0.25089005 0.034998473 -0.16765343 0.04396705 0.13622461 0.6658181 -0.10027346 0.6573765 0.35105908 0.016147751 -0.15784712 0.33255783
http://www.co-ode.org/ontologies/pizza/pizza.owl#Capricciosa 0.028959667 -0.069868326 0.44728372 -0.27735212 -0.15424149 -0.06555162 -0.047860373 0.01393634 0.2210785 -0.11839268 0.10381579 -0.2067835 -0.5958132 0.016142325 0.53490853 0.10201735 -0.34340093 0.9038604 0.12380987 0.0058408924 0.80231667 0.35839674 0.1385009 0.08838366 0.55276996 0.7876782 -0.3028346 -0.4171891 0.038941815 0.14912859 -0.85039634 0.33791417 -0.3534972 -0.14419115 0.51171225 0.30140197 -0.14815633 -0.6178296 0.35983813 -0.06973412 -0.5735619 -0.11563895 -0.12366915 0.16533506 -0.3760284 -0.07867276 0.19292504 0.04547559 0.0071838507 0.4723046 -0.10578785 0.24819762 -0.07395905 -0.30847326 0.032594476 0.2790997 -0.38441974 -0.2518951 0.22937652 0.5232682 -0.0962949 -0.19531022 -0.2188969 0.485434 0.34624103 0.36350447 -0.3965315 0.2821885 0.06654706 -0.4599136 -0.036319688 -0.12972239 -0.22846322 0.49131873 -0.24841575 -0.393132 0.034366854 0.04840548 0.14117531 0.10531593 -0.30587438 -0.4072782 -0.030163163 -0.7121243 -0.10350937 -0.1911204 0.051615912 0.15555692 0.18894534 0.14841886 -0.39978158 -0.16602872 0.31192905 0.7147841 0.23522687 0.3671961 0.37684137 0.22727333 -0.24222983 0.31394723
comment -0.0004236337 -0.020487435 -0.5424651 -0.057623353 -0.08090566 -0.3339365 -0.022609327 0.06339245 -0.16225296 -0.5358779 -0.11883143 -0.06316616 0.3037494 -0.14155735 0.19541661 -0.35319313 -0.60959065 -0.19828656 0.25344372 -0.2825244 0.27743754 -0.40097323 0.097279355 0.23047349 -0.12788443 -0.27439195 -0.1113918 0.0029650305 0.2583912 0.18797049 -0.7203554 0.79760796 -0.20784593 -0.054659583 0.42132923 0.12532191 0.06794494 -0.2324909 0.20071062 -0.15756412 -0.44072008 -0.010130937 -0.301215 0.079643324 -0.6769006 0.018026264 0.4229502 0.123436086 0.17861727 0.2985666 -0.12268798 -0.084389284 -0.23941629 -0.03516801 -0.09880537 0.21100044 -0.071653694 -0.37088445 -0.3555552 0.5266198 -0.005774903 -0.23969615 0.13012762 -0.10138058 0.057636466 0.40500966 0.07618133 0.34796584 0.0708024 0.0049769017 -0.36022106 0.33955497 -0.15652032 0.08002876 0.49692616 0.2842036 -0.75459105 -0.06116936 -0.44723752 -0.33234572 -0.25205484 0.06204252 0.4597704 -0.30353045 -0.15534417 0.49439585 -0.29695052 0.067981556 -0.30840114 -0.32095703 -0.060194764 0.49682912 -0.33559465 0.3647518 0.01797223 -0.06495556 0.06619996 -0.3705235 -0.033790402 -0.20500387
anchoviestopping 0.054298397 0.19283573 0.15477091 -0.08187707 -0.5121372 -0.6555367 -0.3448538 0.1353089 0.22443196 -0.1020931 -0.41673765 -0.5924239 -0.68616635 0.14717607 0.46300727 -0.38115856 -0.43212214 0.88031113 -0.18213485 0.109859355 0.5191636 0.249024 -0.11402344 0.1811368 0.43155834 0.4707915 -0.037991755 -0.3426675 0.008174141 0.2317158 -0.34501985 0.6407644 -0.3872433 -0.35786295 0.03982358 0.12501293 -0.123731166 -0.20222586 0.42881304 -0.085257985 0.054158725 -0.3354623 -0.0032149055 0.3169846 -1.0160158 -0.26571625 0.38292703 -0.07676503 0.52747774 0.3480896 -0.019940363 0.012393115 0.14378315 0.21600181 -0.15975603 0.41296002 -0.13659082 -0.020561453 -0.004998367 0.6725912 0.5875872 -0.20758365 0.25933725 0.44177106 0.39083603 0.128514 -0.53015614 0.7200713 0.31206578 0.05931966 -0.5440456 0.16804273 -0.24295951 0.5874205 -0.017653327 0.35776594 -0.11066634 0.23954546 -0.4439406 0.10154771 0.0916153 -0.8718632 0.36789912 -0.2420403 0.17510645 -0.11094169 -0.683459 -0.00051037996 -0.19916424 -0.07698084 -0.23760012 -0.22957072 0.30333933 0.09094783 -0.19237043 0.44939873 0.5291097 0.4260036 -0.0030895048 0.046106774
http://www.co-ode.org/ontologies/pizza/pizza.owl#Fiorentina -0.013539902 0.112542965 0.27557105 -0.13752422 0.13461097 -0.14691491 0.025466533 0.019592782 0.29235056 -0.3407688 0.25238717 -0.14092658 -0.27769113 -0.23294076 0.7304571 0.15520664 -0.35344195 0.5809911 0.23665017 0.028174117 0.6955429 0.26398778 0.09989207 0.07990874 0.6393314 0.6344083 -0.37411782 -0.41328079 0.30286077 0.0026717847 -0.48242 0.48868838 -0.4874608 -0.050900362 0.47714117 0.29865846 -0.045863725 -0.4794854 0.25233862 -0.20445359 -0.7440725 0.016132995 -0.10665856 0.16071482 -0.125536 0.07093022 0.32336453 0.05504703 -0.075776465 0.3899279 0.15498787 0.24945465 -0.008693585 -0.4190794 0.0022101244 0.014991072 -0.24274437 -0.278946 -0.018677821 0.5431467 -0.2457473 -0.08482039 -0.17850067 0.26649803 0.09965832 0.2876702 -0.32252342 0.29905558 0.21352465 -0.42802066 0.080980144 -0.070714355 -0.18710546 0.586127 -0.07784219 -0.21237361 -0.12645416 0.23862657 -0.02567081 0.2940026 -0.27242294 -0.35972834 -0.1112199 -0.690498 -0.047923863 -0.07028526 0.1293697 0.19733065 0.19216485 -0.025913164 -0.38214615 -0.28263482 0.2822428 0.54242414 0.35667488 0.05049072 0.3728731 0.25758684 -0.56141466 0.21932225
http://www.co-ode.org/ontologies/pizza/pizza.owl#Soho -0.01738545 0.099540286 0.22848551 -0.21423785 0.15224399 -0.20733488 0.069222294 0.054157343 0.27901155 -0.3538659 0.26595196 -0.16040261 -0.34098437 -0.24692062 0.7748683 0.1222793 -0.35330656 0.6492622 0.24653308 0.0028555274 0.7262024 0.33506495 0.11452449 0.016527424 0.6068429 0.6369394 -0.31704864 -0.49072966 0.27695158 -0.019287743 -0.44670767 0.47538236 -0.48636597 -0.10645672 0.4964648 0.24994439 -0.06324231 -0.4683172 0.29558274 -0.22822446 -0.7140388 -0.0007015405 -0.09638534 0.13127337 -0.17144252 0.08209892 0.30421954 0.098072216 -0.08112629 0.42736688 0.14257935 0.25512406 -0.018693684 -0.43992242 0.0044746813 0.036376268 -0.30986235 -0.313281 -0.018444257 0.47374013 -0.18141833 -0.13086723 -0.15231697 0.30975136 0.12295318 0.306909 -0.27922997 0.353118 0.23263125 -0.38678876 0.030275552 -0.05732204 -0.18884802 0.5258612 -0.061309 -0.19024348 -0.1407633 0.19516125 -0.024687108 0.3051747 -0.26850203 -0.37761477 -0.1236383 -0.639991 -0.070948064 -0.08469784 0.16754219 0.20688386 0.19944553 -0.010087878 -0.43837914 -0.27189872 0.20235527 0.5466182 0.34226933 0.00051543646 0.3681032 0.27142403 -0.57774425 0.2667011
peperonisausagetopping 0.56229603 -0.30358437 0.06936857 0.05339875 -0.4129931 -0.47697282 -0.3077201 0.016135741 -0.1846944 -0.059603296 -0.7077819 -0.26563737 -0.4767247 -0.08322462 0.15568306 -0.34666717 -0.23207481 0.67460364 0.16758667 -0.2972441 0.2926984 0.1168196 -0.4301155 -0.16326483 0.093118094 0.282663 -0.14958918 -0.054652575 0.034731805 0.32014048 -0.49746633 0.5808286 -0.1187538 -0.13927905 0.054535456 0.42855728 -0.30367672 -0.44024235 -0.21871829 -0.23696288 -0.007141828 -0.4957868 0.06898196 0.5161168 -0.6715815 0.1873395 -0.12906903 0.051310994 0.68325657 0.6980297 -0.37723985 0.41724837 0.49129 0.16716269 -0.20114353 0.7301807 0.3252257 -0.08910452 -0.014000402 0.37226856 0.37476176 -0.30906197 0.3041779 -0.014867928 0.07641441 0.33024016 -0.18768309 0.19959615 0.3038335 0.101800025 -0.18815516 0.3539311 -0.1702665 0.4586906 -0.071217105 0.61142874 0.25303158 0.29423174 -0.5314726 -0.049001012 -0.34419578 -0.32425877 -0.06315842 -0.4730148 0.45946756 0.40614423 -0.48497653 -0.040004462 -0.1120819 0.024570474 -0.41082808 -0.078878775 0.082618564 0.24305685 -0.29870495 0.28969476 0.5959419 -0.25224012 0.26654723 0.077305354
